function [Y,Xf,Af] = nnet_2020_03_31_21_19(X,~,~)
%NNET_2020_03_31_21_19 neural network simulation function.
%
% Auto-generated by MATLAB, 31-Mar-2020 21:19:01.
% 
% [Y] = nnet_2020_03_31_21_19(X,~,~) takes these arguments:
% 
%   X = 1xTS cell, 1 inputs over TS timesteps
%   Each X{1,ts} = 19xQ matrix, input #1 at timestep ts.
% 
% and returns:
%   Y = 1xTS cell of 1 outputs over TS timesteps.
%   Each Y{1,ts} = 9xQ matrix, output #1 at timestep ts.
% 
% where Q is number of samples (or series) and TS is the number of timesteps.

%#ok<*RPMT0>

% ===== NEURAL NETWORK CONSTANTS =====

% Input 1
x1_step1.xoffset = [-1.43434866143894;-1.6969956291468;-1.42008464479556;-1.14117493302968;-1.00414644296083;-1.12779491989837;-0.724025447509932;-0.79326582096901;-1.08801490269616;-0.63542994007956;-1;-1;-1;-1;-1;-1;-1;-0.920044027805395;-1];
x1_step1.gain = [0.654062934896179;0.764596708775564;0.858590033586593;0.939644410992947;0.901321983664261;0.942070273276256;1.34196551784305;1.50804774898525;1.19644519213575;1.69673899778323;1;1;1;1;1;1;1;1.04164278060123;1.04603083642506];
x1_step1.ymin = -1;

% Layer 1
b1 = [1.7036053688910384185;1.3099870529489479054;-0.97608619130782126039;0.89665665492029800188;0.51092718997707686768;-1.3625847598262095239;0.63006259220978932944;-0.6538895937290158944;-0.10584180536295792474;-0.73738885735783865627;-0.79404080989349967723;-2.0906859913910165183;0.25690831039329381502;0.33159820677298423863;-0.43992694911360347154;-0.71614940422104200746;-0.45742984667705899327;-0.74822354148023484388;-0.40937391885842705497;0.30155121735963869023;-0.22968964205575270743;-1.0996471292689466992;-0.79936524278774800933;-0.65985973527155528107;-1.1609760767686438943;0.49891615439857278647;0.70114561096587424416;1.1765604451397075891;-0.63291170321306144952;-1.6681690096489152353];
IW1_1 = [-0.84228227902323593579 0.0037523126682683302646 -0.6285854067991309968 1.2387363547765612992 -1.3529552780084190822 -1.0446828195827828623 0.41529590690658568786 0.44793543560740267662 0.09998044278122711348 0.78210121162433376973 0.45324760935595714839 0.21097302639705500793 -0.23664279342178581866 0.64505340321045945284 -0.88367868540265293031 -1.460227682682376571 0.80430783552771012435 0.36855168407702748601 -0.031717912395491640321;0.22664843116304667081 0.4959562614453934537 0.11330601827661104797 0.43323149888695366982 -0.039933188980177891647 0.10204799887930260383 -0.78353183970039419481 1.1349085011844104454 0.50959734655315380714 -0.82073673895661070077 -0.41432981746064995177 -0.62400771275165967111 0.20513506267671027805 0.5247500856399462954 -0.066481524849081402584 -0.40829894882010703272 -0.25170058312359244734 -0.28813809999563272379 -0.68786531920092497394;0.25820301054303884669 0.026838632006902611582 0.077063285010761692351 -0.36511299731782109745 -0.72799670444991271268 -0.37430619676673310137 -0.40270734386832690577 0.188336615365659793 0.1130946487544352147 0.62052452575562933035 0.8380623884451560146 -0.69330362682247015371 -1.4374790543566382528 0.16235169603615617895 -0.39503803804761367102 -0.49722428987630706843 0.52035884355963391013 0.63908615464739382261 -0.16238028584390781783;-0.21655305026699919746 -0.054170381628869786195 -0.15194367381970264042 -0.28225310233758238443 0.62974653696189042407 0.3871109095883695228 -0.13871059181340553157 -0.52998483609350310886 -0.033903361735932883991 -0.089355634154613255982 -0.13765104120350585282 -0.24883630953296365096 -0.44299674565620422717 -1.0074104933909693305 -0.69808674905158318857 -0.50061488374312468341 0.25811023766110446909 0.0081362698134071730072 0.41950041747063010478;-0.68290766867783592176 0.75192236204112583575 0.10868273209303816462 -0.30141131857888664447 -0.23321937793954161666 0.096811993840400636935 0.075670018372045094734 -0.92537387071736043609 0.91747701093203537503 -0.020333179059598572441 0.55618321646837076688 -0.40295151926406469478 0.21478148407660518915 0.35683074970852923791 0.16528462317185732555 0.10677546818468600098 0.16920887996044872703 -0.44526755758979663646 -0.25015406128387307483;0.63047487691075254634 0.41583653684798899119 0.53098114661974316064 0.59238556318074797602 0.89651418351623013425 -0.14071796369815534056 -0.56342985255806099509 0.18850741401157269928 -0.38151691625739353464 -0.41145295145005778004 0.8966168416871305169 0.37510113170889686218 -0.051797730057839552753 -1.2499606556160200999 -0.16249583116691621032 1.6323833618922298783 -0.069342583597924473127 0.68537885966197686916 -0.28260145907911693453;-0.29845021178446617949 0.10560954137065135805 -0.26434466126729094793 0.33610714189074747393 0.63818938971132210813 -0.88536966618558898823 0.062306065116308761986 0.39093890346411336312 0.092825526799205221318 -1.0656506452650349459 -0.40403135084551144995 -0.53415908722986538137 -0.0012065415575654384744 0.43683067743198672472 -0.41039108393742984582 -0.32067350476892730882 -0.62375452850309287545 0.95016658858170433 0.60974656502030111227;0.42309353795148624267 -0.21994422930484974765 0.36012539064034254643 -0.065308825773702935957 -0.44306221041044541176 -0.45895400763677385303 0.32640768969708533476 0.96820279615239823734 -0.48597888999789690123 0.16364527221119942735 -0.11039814764190805652 0.98486006170262618831 0.58659773839076134738 -0.59760723178068875239 0.28670740290213969637 0.27117698764325598448 0.10346977039493629458 -0.35448543378765207112 -0.7151876772880166877;0.38616204854682395498 0.23829956001089847017 -0.11292836711394160787 -0.10566293396308239216 0.16339656185257461773 0.49689832134870398628 0.0077508703431289792049 -0.14215192549441646452 0.071179907190594735034 0.42927363916206007222 -0.39422408495375693693 -0.15033566003401999112 -0.19248512144876039898 0.17340082036319090508 0.20115171186166935779 -0.30197929979238624654 0.082376300593295231911 0.42639019003613437553 1.1436540975719444724;-0.39114906343967786873 0.1959647257963167688 0.34179345350711437534 0.30074018393815693528 -0.47501393636397098996 -0.71783926336106851362 0.37852982336928703289 0.37281925457943582147 -0.36298376568789753049 0.40737853542413471342 -0.51858076577149092579 0.19870950633544490205 0.73458752164900242843 0.80381201699384607906 0.26164733719099808607 -0.099377735248440013383 0.18113492834167885248 0.60762976691478487457 0.33299297222862633827;0.33026299214455545616 -0.0086777604690596137071 1.0020380517901064099 -0.24815842786745673232 -0.62430241729561997133 -0.25118257370145646856 0.57824080454042492416 -0.57264607655490440408 0.27426480235319383727 0.52226306177079673265 -0.53932619898443523443 0.40959616483712574242 0.29960381134940750059 -0.54151173489499648817 -0.14597786087187039628 -0.43139400046830927993 0.45526305437519920538 0.74838921534267666136 0.76452899823780429145;-0.001422684872779092502 0.65994019543680160211 0.24205585460766626538 0.79650500542968083462 0.48543259062822824434 0.16324627003736344455 -0.47489632745893728405 0.71573535447154601474 0.057950979277549941049 -0.1921842953520943309 0.3141299862732624959 -0.18337331726282776745 1.5024353232201679287 -0.72769877769290525205 -0.31336811352719512458 0.6319088730131426912 0.1174633392622705802 -0.69568063095449983457 -1.2208929594688824327;-0.57126811126214638303 -0.68199992475572568384 -0.13665268030832380952 0.15812917667030459978 0.62335012286040603069 -0.75973155062167074814 0.13058478373467594102 -0.022362207180099884923 0.22950356788923223506 -0.31566725525471173164 -0.02592126567494177497 0.13244082249451677447 0.4300620147243302549 -0.025598146639710869787 -0.11747194811405541059 -0.053381920718346215216 -0.31551448029559697739 -0.83869456357269955848 0.13100020574040022181;0.070785752607744598097 -0.065046580046778060269 -0.45062838857619674782 0.60300223991463242079 -0.73584773870803743545 0.65720005331224673473 0.035336312847582151964 -0.14720040790271518572 0.15176757969188719999 0.099614977788840181061 -0.55549908848277351758 -0.76043431301415653767 -0.016009267893546418049 -0.30533836744602105284 0.39008989089833928654 -0.12988261662171587951 0.39113570719700080369 -0.16280236847908588493 -0.38509944076465552065;-0.49958762406603673956 0.46843537982315569534 -1.0027931233632987329 -0.94868463265213176516 -0.29137076731457589585 0.45642186626283393069 0.18057750950886850005 -0.16137551292449292539 -0.1945932486511871562 -0.33319727756076755742 -0.61082000683030712729 -0.26122364417358456823 -0.16308190154474944134 0.54337667186489069238 1.4165265130205411115 0.29685736319078265266 0.35351631162957936061 -0.0064714785579667605947 0.07766633622539008408;-0.61348634402470803018 0.44099784086385285242 -0.42732409182422348426 -0.67479768700449294094 -0.75870107578670675785 0.41947608578018996672 -0.11988202965175098758 -0.68997917057557334175 0.227394980971883931 -0.39158062665731868668 -1.06654997578508004 -0.16335766621539976606 -0.68473037033522232697 -0.51316558499090825229 -0.38657618057748410756 -1.0539775353903793054 0.19681077863260632022 0.28133957017097838138 -0.01424318166710697095;0.46834321849708460128 -0.51549781101222391655 0.64347952155937826468 0.27383080492066785849 0.17539581303010132185 0.2417337571565627008 0.45597331236305949087 0.66441036647400020243 0.060613813387662397736 -0.035199896158905293053 0.79272645252001749938 0.21436141143665313202 1.3449038698724251617 -0.766894155599450289 0.11161875030954830634 1.1855559288877492996 0.092047137772458501037 0.36124094631495845542 0.081924864016526682819;0.21064772820704513734 -0.29849804007255253957 -0.15535430371690625573 0.049213743803530572707 0.16004169517133251532 -0.24659970341466705412 -0.52696879268122609474 0.0068673470845415363062 -0.12261556852492375147 0.049541950394550095249 0.2838800850044347901 -0.36765905904444162733 -0.92929363223925220971 0.14180713164380021052 1.0398846894400151086 0.39324796117647381477 -0.039655172440329566896 -1.0045158800914208985 -1.2037928015857968234;0.24428719354151540166 0.27152260409919792838 0.46529055109229783271 0.23258137886326818444 0.56697510487906033205 0.38651466055182143178 0.38645059607326864848 0.13772081587559348304 -0.11206970022878111337 -0.0042295789100008345657 0.76722232268513490538 -0.36745988792419470581 -0.14934054999855894685 0.2765674168526514598 1.4749215908823374299 1.2274901159498250447 0.11560635606828739697 -0.18060761054952553795 0.03836936593604464707;0.67872464524805276032 0.087005259566081183387 0.10214630162458136764 -0.014425491522755979484 -0.12698120837710966113 0.54544352675337970382 0.25561245216792777279 0.84687836173556085839 0.41202140206178317072 0.057618507047570557966 -0.1751350712877217386 0.19782158649356459956 0.67725045721820187339 -0.81081455329866702897 -1.0413098752572591543 0.58549375267069592166 -0.55486262049683410247 0.35294212933671947896 0.63736020901344980771;-0.22796579585449200378 -0.36160743689338387119 0.066899506366406610858 0.34718740439368189765 -0.13686978387483733632 -0.58686262830948221492 -0.2152979419351698509 -0.13121361222256669454 0.29594493099765289967 0.16939564903469153667 0.38662490008802724573 -0.21012218488446765541 -0.71048535571697268853 0.44488893091360581789 1.1729650636646025141 0.75399730892551186656 -0.46225807087217640756 -0.34118025283700614825 0.18660186755161445316;-0.35045636881323466438 0.031501649324290573184 0.53255453186811618771 -0.46419754231546023204 -0.78612634467699316065 -0.42496257421018834854 -0.33087875942934485973 0.2398318643144219664 0.037354453991260187784 0.5207174267521560429 0.35239871557432472793 -0.090858287930842399072 -0.23470800297409483148 1.1263287052470325467 0.59853978345103509007 0.084954690682819883341 -0.63751104106546507833 0.49405859255682554876 0.11103916173458301675;-0.27301870451884036051 0.052531010702671319945 -0.15838103517893875605 0.56730131466490529846 0.43825937590937924515 0.094481091592496888043 -0.28060602776464749208 -0.080996746876841857476 -0.30494087936853003784 -0.093165583334557489081 0.044678065594013979811 -0.35227716695589122997 0.34621993274506185356 1.5886614682901289974 -1.1910452354647573792 -1.041243457828202601 -0.60699032563981825117 -0.67085802725412824188 -0.1533201410656319652;-0.17663016553171739798 -0.36278282864456162793 -0.44052454228577286877 0.13574002903148835175 -0.42302620591757544855 -0.19524228501614024345 -0.72534466984502532494 0.032836909309286926861 0.56361244462368398356 -0.026639057317680521486 0.86086279843360558051 0.043433519001648657198 0.067324590295800013084 0.42264528431328901581 -0.088021827170918165439 -0.67734384532934388545 -0.025413168208678556942 0.30405669759990111567 -0.84950794394105089147;-0.7217065543019213214 -0.45898720290305594638 0.55021458300415371223 -0.24875507236509319942 -1.0456338245283367527 -0.42792112658905012701 0.21389469313770365089 0.42207992306846275898 -0.35578976811428875138 -0.33267132735270471544 -0.035823200165673162176 0.2321568097466216174 -0.33398798034748039543 -0.081837800860971823824 0.28509659111780422114 -0.72860056370046644147 -0.06998588984299718152 0.50202785236450309103 0.086655220298200497098;0.52746489100294446928 -0.25517412751131840487 0.33726428982028672232 -0.21134856938028065421 0.067112642271985642473 -0.21285730420911258554 -0.31955052872590161694 0.50051033569645464461 0.55462969138682227666 -0.092950396318360217762 -0.048319464641867204691 -0.76880208629316060254 -0.66792419704348382492 0.17656026787176176684 0.038747156841773641722 -0.53298927443021404393 -0.42480819673591529995 0.10244061575302527978 0.93596730812652317866;-0.4091374408913152072 -0.48827371378334177843 0.48725328697300651637 -0.033136955875654773573 0.048703638798120021947 -0.10807386906160926232 0.056568291224343036916 -0.11565115588010112246 0.049547156130231938265 -0.1101281655086876754 -1.3838514526165881513 -0.11127297305065278477 1.2199106330179598778 -0.83244127921015032001 -0.47480141210808357588 -0.96686600653693832719 0.076102641621559038998 -0.7698449801405180537 -0.5123911203742854692;-0.15252710225208104822 -0.045229812833439596298 0.63258525840073087654 0.061583288423840823467 -0.67721748622794597505 -0.68571967412730627789 -0.055340862846585112123 0.535935231010874924 -0.082141815988936689452 0.0025831338308567198397 0.95570153069672458823 0.098253759530291112645 -0.4779729625584685504 0.063198520751348463698 0.42120444192428913022 -0.73768688616116095957 -0.52788695004229724272 -0.94935523070673699664 -0.37067423649304553912;0.68688317595750514322 0.15519401922681330674 0.49960943698221632614 -0.32154748004775879355 -0.76816515221552117421 0.5948490997920672374 -0.19530481238210575801 -0.053881697646682512326 -0.13921542376198131619 0.13942978651940177159 -0.54642572119810706166 0.020380826406511291099 -0.20058517482353899197 -1.1212932990737547456 -0.13437921607887709508 0.91230836425331673922 0.40125607210660640956 -0.0080958743785392982967 -0.60637521316898823631;-0.17620122292473372472 -0.97120433373009629197 -0.48050935007225809015 0.30646397088484506055 -0.48572210643057728285 0.5159000159207278724 1.1136783381637844759 0.16289424406881225504 0.65944551143954133199 -0.25452002009252944204 0.9860597982028772579 0.2651361236191621118 -0.39767382414006563485 0.63107212470359552725 0.041752103234987542058 -0.24679011628962405078 -0.26568961942259661235 0.22263073706887226422 -0.23530559518948898634];

% Layer 2
b2 = [0.27139824122498812375;0.04618230871824639816;0.63076731594383517177;-0.41026359241963350488;0.88237436634492150134;1.2514017773136654199;-0.013185031828760325825;0.5769657364470652805;-0.17006205444690028483];
LW2_1 = [-0.52842504950953672616 -0.47002861450247901409 -0.6215040736804521293 -1.099207225834372581 0.41657286031895945921 -0.88447155830502643958 0.065314181609078550417 0.40401592387815249419 0.47437659979157908996 -0.98632005736532879503 0.65161653475783154477 -0.10387371644991515163 0.41775535338229263793 -0.11703985059884701447 0.27152017120334359657 -0.46173382074197988345 -0.39956046294362140836 0.46537327325472571671 0.54263027479270231623 0.18361229640081841441 -0.27507262724070530302 -0.060918005509866049452 1.0625836342620238462 0.54827560003049813364 0.32639897388253041877 -0.10241913240211007741 0.056072799411303039796 0.35209916994274836899 0.67696058566039296611 -0.27730351241737744017;0.02147181535282799078 0.89906827451966864206 0.32988862696835774546 0.28535905034870034935 -1.6652553737280764157 0.19677004116277754808 -0.108575983974395468 -0.87288339597747433007 -0.62219304195677105351 -0.05603945598005529577 0.61357017598145968673 0.096006956413893673741 0.68897635973591153657 0.12393370301612934015 -0.34451087609552344393 0.83438655815578677277 0.14153495970965601636 -1.198467595544891795 0.16304459218619032912 -0.46493091431524879997 -0.31241283765938226979 0.60668331149773779831 -0.17051005019200032864 -0.11685691859375735291 -0.37919961944635466322 -0.16322902350294901663 -0.83759789041947008137 0.071480823992427861002 0.08617045587438544596 -0.13289881311821252763;-0.23708733808074117233 0.90658506462123100711 0.34531252937850187568 -1.0977332645220161389 0.090507049117487789469 -0.29651416724718498985 -0.27434227342140321548 -0.035549155490468706264 -0.14557054995220497506 0.11304498988503039469 -0.48049947429290068568 0.42565273295598654579 0.73814815084516438581 0.57255763029510575723 -0.16567499578526073689 0.25252197931393827179 -0.23047792284295470777 1.2309370034730962029 0.17539604150549018002 -0.66983733899234831899 -0.62117161138358178984 0.31947458904203912544 -0.45619690687627972858 -0.87401407292856703179 -0.28271057626911821892 0.3531699458961595206 0.24703354024374549192 -0.91926543989380793409 0.11761200032509019908 -0.028760431627261939802;-0.41912138988353114799 0.73038620828141231911 -0.33013232821299309805 0.12570425759266565247 0.20436889683968958997 -0.2740291504292055591 -0.12556142778756473888 1.0037741537687185911 -0.32896022276292402609 0.023861392135377017254 0.54989799762157176577 1.1526057684857919927 1.1450227471650040734 0.95233820399893465147 -0.51338102963602716411 0.53528259742318051728 -0.38454572167161443774 -0.18515495975363571723 -0.024321210359454933925 -0.40187842459406958318 -0.81529682545458848075 0.81796998015919919478 -0.2546305746005503301 -0.14609394279274440231 -0.70942124213041046765 0.30218071703665300154 -0.89659167888265134394 0.12156839588255230478 0.028493104189235812784 -0.065842773841954388425;-1.4129747739709985765 -0.58444445908050635108 -0.08295059331848832207 0.48815757202734810782 0.25091671206827925733 -0.40566940451066879625 -0.84717810594989084727 0.40255925476570469934 -0.71573811590604685673 1.0765282190088503178 -0.34604537685943170811 -0.35497032092655328439 -0.25069996752697376596 0.10433049061948937442 -0.11606834574681039463 -0.078255517621639777981 -0.38184654471565904199 0.57774845671554608817 0.86036845385502003225 -0.27805786434594192968 -0.21289542797785898642 -0.94042320669927326193 0.69723738924747136192 0.62995217104376488582 0.51217130125725751633 1.0850661373665411169 -0.25955886513832576723 0.15985115469493343943 -0.12821768178758588541 -0.198296901710047907;-0.24587381283102355267 -0.065659696752944501918 0.13073470560118330419 -0.67337614207997320559 -0.28991807305393291205 1.3514625530013255617 -0.20992811050265763884 -0.85615430655002511262 0.15237499729891726408 0.42652825460866117258 -0.56257594632142315927 0.013686927032746747795 -0.55037745456142705969 -0.48978661290442065956 0.16350297512114686516 0.5455692030838396045 -0.5798336427833169493 0.54310639535176152837 0.70135925720394454164 0.36560188529710513361 -0.31873364087008732026 0.47361999875326665776 -1.1029770492842803087 -0.29182880333923510996 -0.017383585232545885335 0.29346869078967885436 0.66053776716263379321 -0.50016864902411917182 -1.1190335270980797944 0.34888175917293490214;0.14295615238027772897 0.35035237424064008538 -0.94799774965054039999 0.01474202844282720623 0.16008405633246328148 0.46924511687871128807 -0.48493998512473751594 0.082102061440113560664 0.14251459926291823455 0.2387070796468062639 0.21877970128382245862 -0.40699050147537807476 0.11859541901688712418 -0.36214684608305258706 0.20580919744698733531 -0.099012111681603440227 0.8062799722526821089 0.24912282927350196116 0.096719751916699972516 -0.074158320740663016823 -0.21080685446552405171 0.25783034166927831787 0.049955364371838187343 0.61166056389076661759 -0.29493564101297342628 -0.13061475123512719665 -0.41792287758162816047 0.023857498477002796189 0.19910424177837440785 0.20792674674950986646;-0.68316922924259315675 0.41439664197457692918 -0.51937619665416845383 0.36601953915833185249 0.021133826393615648409 -0.86504648592378152738 -0.021575432763813358339 0.82542460046703236554 -1.6053161095489771881 0.11997089420600928755 -0.12323536360329381822 -0.35204149990371907952 -0.11538350503347802323 0.61693432647705714889 0.67182515958449107174 -0.028779386809083928878 -0.8228378013832439164 1.1700067845546298084 1.1250684216123567616 0.48509594376327724863 1.8946640700796701928 0.29757121527107721626 0.41564324615482628467 -0.3341617778299809105 -1.0432218628143059558 0.15026792490778947964 0.12765703846573264735 -0.75524649242641495039 0.71800667888653169069 0.61510759607554232886;-0.059759240594565124494 0.41077937657023988471 -1.1830175068244319636 -1.4128210300341592642 -0.13564256257091861224 0.26477746066404389547 0.051299778821946959151 -0.60322552851506983096 0.86794324226669872235 0.82427107398025900586 -1.0132898622122885612 -0.53153067301544409951 0.13151246598217875006 0.18258469957490053304 0.50333535582739175052 -0.89920986971147132127 0.86782038673433548048 -1.0468862924967841099 -0.10277316095293184683 -1.5787912439485287663 1.338005662496015935 -0.49362989833106807325 -1.4575616422649557702 0.22661145400113633097 -0.16345011097061745708 1.3741264935120860446 -0.72329789592369608808 -1.8378841543049664331 1.7466243122589473202 -0.22319076757645125997];

% Output 1
y1_step1.ymin = -1;
y1_step1.gain = [1;1;1;1;1;1;1;1;1];
y1_step1.xoffset = [-1;-1;-1;-1;-1;-1;-1;-1;-1];

% ===== SIMULATION ========

% Format Input Arguments
isCellX = iscell(X);
if ~isCellX
  X = {X};
end

% Dimensions
TS = size(X,2); % timesteps
if ~isempty(X)
  Q = size(X{1},2); % samples/series
else
  Q = 0;
end

% Allocate Outputs
Y = cell(1,TS);

% Time loop
for ts=1:TS

    % Input 1
    Xp1 = mapminmax_apply(X{1,ts},x1_step1);
    
    % Layer 1
    a1 = tansig_apply(repmat(b1,1,Q) + IW1_1*Xp1);
    
    % Layer 2
    a2 = repmat(b2,1,Q) + LW2_1*a1;
    
    % Output 1
    Y{1,ts} = mapminmax_reverse(a2,y1_step1);
end

% Final Delay States
Xf = cell(1,0);
Af = cell(2,0);

% Format Output Arguments
if ~isCellX
  Y = cell2mat(Y);
end
end

% ===== MODULE FUNCTIONS ========

% Map Minimum and Maximum Input Processing Function
function y = mapminmax_apply(x,settings)
  y = bsxfun(@minus,x,settings.xoffset);
  y = bsxfun(@times,y,settings.gain);
  y = bsxfun(@plus,y,settings.ymin);
end

% Sigmoid Symmetric Transfer Function
function a = tansig_apply(n,~)
  a = 2 ./ (1 + exp(-2*n)) - 1;
end

% Map Minimum and Maximum Output Reverse-Processing Function
function x = mapminmax_reverse(y,settings)
  x = bsxfun(@minus,y,settings.ymin);
  x = bsxfun(@rdivide,x,settings.gain);
  x = bsxfun(@plus,x,settings.xoffset);
end
