function [Y,Xf,Af] = nnet_2019_09_30_17_39(X,~,~)
%NNET_2019_09_30_17_39 neural network simulation function.
%
% Auto-generated by MATLAB, 30-Sep-2019 17:39:57.
% 
% [Y] = nnet_2019_09_30_17_39(X,~,~) takes these arguments:
% 
%   X = 1xTS cell, 1 inputs over TS timesteps
%   Each X{1,ts} = 120xQ matrix, input #1 at timestep ts.
% 
% and returns:
%   Y = 1xTS cell of 1 outputs over TS timesteps.
%   Each Y{1,ts} = 3xQ matrix, output #1 at timestep ts.
% 
% where Q is number of samples (or series) and TS is the number of timesteps.

%#ok<*RPMT0>

% ===== NEURAL NETWORK CONSTANTS =====

% Input 1
x1_step1.xoffset = [-2.50566973365885;-2.25694169526187;-2.31692614454142;-0.471170701104527;-0.774205211588157;-0.402151554455529;-0.511885876304734;-0.409329193605152;-0.374994664663569;-0.557722911621781;-0.36744855605419;-0.434539574899692;-0.269603176892205;-0.533608961880087;-0.432473277150089;-0.547210723295743;-0.278943021765764;-0.251901233441402;-0.211896589070764;-0.352663372217364;-0.298011577258658;-0.27991293472762;-0.302807323140229;-0.248156358791063;-0.309613646509623;-0.240095635570149;-0.269862714605601;-0.226491070812008;-0.170266420718926;-0.198741713619064;-0.212119955189038;-0.199470133020391;-0.24543020039217;-0.281788201396965;-0.287954824770668;-0.274351379691842;-0.133223463389218;-0.131792445777185;-0.185160557405071;-0.154454810292146;-0.164091460467186;-0.131648564888651;-0.114685024784077;-0.2133799503521;-0.198442788467441;-0.184791414421702;-0.179948222198;-0.115996509078369;-0.0993772738524183;-0.15171841327662;-0.102536665630039;-0.122228675543535;-0.0870638153179982;-0.11089054796767;-0.0903447265120893;-0.096962922579055;-0.164934106262931;-0.0971284645419044;-0.0951864658002182;-0.11927624987512;-0.0678859419846887;-0.0865487789882145;-0.076923875676896;-0.0902845353299732;-0.0725143618372172;-0.0655107259202488;-0.0848535628252959;-0.0659817736463136;-0.0748605150423189;-0.0567207170523013;-0.0565776733392192;-0.0877919326796071;-0.102219850992256;-0.0629845854101956;-0.0477370054528142;-0.0724130698172647;-0.0431119035688189;-0.0529528447687977;-0.0483711833739679;-0.0411281111403596;-0.0411601245132508;-0.0484511098749534;-0.0580049623988704;-0.0591757021951736;-0.0489207915196586;-0.0552653292521;-0.0306051034526449;-0.0361637112894142;-0.0265369514749485;-0.0454789173132789;-0.0267720525481271;-0.0224472720095399;-0.0239957313493846;-0.028063529065013;-0.0268463192676951;-0.0283035184381271;-0.0196381194675827;-0.0233078005817009;-0.0161694431426545;-0.0201572407977225;-0.0193698851584966;-0.0239401188988994;-0.0211422920185586;-0.0273439041702582;-0.0148328502115;-0.0178194080141901;-0.0147714470706899;-0.0138295757665294;-0.0112889832653417;-0.0176548580018085;-3.406288476715e-10;-1.28859818611083e-10;-8.13377115569526e-11;-1;-1;-1;-1;-1;-1;-1];
x1_step1.gain = [0.385388843904636;0.454451989534436;0.464244179672087;2.43415831731761;1.23472842292366;2.62429906715104;1.92050522864306;2.52850862503473;2.39140830014692;2.08231246386328;3.31096809319801;2.3489748796149;3.92513715946847;2.09144593491317;2.58059823267537;1.59422294724464;3.60669702312731;3.66003743313331;3.62035413595419;3.04627789557692;3.50331211082081;3.55411465830009;3.17138870185089;3.7760062709446;3.78239593090396;3.74927365406479;3.51819787163951;4.89729690802975;3.99032867894333;5.00163638402896;3.45813908764531;5.01415672744268;4.14687502664205;4.15317000161597;4.99566667160712;4.66069484711026;6.18754415315251;7.958861665937;6.2755070641239;6.67716523802043;6.10819315815937;4.60337940481045;8.54398609138101;4.08238991835858;4.78833598968725;4.88112865210555;6.71392024520291;9.09330104149143;8.77629421653298;8.01559486966778;8.08443465268769;9.08699584920885;11.0646114013633;8.72999670056151;11.7705458201237;8.61811355943409;7.88066146545095;10.8300211080967;8.83616467026584;9.17584835514651;14.1444907695737;11.8869992092102;12.9417076786973;9.95485132250882;12.7474920366157;12.769464651696;13.5013524355666;16.4947374883064;12.7929017340225;17.7696398865444;15.8755978506132;14.5353547085066;12.5222795865417;17.1448563694992;18.2038385242286;13.8788770634088;18.8714054014758;15.5767093213146;20.2785326393736;21.7655941536979;23.0366171065073;21.7734748737376;16.8850048236214;19.0791212726161;23.2912331668487;20.1171337786576;26.0350341061965;26.6634230998782;36.9646025366543;25.4766490953154;31.7186645154632;39.8961273906936;39.6193442613606;35.0298993913617;35.3022504437106;32.0090097626222;46.5864485088157;47.4412671923606;58.8278318189741;48.802654994199;45.8403234170243;38.5362149286244;43.0070609989993;47.4156335632485;81.3945746701504;53.1774783899444;72.8411697655407;55.2592895765294;84.4604036207986;76.7306051413515;3178018118.1064;6397553026.10651;13145018166.3768;1;1;1;1;1;1;1];
x1_step1.ymin = -1;

% Layer 1
b1 = [-0.46590752102565169412;-0.29694351167186933127;-0.54616727252729746489;0.4260847754570229462;-0.11010127660101365343;-0.55430750307976706104;0.52938245822915186434;-2.1864853445126168907;-0.3362768204336151201;0.067110864036345599382];
IW1_1 = [-0.54147481318631718317 0.11319529265630386139 -0.15279236278919708369 0.13094147144392825899 -0.21664446752481172909 -0.036785784988282645147 -0.31154947622094841808 0.17127294127059702888 0.18513160396596550772 -0.23984768627041838651 0.34074557970232322024 0.057165574248001657653 -0.013310819961467917211 0.14761948058402435402 0.5099196656157536367 0.40993857535273614534 -0.10627345157050399616 0.076311064370487180497 0.041550491279633228192 0.16852112198043900371 0.016508763688371091982 0.0067081028535984155506 0.097648905104758612628 0.066870104368467492284 0.0048488693496761027524 0.063601022919863192673 0.022118618285566816334 0.022586963392348703705 -0.16732458736897221074 -0.11050584987897729694 0.22220568161409862129 -0.06512734584258632331 0.064323848671021532919 -0.034073188900697048975 -0.011101473266558229205 -0.11181238758500289254 0.050722177865102996419 -0.027698274291960409133 0.14864168599642160751 0.06642057646070763377 -0.070980119201568436793 -0.24023287979218266308 0.030437718818367629631 0.33757526353051564572 -0.045541135519270768695 0.042680321458968266402 0.24853850764138668561 0.12167439876103204599 0.059335474614489340517 0.26483316079604996007 -0.13450172081798425494 0.054939194095332537227 -0.052946628146888129185 -0.046977688547679877229 -0.00025973226689934326983 0.084432519049074533646 0.21604402178610510044 -0.046013729917869991559 -0.10894849731128317116 -0.23515506813189601676 -0.096771186006555473536 -0.22585384426437213334 0.077840414587092496279 0.20208961510338005474 0.12627120194351409976 -0.20881791955163744867 0.30401053245211795417 -0.0069276883249765938005 -0.09533226600795299821 0.03008840867070699393 -0.27761687245116289935 0.25228893436168770004 -0.2568624610337142955 0.004580008250297770353 0.15708066122943259435 -0.073996041419834623909 -0.020558872973051554867 -0.14376178637049796816 -0.11069355751711458524 0.046290648115100932469 -0.054995364557155777818 0.073453720889213452994 -0.039852762700386366868 0.17770782369926377275 0.18049442829722425752 -0.12032113143003903 -0.11217928180083243384 -0.16052272374654502629 -0.13990028283272959442 0.36429119093172446231 -0.13949350003169416756 0.13511177897298964901 -0.019394913765786100934 0.046895739224297260106 0.032146155692517851266 0.029452399369880363084 -0.00098074594105787126636 0.11314665706059462424 0.021540657149604566095 -0.21499331004355348718 0.22788763752301424703 0.26280741161986603815 0.15469123542618790079 0.46849590106933547418 0.051290013524796951305 0.066024579825933363275 -0.10107931127977511088 0.2547827879374416904 -0.054600361497838263702 0.17257716021470856371 -0.028067084986692032722 0.12759563228244236166 0.075730645348403277661 -3626199375678.4233398 -55757934373709.984375 -192121816930120.71875 5996593725134.2080078 -83105577588641.9375 -346271140448558.75 -18345907934060.789063;0.4471822871874550076 0.30650875658339560292 -0.57094453519888510584 0.17417131407273364618 0.346328967253759612 0.14422721451132239356 0.12942935602370564396 0.22311372418237868098 -0.093566418359373626501 0.28603775465676017919 -0.11016767334358164299 0.1527429523830652891 -0.0084964285451870208421 0.085425186119606338897 0.094787998016165206372 0.24604965181521282203 -0.053275060695356563079 0.00041850352724101015645 0.038584920956394305747 0.1732734280575098651 -0.28286160470483201479 0.28311696000090152969 -0.097323641156230211724 -0.0015230812333428597055 0.06726465153095410876 0.089592668712593220848 -0.19448831063568980393 0.061340024406098703214 -0.075913996416119872146 0.049863269552074401814 -0.11513541141180876071 -0.1044605133441336986 -0.081287620363121981804 -0.076632585720864898615 0.12776812974388995769 0.018310338192255318224 0.059214607533915601667 -0.12756916168526169497 0.26145941323395782696 -0.066235223048355856834 -0.22975999321914383766 -0.018070096751665994106 0.077506667963388981013 -0.20682960361322580423 -0.12807820030655650556 -0.0080537484432069029322 -0.0071114796417900850295 -0.071948613399806349289 -0.073400671528728048121 0.091144661559231815451 0.040105291734063040765 0.072030435837213663275 0.12623538152303009907 0.25108165784592806347 0.063987105288779655421 0.041980508217722506403 -0.29823043846860530781 -0.0073166076221509090613 -0.13864408319895082933 -0.13540609192940702976 0.067786013343065193437 0.15585941595164226614 0.057532371706440037229 -0.3629626888220194858 -0.14092362368366512237 -0.30428986810434816013 -0.026931332450752746427 -0.085255689179211599504 0.11799162171525755249 0.0086996608887232231705 -0.22705603827283127316 0.15522110535966859857 0.010138522122704902301 -0.19674436340612050378 0.08559560927988359158 0.01388395333853364999 0.023830416644496713041 0.067654988109986241573 0.14137864893262050425 -0.037908328422238818378 -0.16208790263198821768 0.097031772292274789948 -0.19138100859522644281 -0.01064322989141638573 0.18287505293205685852 -0.18625545934052428754 -0.18005653679573035975 -0.20694253943413520869 -0.12687968218125253439 0.37389815244701118946 -0.22188651325447578122 0.25340056962894336179 0.0623950380857682535 -0.22953930071278300096 -0.014121075395675038167 -0.040630430992650221067 -0.25050351057355768614 -0.02447166747054844993 0.21233870298137397237 -0.22878642470255106112 -0.023150009698311782569 0.28511321273296852397 -0.28499972984747651283 0.55143033827164678051 0.086258176773292102868 -0.26185570102567917727 -0.092839454128890483431 0.45278949213355823566 0.090494682051021291258 0.20901559380915973874 0.058553715278395195021 0.14288522230801478652 -0.17774723674610834467 60526557330824.109375 61245768245008.75 155071435699140.28125 -48365582319318 -51323534155592.5625 -420026081825727.0625 -25004137134130.273438;-0.75140145675471359255 -0.8275873451795333624 1.2884399420350736154 0.26055118533023996497 1.2093781796326834588 1.4659343857705202652 1.1161586480625091955 0.27899476051689853229 -0.34674334102447201822 1.0831990638829520623 0.35926313880510268861 -0.58655786400318687956 -0.024373262788666492928 0.033062627951173817475 0.31206531372634344068 0.5477375275583868941 0.2483415912602579545 -0.068951623656364008363 0.19719898848250227985 0.13261229637448071483 0.0026590938280685021827 0.19099587453163294204 0.10061370265340355279 0.048372723515325011245 0.044662330842619314686 -0.061119525179015650462 -0.040812049953697429605 0.092215849252457127161 -0.050999881420456978642 -0.41601630190561761369 0.64243343509478068043 -0.19604022806153176273 -0.37130018402997400084 0.31379486320051835913 0.28827511283672146991 0.32748249621343339388 0.011995460496557794339 -0.22371649174282187689 -0.18557708486218479904 0.46437350591595860649 0.058715204656861197385 -0.99665073605970444515 0.25346202475757262373 0.36947074034436000467 0.13428849288777083837 -0.26675872858332955184 0.22160419493760921683 0.026872839598466039673 -0.025599777960206959726 0.32771305906044490008 0.63011954350793519808 -0.041985032103382613489 -0.19855910134985069182 -0.054801417629199739023 0.14993822615142216037 0.37504089421298902884 0.11903143844221650283 0.33743405306590473769 -0.73713486050383369985 -0.19227768081858789828 -0.16410655642812746469 0.21274886017814692574 -0.021463066166550841957 0.32022063202597794707 -0.47382763068487177005 -0.40525308308120022716 0.16613875140413977838 0.1720362529004957064 -0.22363480604379840089 -0.19611649653030374663 0.04935107352035235373 0.16768662255933375338 -0.73356694827914648016 0.020847097226382737406 -0.17885639699528527169 -0.071469329686018281955 0.13778342887256525562 -0.24671103469657165719 0.13738884892344921385 0.18676891592210057014 -0.068154174376174256333 0.10074553809168763918 0.036736950280070769514 -0.10668662096429955277 0.17890514664687806601 0.20993021077425960685 -0.28926875243216659817 -0.31780553233464442497 -0.047707380254426848265 0.70774777680427558568 0.07351449798026901683 -0.09780246957389626683 0.062777257607507144788 0.23148287945076684302 0.13493464210053451868 -0.38020578449756170514 0.15080177332749311603 -0.10902917893198732502 -0.64448947865171235527 -0.075303996467753125943 0.72062045893882842318 0.48719640258280344502 -0.10182956068657987581 0.42689502177599003563 0.10644519392777924971 -0.3088368442900176758 -0.76645176591748132022 0.00029508745906608752768 -0.39005756375801331481 0.63189540497676399688 -0.22507149996889275201 0.01263013283542862436 0.21360503951380627186 30698030432770.96875 76050497704633.953125 -181690702781344 178461030049931.03125 -6991277504247.625 -553994705219960.25 25887703489884.398438;0.42050766214386170461 -0.66561276604537855661 -0.48288155988899028603 -0.18815581297140246408 0.032086419653780721972 0.1934741102284017189 0.043362060645408276316 -0.14190418458561726567 0.12595421870701140055 0.19208500133467723558 0.078082304457611662052 -0.31079798750643905514 -0.25664525909372415402 0.08021623521126673706 -0.0061888614206179635643 0.015126890742473140736 0.11904027466978069072 0.033881284306805460604 0.18278296970541971223 0.24119331169336002962 0.05046193334507353967 -0.081744325590933780701 0.063370267074165195775 -0.051685372241896759826 0.097936410605815593655 -0.081566463333984456918 0.07240302538632573115 -0.017208114501426684945 0.10801593538941330064 -0.18132763778800842225 0.21845972123682011468 0.12120835801459979575 -0.13499039275424623563 -0.055065409037471674258 0.10167277763851184647 0.076880995055328096854 -0.02533572726085452087 -0.053460685567014915032 -0.10146238460429085615 0.16871511646317544075 -0.17440829776381686078 -0.18638162365711738455 0.083645265606515500911 0.091808705332340451166 -0.038242451020865354805 0.12632827585306641294 0.0016931815281682549915 -0.048198116209773891883 0.14964891541653463358 0.092996805838212043271 0.21428867038993654193 0.039590277916000546354 -0.011355147992382992952 0.088554150969374439972 -0.081916961227908147158 0.035757200801762867304 -0.075513075515737479448 0.014127714187666891993 -0.19126869145889652257 0.062425596649594038146 -0.15617606357131247341 0.028850757705548294579 -0.019741970129359937003 0.1969866722242183954 0.23531263941438287923 0.028566329924655946976 0.06629628705258468202 -0.00013812238389831349179 -0.18685108557608731683 0.0089639880553088954751 0.017323093592412398128 -0.078204114775774949408 -0.046982847529288593313 -0.022822430443306378905 -0.060282138841600815815 -0.1154426642866816094 -0.079673532262717658425 -0.054303252708631906398 -0.044595082760338168593 0.19045282971690630225 0.023922330884100763415 0.0078020685745196823729 0.39304965177859180203 0.028975606649206699789 0.038814680330414845499 0.090935660471363310986 0.064432601702570729829 -0.10358625851595038014 -0.15754746540267006161 -0.10123347290915246655 0.14838105921788702357 -0.11741741172441631791 -0.067408656232036137657 0.081583331069064846108 -0.12758989530527301004 -0.09188515486637352514 0.33857819712063641493 0.079912396515509270811 0.090883106771663751955 0.024880581232679589709 0.12296617205390585059 -0.0071577368227964946121 0.25047521874528666519 -0.21980605846875764242 -0.071419650940320433818 0.16216068832007102252 -0.24320760846798231136 0.052796889252113961277 0.026152738849849317682 -0.033328308533524808599 -0.32431033843340267842 -0.1833606144083509415 0.31360331490420795264 -60351851908068.234375 25795894866348.574219 -103171911992098.92188 34594687659347.417969 188568762796524.15625 295101364533783.5 -33270166011902.398438;-0.15450911824086693835 -0.41950235636112453985 -0.46046483970502083416 -0.087134589898035935684 0.22039483411563925985 0.048509407355961632613 0.38934844174408700379 -0.14828216295480883824 0.0082272525895105072524 -0.01836471968995721793 -0.009926144726399877341 0.097230159556305706392 0.33758568721585557881 -0.13495266193231147955 -0.11737656185335740289 -0.3297192047682787619 0.028932465717378487435 -0.05612018936656929663 -0.12032169797858288662 -0.11276772743300363111 -0.002546004465671670644 -0.1467539408797678413 -0.088831060451507792841 -0.092875669844732236524 -0.11076951876275199782 0.0056982902644095098643 -0.027980107547565628845 -0.11597558910200868321 -0.0053401304238643518274 0.067414454591897376989 -0.097048096780003673123 -0.12173042611791717871 -0.10555432802796287095 0.077967591309367062502 -0.20175253563846937133 -0.035516907228956715037 -0.0098000332899431351341 0.00993573174888899395 -0.02596079755472492992 -0.088563191168601132497 -0.019409905522616760498 -0.2017102256390489734 0.031200790232181641048 -0.20768357653858074419 0.010937282906774628902 -0.25408243742136599197 -0.0061810700946641483622 -0.077453567868485118098 -0.015188844943007023119 -0.055123845016701394917 0.091311842920199823292 -0.15160484572844612483 -0.049129922693683346357 -0.079325243619455032551 -0.039821189931059354505 -0.053306728543089529349 0.24504655449174747583 0.025374662660176929702 0.12784476456971147207 0.12822221386693605227 -0.010279785292217721859 0.0043856282175103681459 0.016284763441154384567 -0.074406827909666933829 -0.21214930003942916725 0.090630446326128974444 -0.2032240047721657894 0.12570604885356517766 0.11260465609649424057 -0.13768209668791009381 0.063150010809974052584 -0.039707827340632613489 -0.013824478395861424657 0.046122487593614147627 -0.067549026526048355779 0.086099662895804701668 0.048993161909891086436 -0.033898245352758545057 0.017936911052634625652 -0.21660823109322971391 0.09037022682450877864 -3.8976649640344585013e-06 -0.16164899419328504493 -0.058438009186651339311 -0.20717525075829937298 0.17910319211945341378 0.17931407242679445191 0.2372123660337058515 0.072177153821923689669 -0.12014318712235450004 0.026668157004542100696 -0.040681561841807156732 0.029168108239867727993 0.0029884189684190485756 0.045683553252408699852 0.0035461057792355882984 -0.024174540702325025832 -0.027918068687189719068 -0.13497307410656225746 0.17077684814826049609 0.015685268927275147766 -0.13529039611966611756 -0.068112519895022913263 -0.48402603643249936249 0.0046821287777598103591 0.10086857458500683715 0.14035775362441921255 -0.43582127138271808953 -0.017056262508245656484 -0.024507954077359735134 0.082779001142650826539 0.12561340028699605198 0.042515002376611168988 53068009010180.195313 -764620492178.03747559 -45439966983582.585938 174926738057455.9375 -168317068068504.15625 180526405971702 8855876658938.6992188;-0.6050953914244084908 -2.0864324983441888683 0.74222030823074869321 -0.21823002186814041692 0.33180243689602517687 0.64530524461837801553 0.27045686659059253731 0.21746115967632051458 -0.20794599264942323358 -0.5065026809190087409 0.081796103938815895029 0.50484924666427855033 -0.6358009637659963742 -0.047999265242391543629 0.23710515039272736515 0.67023424063412928575 -0.11346900251632389967 0.27789772150596520062 0.43229351133324850354 1.1087912328556344121 -0.87970473743048571702 0.52960354735796177916 0.27307237511396753593 -0.047122277226351497181 -0.089054765461406740212 0.45470408645389231994 0.28418913816301455411 0.45085854994884899671 -0.59716820483193200353 -0.38804754498967969356 -0.32055439847745414994 0.042532071931091548767 -0.41501049334801276558 -0.18874526216269107981 -0.1882416525705557786 -0.64816689569534591264 0.84261116078457720668 -0.070844720747069364619 0.37503630321485048604 0.51641573319970734968 -0.39614620216811768927 -0.32071918743829791465 0.25113994534145533954 0.03289709691394508001 0.52116259236145145994 -0.51081481417087548635 0.17995654516149656166 -0.067726759763117996838 -0.12566162079677550834 0.21110087367506386036 0.36419513422165972205 0.7839879302979956277 -0.036813118385353130191 0.24303952970571815473 0.2981038910873916592 -0.72580729872649607515 -0.86694736428748375712 -0.09476904276546999073 -0.15004167268506174437 -0.16642062670852406092 -0.01328436641576380764 0.96013375494550234901 -0.43171783428334781219 -1.2040003422142033784 -0.12075685685132230007 -0.3376973923469186456 -0.094558750776017636008 0.17681495201166738673 0.21730594678259682051 -0.097007135901380825427 -0.25514088456372369107 -0.12786215178912413437 -0.42229664426899043983 -0.85656086404459952366 0.17687934920136000327 -0.58572399021647592043 0.074457021109485724275 0.18243044807034616839 0.10311360044889519849 -0.45563622699303341079 0.20605640111428050187 -0.10118434179149096708 0.10420700758267552322 0.14306961031307136034 0.12657006227814249222 -0.24726823698823327535 0.14557452896217856764 -0.36154331358123009688 -0.84817587445361053433 0.78245088895407288732 0.25750155158781018461 0.43879142941479670759 -0.018148512063590617471 -0.088547829595377824941 -1.0311853895578180218 0.22537037948184718283 0.1191435245736982701 0.38982283340048473619 0.94961184255080544059 -0.45952085123487629303 0.37106137477138589897 0.59072963804969869095 0.50734876092729441766 0.73457446966191530802 -0.058593115767089296031 -0.089587085956715897805 -1.4017510849920520322 -0.22652785583009010795 -0.25072821054738814173 -0.25681502313952780936 -0.0018917361813745228044 -0.16441410322337832173 -0.26665020430680824726 10309425675954.382813 -4015597319614.8544922 46191849995150.445313 91228997190357.625 96669461318750.140625 -602060469224904.5 19798316853301.871094;-0.62618402677272544388 0.36000650505423337222 -0.081096119290516133216 -0.21482125850107247622 0.21735115515896050176 0.098153081918441117959 0.096542170112949743377 -0.14802083525313253221 0.10167537031520439139 0.54305993083916093145 -0.14607512120920673748 -0.26122714911293137829 -0.33561348939868457242 0.30352587877145037476 -0.27998009586248800984 -0.14847198637662745169 0.18712999917781811265 -0.014528688878213562308 0.2426667587548895777 0.27140567607690385676 -0.069168909941688033749 0.025358559954445119428 -0.052179762549908650926 -0.10267411807129556145 0.089164208607354897285 -0.083769307182179064686 -0.082170231432489429513 -0.036993466956894462128 0.2120110769016725627 -0.086265391112386763384 0.019956797344873732081 0.1387103095371823025 -0.26522147327596445887 -0.17165445294166598034 0.21046029016004422219 0.19459624435495961881 0.0026859438425392186123 -0.10632478276957460506 -0.015481691231633856742 0.18804607591898792052 -0.36186470602153281151 0.1593596541701538527 0.015361413966310914075 -0.2423588377890355805 -0.13921791494215582374 0.27701395049388999325 -0.30243466141596853092 -0.18049115941717530642 0.14637342451025775469 0.037787911033797333404 0.28379738837921753003 0.029821863239790809275 0.12163688986365112088 0.34347992688999928745 -0.027534587141037972224 0.013396879774806250835 -0.48585219804232193663 -0.030250150489688269057 -0.2288792194826992088 0.22115644821584179436 -0.10516036300062742148 0.21838050067163536361 -0.051238868842839443984 -0.098402905003799889805 0.21578770063067798102 -0.017499929236401420146 -0.077647635750775420571 -0.14902378198429561129 -0.17079936778792856322 0.012666374360520300454 -0.065527780632899351732 -0.11994137495618685529 0.18119442905766555696 -0.17694988097128891424 -0.065911097067073737277 -0.10133808612110545289 -0.1003265412932825007 0.10954050898246985024 0.15216816151061374196 0.16665025758966381386 -0.064902980202282162248 0.12207550112430193279 0.43707120583128750146 -0.021280756580832206615 0.11880101114612415247 0.12707001595563477414 0.11138042925121020843 -0.26908256953415776724 -0.22078682939008248409 -0.17592518275950649875 0.024071480878187584418 0.0046424419534439945179 -0.020351388284771520371 -0.16014407741813299624 -0.14996711085357414261 -0.099936494746831444624 0.2886972299885516291 0.087437992146752269162 0.3670758680335690638 0.018155917141604093618 -0.03455506796898215327 -0.021531744227487280979 0.012973340688737740323 -0.26447583537097413275 -0.046210771497211818037 0.045895008936671602418 -0.21923365212227008403 0.38625507147033810718 0.19039181433215188188 -0.0069964882074907853299 -0.31908932442031018306 -0.063893982968440302117 0.0841375964610379945 -24855419117653.269531 118244471533078.09375 84042687321179.609375 -89566436619049.53125 236207471160781.84375 356494234764963.375 -10719513987700.324219;-0.8778071379578444855 -1.8899817747135301271 0.96902501389649020602 -0.44286894816459032587 0.30198464938677455072 0.39455417886453086895 -0.47603964511691893025 0.49431398559510542068 -0.16196572893869218279 0.896651303501914132 -0.068876915364704902056 0.10775210006736936352 0.20042242497248327626 0.045025661528109002518 0.48923996785690687661 0.30517271396257639182 -0.08542150667197771774 0.1295868797821403684 0.0056305184221638665196 0.30120571108492494306 -0.3483772022032423088 0.21537721587125582823 -0.085791140540804763925 0.13238626728514923947 0.24486089712696262888 -0.12336120356093346895 -0.068838741590438651263 -0.22344126934453883981 0.02199342671998156043 0.11617712416438223666 0.091677765086970702813 -0.25014095915917294866 0.021328656872999465777 -0.14199822716700039038 0.13063750643710647648 0.010218030767608594217 -0.11595343578256138428 -0.056939848368635484488 0.3129117472919317744 0.0436967113851042116 -0.26226869956808596118 -0.061787856346617583969 -0.096389994967423314742 -0.2691801424368189255 -0.41204784469612265596 0.38335804521691513314 -0.085176038031532341765 -0.1581250500677817139 -0.035244191480616804402 0.22539422436609510281 0.095725814229323136217 -0.13136203076084296271 0.10661078677140026216 0.33140460341031663383 0.15366619993069002836 0.12272729449560010329 -0.019316300570495922861 -0.12924821667310895656 -0.25179772573880709885 0.021980524360002903772 0.011696183382592926711 -0.18380566476648299568 0.14916500069688642949 -0.043111289753102431666 -0.089167625430048830237 -0.38222579283673835393 -0.0098131169472353615285 -0.20235068103654055283 -0.075805863308587073668 0.077682986139723575469 -0.39472760244620630488 0.39677675003841306189 0.10175225396109154052 -0.076973649920732994945 0.25856573379687741721 0.039177800150276789748 -0.16881352846322808525 0.046550745927649565814 0.28399419330944997153 0.13096724584633190336 -0.20017614086174562171 0.24023680465318067445 -0.091511544100758790421 -0.034445800054662092937 0.31246770933535894521 0.069317768533501078476 -0.11812045707291771168 -0.37164198007316084915 -0.065492994721941283354 0.20059616670301880226 -0.43701172141257893511 0.28675546956672892662 0.13122921335224957406 -0.5640488117612203478 0.10118906256276631594 -0.054213577664903166153 -0.15296356286165530003 0.1589649132315530955 0.175180908192261231 -0.28153224355814460145 -0.015803720248102781643 0.28761122319119841739 -0.43828171411995531237 0.49803732843052028745 0.15262070036466227063 0.063966674375741217062 0.15910537119225554026 1.111618503035786798 0.13737762941532519201 0.41040561682903170526 -0.1836992171864917367 0.32641699602943569092 -0.052590804880035368907 41269798212574 126623078561653.84375 90459822465488.78125 -34556347795409.089844 -265710280782783.5 -548475624604661.875 13294636175123.384766;-0.066296662558542260313 0.24952708014839916628 0.70219821132571969002 -0.12306646602388310319 0.1202922399138906806 0.042461070397156047695 0.27716593160279512364 -0.16552694703368608931 0.21559144142404371158 -0.031962193833243640606 0.23603673446367587352 0.00318148627120456301 0.19973129708279835359 0.049819233224210238142 0.14464453118713477275 -0.13507639293753309628 0.037462323858071001903 0.012360125154768548256 0.071220947535196157951 0.17380925113470246934 -0.0013875011055853384012 -0.21245027136552158131 -0.034196313038852517441 -0.12357120602557035427 -0.10582165730467453513 0.035644242585372326593 -0.042774146081819008902 -0.13270691982435409151 -0.07098281262259047153 -0.080284210746955075866 0.10363321095824458429 -0.13418756515795110529 -0.19696054232695600628 -0.0078259144788521105285 -0.17764882527698672154 -0.079150034107355021762 0.065891438471342447802 -0.054127846589902009478 0.030638682275276017675 0.14899636401797455854 -0.22627837202597891886 -0.34040477443889299858 -0.013420230194388428971 -0.051037886683601776938 -0.011065915898356180197 -0.23580707267677639138 -0.015901626568603527412 0.023843758695968567118 0.098966579185456510226 0.17694467177825473625 0.16106551724537501724 -0.15885691310112187713 -0.093228854984833200992 -0.064780238802384218499 -0.021803510082600684877 -0.041177381995269227155 0.22399126333629762464 -0.048725564665769001416 -0.088416389573175907524 0.21700043552423201043 -0.16104307131866144043 -0.07442634384827159777 0.079241763786931262992 -0.047011414639810004956 -0.066829743688493120635 -0.021041176572252035665 -0.039629010747160041406 0.080884252287063876374 -0.054666097278503952839 -0.14102361299490312474 -0.11867838551575032868 0.054928439994750222208 -0.20348481710316179694 0.00537339555211606857 -0.041370033849787241076 -0.035915779325543538414 -0.037537016284273520828 -0.10360252276133287419 -0.011813329439677023106 -0.19777162506335138614 0.052308738347222064058 0.12137789551162267432 0.021078186447234747991 0.078606700475539845185 -0.093224406658138761483 0.2212162339786393761 0.19313894602809511536 0.070679647893476402198 -0.080447547297522681298 0.050310159586896330275 0.026131706176575869582 0.033271827955273530764 -0.024768977439954938113 -0.059515684753885328417 -0.14617252749606615692 -0.017406876588338938278 0.19999835972769111625 0.1124760995848748113 0.0028630135907073603861 0.058376973489523774352 0.22311081870719140507 0.0040196354295919554597 0.11262980140167554166 -0.39204228619665881794 -0.019071113916713428038 0.2536813822698190668 -0.023595688275101091291 -0.1966510378333277409 -0.0087173580410729051976 0.06971011409240515655 0.048457195645657251404 0.087239578686131039054 0.057658083869463049032 54195577967042.296875 -1333356765950.9001465 -200388976061802.28125 147430567260420.84375 -86011388582299.703125 228570869422138.78125 41282323578871.546875;-0.83411079341203731019 -1.8115599228154739553 0.75669623563070986805 0.59313094921488296318 -0.41475133116923484922 -0.56989860561369254377 -0.20725247392290963022 -0.23705927371365820289 0.37306967930413903467 -0.39155328445123477321 0.25684584225251322342 -0.081118083021737202865 0.086330779564215157085 0.13643941996038638775 0.14590228538466501473 0.16699485640240491202 -0.21186455806057438722 0.14447103353565926565 0.014399712736371745106 0.32175107621833282101 -0.21608530346676799172 0.14547309088947790734 0.0995885762556457943 -0.095958662882993345233 0.11565023502860219407 0.065387494912197710595 -0.12418161962379728469 0.015384453169217906371 -0.033331836377858324594 0.005884679294165421487 0.066884389917888656396 -0.017919295867459994476 0.042866247934570007871 -0.1588184252001339225 0.20441713136950032115 0.018301979115030037049 0.077078476006959550926 -0.15404661945355513364 0.20290461302815765432 0.080363709972634089773 -0.38747518622830207091 0.032717568549668875344 -0.19360495924901052756 -0.098770225123578372917 -0.086479072394175099392 0.24133399979586808715 -0.053505816534111551308 0.048293682416165398252 0.10164592842256831018 0.15121728334277778627 -0.1864879191380104384 -0.1059823373494215154 0.079915616516811574521 0.2693978986530899955 0.0069151627177321739123 -0.072237566809293649039 -0.13455820075937000024 -0.15379842406061230986 -0.19485202615586452723 0.014360172870308374887 -0.11621034674469912784 -0.14472944801153458938 0.21869691843877442361 -0.13781712024365264102 0.093461302059686113264 -0.31167528229560176323 0.16194470698459870195 -0.16984506550502451172 -0.13873016387219486156 0.058704692322721956088 -0.56176201136281089799 0.26974333663055122257 0.11590758102057338585 -0.15335640263899266711 0.14848751919626479445 -0.01997665550330635087 -0.048279380415953497552 -0.069114837762069239457 0.016366539451502574304 -0.12226755963510922698 -0.26955570224333780249 0.24617827124948665762 -0.09633098754824377663 0.038451346117586590601 0.27422698420015595433 -0.083593549185809926105 -0.15459536434708415209 -0.12274969804201961432 -0.21260830780005093854 0.43487208840114238706 -0.4366819938531533718 0.38670765507300791652 0.0050801776478985923718 -0.34244175916085728417 0.062333720451385958572 -0.038100596401051463336 -0.099015303557245831767 0.038813746834700395272 0.38078087720658887472 -0.24640193430725754187 0.065466692555234060058 0.26635266418745834338 -0.13353360314299314582 0.51601897282438491388 0.11995523145062793324 -0.096146140206292002306 0.17459291053033509922 0.70367108723702520567 0.24522955310304059284 0.26042685768343398767 -0.25812534491445948692 0.088378835216734646929 -0.19472711960701688527 -50871023669514.195313 -5617501150625.0214844 -124456373978664.70313 64200853769493.125 -186017789012924.46875 -356445729330548.5625 31656884528495.71875];

% Layer 2
b2 = [-0.078131697793161730692;0.11396903525028669046;-0.022782738767728055035];
LW2_1 = [0.045903773406663732348 0.68085992301849640462 -0.19838418036675808942 0.17868674946462165254 -0.29890283332046252429 -0.17713015801651266212 -0.13222225676181223464 -0.3225632526043943904 0.43352052656707218414 -0.43321833168901446864;-1.0626266845665894856 0.2367069517632588993 -0.023395038274447568782 0.37945274921510496746 -1.0858151655366208299 -0.041726375884273143868 -0.78487539709003706356 0.2083863219317387272 0.84347726378023790694 0.17313002801295085398;-0.16358205278610277178 0.46653845396703341741 -0.20619309098444102424 0.96082720954523936907 0.34458177142985507713 -0.012039786206905701144 -0.53112599126460124932 0.061838779763580861704 -0.24271825660442888917 0.11869949502739615688];

% Output 1
y1_step1.ymin = -1;
y1_step1.gain = [1;1;1];
y1_step1.xoffset = [-1;-1;-1];

% ===== SIMULATION ========

% Format Input Arguments
isCellX = iscell(X);
if ~isCellX
  X = {X};
end

% Dimensions
TS = size(X,2); % timesteps
if ~isempty(X)
  Q = size(X{1},2); % samples/series
else
  Q = 0;
end

% Allocate Outputs
Y = cell(1,TS);

% Time loop
for ts=1:TS

    % Input 1
    Xp1 = mapminmax_apply(X{1,ts},x1_step1);
    
    % Layer 1
    a1 = tansig_apply(repmat(b1,1,Q) + IW1_1*Xp1);
    
    % Layer 2
    a2 = repmat(b2,1,Q) + LW2_1*a1;
    
    % Output 1
    Y{1,ts} = mapminmax_reverse(a2,y1_step1);
end

% Final Delay States
Xf = cell(1,0);
Af = cell(2,0);

% Format Output Arguments
if ~isCellX
  Y = cell2mat(Y);
end
end

% ===== MODULE FUNCTIONS ========

% Map Minimum and Maximum Input Processing Function
function y = mapminmax_apply(x,settings)
  y = bsxfun(@minus,x,settings.xoffset);
  y = bsxfun(@times,y,settings.gain);
  y = bsxfun(@plus,y,settings.ymin);
end

% Sigmoid Symmetric Transfer Function
function a = tansig_apply(n,~)
  a = 2 ./ (1 + exp(-2*n)) - 1;
end

% Map Minimum and Maximum Output Reverse-Processing Function
function x = mapminmax_reverse(y,settings)
  x = bsxfun(@minus,y,settings.ymin);
  x = bsxfun(@rdivide,x,settings.gain);
  x = bsxfun(@plus,x,settings.xoffset);
end
