function [Y,Xf,Af] = nnet_2019_09_24_20_11(X,~,~)
%NNET_2019_09_24_20_11 neural network simulation function.
%
% Auto-generated by MATLAB, 24-Sep-2019 20:11:09.
% 
% [Y] = nnet_2019_09_24_20_11(X,~,~) takes these arguments:
% 
%   X = 1xTS cell, 1 inputs over TS timesteps
%   Each X{1,ts} = 210xQ matrix, input #1 at timestep ts.
% 
% and returns:
%   Y = 1xTS cell of 1 outputs over TS timesteps.
%   Each Y{1,ts} = 3xQ matrix, output #1 at timestep ts.
% 
% where Q is number of samples (or series) and TS is the number of timesteps.

%#ok<*RPMT0>

% ===== NEURAL NETWORK CONSTANTS =====

% Input 1
x1_step1.xoffset = [-0.471325899042582;-0.528748705574795;-0.535313798517796;-0.380369579643666;-0.362911088449167;-0.487608767851155;-0.339239931612931;-0.374464433695807;-0.389182907050061;-0.36594100030712;-0.43536711600424;-0.386557356955773;-0.252769772848879;-0.310898459701308;-0.250201218005793;-0.297101818921079;-0.305238349344223;-0.271368052222268;-0.339734890752406;-0.30530145824249;-0.331225505920218;-0.276662597228725;-0.332365717357791;-0.338174949348338;-0.33422432957471;-0.33848540630609;-0.376347067419645;-0.372706969678103;-0.459470289076616;-0.387121494928429;-0.479213176999736;-0.355620890804891;-0.481223458953124;-0.369502471423533;-0.356631590513518;-0.489840886467047;-0.3538426418364;-0.269699383901616;-0.210070521110862;-0.267593881095331;-0.255994570905187;-0.190483512098367;-0.252811762668226;-0.215726558004432;-0.269282887340248;-0.221527704158727;-0.31019634913935;-0.229301974933795;-0.275942361702263;-0.213345753190503;-0.203742126796464;-0.265852604139634;-0.175079811380095;-0.233538404350364;-0.203160966142824;-0.27345533025476;-0.330241083732405;-0.197364346677622;-0.260875467899267;-0.196271135806834;-0.318192821103733;-0.331482912850409;-0.300178960015201;-0.231520128576587;-0.291686229429923;-0.289916334376165;-0.195503868677106;-0.280119849050849;-0.214057991225147;-0.265490781919862;-0.211287385078588;-0.316496081570515;-0.259861484431329;-0.197125028093372;-0.270720624531572;-0.335596174444587;-0.311773834002068;-0.214574414266936;-0.26404590311026;-0.227611645895853;-0.315760943650823;-0.351317073870273;-0.316618441789027;-0.378783782984216;-0.394810376626473;-0.400268409018981;-0.381547646894171;-0.387368079082777;-0.385227968044694;-0.387795236685339;-0.37516712507873;-0.379278528709161;-0.363504975470473;-0.391359312921531;-0.368865344754486;-0.356418093299746;-0.388973719049073;-0.376431702008607;-0.195796471352031;-0.260540228855168;-0.169178491308227;-0.255641682712089;-0.155329240944267;-0.242873811797347;-0.156383903766404;-0.152740820487893;-0.240399227450375;-0.181876587395199;-0.116949418999134;-0.156128509392128;-0.133633513952203;-0.117599777264165;-0.144971406066826;-0.159375151325314;-0.178783087425777;-0.249547885319088;-0.203846347172221;-0.341768290989469;-0.254995335893185;-0.193014743723945;-0.242043114452959;-0.175867332921396;-0.240436995539283;-0.173480605160867;-0.235030720369888;-0.233114506645116;-0.18330235799961;-0.226150483081376;-0.146848108052908;-0.112318191348442;-0.156716470517587;-0.13718734431899;-0.119962933186026;-0.128624864279351;-0.212604936700919;-0.185488137042751;-0.252492986278463;-0.323808391818774;-0.145337830271023;-0.141690002312573;-0.122440552130037;-0.134291710714766;-0.129338877622018;-0.129860961752467;-0.168212305188223;-0.23916869186794;-0.18168487039501;-0.329995615280226;-0.218515254481641;-0.159032095364058;-0.240757360160506;-0.331724776984575;-0.312663687964226;-0.205444030527335;-0.263951337023442;-0.191444981132304;-0.260897377507089;-0.188132884501555;-0.256518353944666;-0.188155697864656;-0.187700188755116;-0.249388907447781;-0.195273188367237;-0.120837240616709;-0.156887971456565;-0.116808043750066;-0.126437440926952;-0.146705457287018;-0.139929389963974;-0.166466560674593;-0.245215593991861;-0.192104763609726;-0.336819712754738;-0.161565248355063;-0.16244802659836;-0.149602511486385;-0.151939452714956;-0.121573454814243;-0.123148245925508;-0.219044010024447;-0.156937544757478;-0.24838372924981;-0.332605009664209;-0.160896229901489;-0.236075099095227;-0.175282777415238;-0.317606808190949;-0.356411504292278;-0.195838111821808;-0.175580115140455;-0.141926030387482;-0.164666420830099;-0.147442786035716;-0.125991294455172;-0.15568516104842;-0.242809030944214;-0.172637490668301;-0.327566594627932;-0.233018398729972;-0.161528170455476;-0.243601813969684;-0.356491689152383;-0.322981342050498;-0.16756120742734;-0.239411438922799;-0.17647859060961;-0.320344662487298;-0.368537325734337;-0.327077322493939;-1];
x1_step1.gain = [2.16798236456263;1.91633141635363;1.82606923548992;2.73169435391938;2.58992517042724;2.12533421261274;3.08339900402995;2.77013391905924;2.4755974091315;2.62853198897703;2.41652448961789;2.38562264724371;3.67220864637324;3.43429813797951;3.54703443034107;3.31619022170412;3.43148607678632;3.32367158063577;3.18062630622755;3.18681594268566;3.04293968743222;3.3095095079531;3.16962822687267;2.85461858424643;2.96818932880825;2.92348207720158;2.80949493258128;2.47331757861617;2.35314589805355;2.32141232106992;2.33238858820578;2.43044225224447;2.36693323234466;2.34245695052146;2.36506698107223;2.34890309871492;2.35502535321069;4.04062038928274;4.22040153959507;4.17385961831037;4.48356175820559;4.4388617780575;4.71324266196773;4.50029199947343;4.09624490266962;3.98310452843583;3.24059308088844;3.91278810829746;4.04794045207593;4.13369858843839;4.2122064373685;4.35681502349279;4.58282290676135;4.52321144693336;4.28403412757908;4.23899726419619;3.08597573864086;4.5293296009632;4.45842251004981;4.29805719607671;3.05558975320448;3.10309190687527;3.8176844883053;3.79231753473182;4.01698357276451;3.88684729731477;4.15497683546491;4.21578939111805;4.43324211275697;4.2573995573351;4.11427993543453;3.03203055975912;4.29660176069819;4.35395086673114;4.19147601168182;3.06522725282855;3.08153061210021;4.08080258037141;4.13330801757385;4.00110572540433;3.05988255197333;3.02125795879971;2.95070013870787;2.56717565273422;2.53081174403976;2.53573441557047;2.57040635686446;2.62621881439662;2.60088072521746;2.59364238969043;2.62935484117527;2.68669503286469;2.63629503150565;2.68625835874768;2.65577604122949;2.654679906801;2.62607565288672;2.59733403404648;4.30484565223863;4.52186298027371;4.74502637314039;4.79271066248527;5.03444337642884;5.07710115266734;4.94846959022034;5.15399277905564;4.94932570453852;4.81513968038394;7.46188115139611;7.4724711343658;6.78301795035646;7.7501587917371;6.87169435091754;6.58544356157466;5.14517986195652;4.42308012754892;4.31716776080916;3.03334566454444;4.32594134475669;4.55197246555612;4.73570011182868;4.81285063279407;4.89831107638245;4.86649458545604;4.82455001623325;4.87489397534844;4.8328708920173;4.83905970226951;7.52504283557165;7.57817211761645;7.33580183368382;7.83299355972847;7.6360930117012;7.81223621993714;5.18143643801985;4.65995757683391;4.49071052932445;3.02142518291283;6.65728988037503;6.9978226105276;7.54514939293099;7.30482891384125;8.21473254770354;8.08836743002546;5.20658767319902;4.88684199539827;4.66695585721508;3.08072364009125;5.24533424863223;5.08461442167804;4.78184858127117;3.07455737870279;3.03803743607008;4.24461431147666;4.41657694865338;4.4086978888185;4.43425823638926;4.47922608341412;4.49795609483986;4.51247292545098;4.55853202485049;4.53435049336384;4.55463451617954;7.33059370576671;7.1385322823615;7.16431803706392;7.46308398646655;7.41642955644641;7.33872539251902;5.23570594788586;4.78924906270838;4.4856374525;3.03002121402135;6.04675193961124;6.24732968182973;7.10416355875059;6.65280349492716;7.76741574809433;7.82634695791403;5.25249940351068;5.02637671610659;4.72773696233318;3.02420000450374;5.22913275591181;5.04625609316657;4.79060802002855;3.01360124229828;2.96247142874537;5.39946509647987;5.57987662624535;6.71208910597397;6.01335349036059;7.22330893153444;7.71435967717158;5.29401593843954;4.98517698801762;4.73247435457139;2.96647426939686;5.07464252749819;5.00868543646789;4.79794329034473;2.97088522199924;2.91187446897447;4.83504106884353;4.907097482187;4.74577316143172;2.92396892081819;2.88079838686738;2.86547088599898;1];
x1_step1.ymin = -1;

% Layer 1
b1 = [-1.1380943424280554055;-0.84803932084319078033;0.61848760751337794606;-1.9580133248154676373;0.72186456562530698644;-1.6784697341832575113;1.2047097267444648594;-0.39510643596718592052;2.05979782702193015;2.4012595240766692051];
IW1_1 = [-0.86999716791338743693 -2.563761490630003248 -1.5989081151363313538 0.56167535295408665963 3.1306894615631963852 1.603382162611256323 3.1641008571652320391 6.7536782990173245267 3.6608299231953660424 3.2968587149549319903 -0.51583719297884023103 -2.0412308296145500464 5.3625468048272626476 6.4551783106883293684 4.5850401623850283173 -1.9117663110367726365 3.9318497867525956657 5.2794303226672543161 4.5607710181445764164 -8.7650262896585022787 -2.9299492583377504396 -0.7512120980255746483 1.2708248046994696789 2.0304060267428298836 -5.0395000790974116001 0.27887366323614659613 2.4186910324970760655 1.3110102193935431192 7.8588429563270727485 -2.2400193714041027881 -0.5659967968789381132 9.8611543228684137574 6.7598989007495466907 5.3042711125028603192 -5.4587571402754120342 -5.3707419146928963016 -0.94845632707589566657 -6.1454261904176767928 -7.1847386971262210409 2.6960962302451036976 0.37735544499391526774 4.2259887711228172336 -0.61106997050545408534 -6.7114091085032185902 -2.305407872720957041 -8.9198113218320820295 4.9763168500965671015 -5.6798215638552296269 3.7791685942386554764 1.8487297801824649213 17.501124710773677151 2.8546776896046415217 -6.9193605770655901566 -11.933737663925066741 -6.0049975440952074734 -18.252996730397427427 5.400551858959135032 -11.321566815240831971 -1.1710608244447664461 4.4116064542238948576 -3.9862329512403555931 -5.5001125632130163368 -2.5389108401435405149 1.1564465160356547369 -3.0614887122192473434 10.340688710314488219 -1.0540400761389103756 -4.3652310879939921762 4.1360296155454481237 2.2884624760088652096 -8.442129325670398643 1.8271005970285987274 -3.5362275232547539794 -2.8877379344566658226 5.8471982761747565149 -1.1033389493490919353 -0.62920134207457489861 -2.1589247198209000622 -4.2238011030484514663 3.5626343432483333906 -2.3447195522465347217 1.9141559248589119502 1.4334871254173990884 -2.3572506937663515458 -1.1424085799118381956 -0.39373485229572713351 4.8353651700188526874 -6.9240410561748566565 1.7704522101689021962 -4.4204313947664957141 3.4401055718460091803 -7.3018853861220067714 -1.4014192374515475059 1.9086507083872734647 1.7232295792601415307 -7.8362430504664812858 3.6356380497878277858 8.3946902443386424153 -3.1041961615784026129 4.9016791645995096971 11.201604791492169255 1.5554247544510393375 1.4440368646181678258 2.8904904282982224473 -10.00406002655559945 7.9780682154564797059 1.7483345262677785215 2.1766043371446230914 7.1962166872082979907 9.3187427764589294554 -7.0927241926562167862 9.6503492105687964653 2.3755853821248260616 -0.12687608899358981951 0.28549135039387074642 -5.9624218358159142284 -2.2772573819618830981 -3.8379081610037775185 -2.0018071684347424899 13.441739887227020844 0.25286176856675279812 -1.1357180090911640491 14.534885363869605612 -10.101160346603707652 -2.8980737074011910792 -5.7077057567764217794 -0.22409622707109633222 -4.7690222016032022267 2.8519987981124490517 -0.59493064141837970205 -7.0308634482770084873 3.4566272615055857464 -0.18150051334862382646 -0.55134722031103833295 -2.523676247374123438 -8.8319930057647333399 -0.37492709566093840312 -3.6358835629268515532 2.6380148036127017974 -12.301786822701945567 10.267165003313607485 -11.13373708112455418 15.120882469532277881 7.9511863533103337431 -12.033420579579583887 -3.3326125122299008474 0.58385072376209812273 0.90159879404320508733 -3.7244920431619576995 -0.38505089352045418494 5.4710250431061950849 3.5950511946128087537 1.3679064920352088652 1.7838571511376022372 4.4110462090452351447 -8.9697360743030518648 -1.3587637392169065187 8.2419929173168036129 -9.4184343966495163158 4.187720808075741985 -5.883289527868714508 6.2326769221559761291 -0.5002784664939586845 -3.9146694140888294022 2.6351402385519357985 2.8258060356077057129 7.1204351983599254439 -13.048748724282718925 -15.327904459695018247 -1.6956038483070579037 -4.8074520321370846077 -0.59558264056959064892 0.35487775765975182463 8.8345559653449967641 -1.3984369400495060276 17.737145066126593917 6.1612227561636281337 -1.1438073862189868102 -16.220592656471218618 -6.5320204341548517846 10.866772100095463571 4.3212743351336522224 -0.53115888807962219342 7.6550431823245679297 7.9617837765504120284 6.5951051225258936483 -3.1303341297178715052 -7.1628272966432016133 2.6955345418069214247 -13.171509475917119403 -1.4512509470038295056 -2.9672214473791380662 -12.840955464460016344 -11.473957336385007366 -0.62510858451019879478 -2.5166720817505141561 -8.109402787281100089 -0.27330965295657000391 10.848500044021077926 -8.3886818491339862902 -8.8427991385267432634 6.0326472191689752833 -0.46115195981723716701 4.3923882407015373275 -0.57118969343937042726 1.4045715007601295987 4.6531184487216492585 5.1680825532504197639 3.0030944576678106905 -296726359959331.9375;1.3035357265735769694 -0.89481396564514359415 -0.90743230433200039453 -0.048666016671550127448 0.85466312833361723911 1.8010082164726044507 1.0729537736820971006 -3.1011761740928664999 -0.78689679684746849375 -2.3009313931726196323 -0.81447777286883837888 -0.13861585238881229953 -1.0292144356012884465 0.072274243793802497859 0.65080155051822452528 2.7105078435136333859 -6.4113535138517878664 -6.1779708152392407428 3.6918628891562876859 1.329071284950076981 4.2086754718812677822 -3.1035398413771000392 -4.5714934682093284479 1.9101809483817908664 -2.8613417366847699874 0.947290427323151496 -0.78316816745757922291 -2.7468791549883886383 -2.4848127777717494702 -5.0026658896338709326 -0.61022693880051703808 0.99768045171947450367 -1.4914788053960055247 2.7954575948858129131 -0.65247273751666789998 0.97946892765173065865 -0.18853686091269186709 0.57204520277339432344 3.6131570484008905808 -3.8750262391303111897 -1.1897113352224024663 -10.582106083861036794 -4.4471951658407933294 2.663495628341943533 8.5493815923487002095 2.7787750345778983174 -1.2036074617124388197 -4.9127005111538624149 -1.7580094201391160968 -1.754216033978708511 -3.3908315364657335422 1.7925118376722355418 4.42609830821112471 7.1882836200917390457 7.1419084277531874605 -1.2967695070487033071 -2.0832298561624891242 4.5622619785175109186 5.7975878699934995097 1.5799704835819514681 5.5571149752396520327 -0.80622842219781365447 -3.1841058621095577053 0.58066073150146868542 -3.6300624421875324899 0.67462140937920822559 -3.0864252297012173543 0.056396737068147462235 2.7641090866736970355 -8.4278287367237751937 -8.1076499235772061525 -4.0071172540469879308 3.9103912551472226333 -3.834843572090048891 -2.1965358147639131303 4.7394367275562103714 -3.7768960620119025329 0.25574165771662416002 -2.8935455924534831951 -0.20344861958728424622 5.9081162906245898725 2.4168538071972363035 1.4851611995548377188 -2.4506921271968908904 -0.50847252518158037038 -0.62229534870024671989 2.6510317215820400349 2.8196081655541940236 -2.1244698427561958809 -0.79667770195829745727 0.11656594086293478596 2.4427563600047719206 1.4670385723024870206 -2.6999167711652440893 -0.35175601846317183785 0.48406094101233942961 -2.8508198248057712298 -3.6217998163558267066 2.5304573620283279389 4.011922376174015703 0.83735662488675310922 -3.0837155785715770762 4.104001901745648162 -0.9756885664383195822 1.0527705683087178468 -7.4096979508858673569 12.459161551747552465 12.257250978329338409 -0.099958304390236785153 -0.71142359035543856205 1.7421425161760821787 2.2926992221563606833 15.279059875461541651 10.047885590690693647 -2.7919404580068918342 -6.4054311893515158971 -1.6651310505205267898 -1.9843290785762210948 5.870454192320341491 0.86047746905512956239 -1.5201688825879688949 -2.3724601862586229828 -5.3949397003954073782 5.4378237155492481492 1.7012887017808073775 -1.6656821842754829799 0.86281114560886695841 3.8000332919865913439 7.2889500128063593465 2.3055437273922190222 -7.660037835213322488 4.4173377240976350322 -10.183394258156129197 -5.3601746204793538908 -5.2206081482176793784 -0.23675511773381216485 -0.37071965732450307129 1.6836285237160808492 -0.43746407160132771974 -5.5705005063491466188 -9.5212172077568197892 0.20754278156650493581 1.2393050021704326014 7.8251441563062131834 -2.4982544701597770853 0.76096897983462130632 0.54008094723750610378 -4.2565471637929794824 0.87936056420830166491 1.5637309669366712406 0.51056559856767180783 5.9976929513005377004 -1.2978456304554606415 1.0013849051315866223 -3.1663811311024039341 -2.7356119855738114666 0.9757503263146335426 0.40264025671022757313 8.6943452055703467352 6.6111534457523628561 -0.33811223734061290891 1.2275435357699029382 0.81324629521382774122 3.9408789113128728232 0.03825617722970153789 3.65154930873068162 1.473001703190137901 0.10057471948427065822 -1.5457855557059603235 0.63218342257967152786 13.156841082800053044 5.4012944684117822902 5.1670890404193983159 -0.05309862573621937365 -2.3767824775648223046 -4.8874211751282112814 1.4659159584729164472 4.3312652960552480153 11.003112753179395966 2.3310906996651410417 -4.9455495990420663688 -12.39377941594728938 -5.5209359172860841269 -1.0250014598474757044 0.13871769244084963812 -1.7553909450397278125 5.4667913208299463435 0.38747936208662603352 2.4268760146509360531 9.1098227251661398896 -0.024904469608668808323 5.4829046931204379334 -1.2652031123530409484 1.4602996283817846201 4.6883936949269422456 -5.6945316367030347493 -9.339827632264922741 -5.0477224133622629054 -5.0627594347664235386 -3.920185907281785731 -0.22398386785884732975 -2.7072088363939399436 -2.9500531583828526472 -6.3023658315709196742 -7.7575195656004956035 -3.0346338386828359823 2.2162772020478791468 -0.11181633608120239431 1.088688694005862212 15780845735536.5625;-0.76922538376621063527 -0.82164465863787972122 -0.49675046969658931406 -0.12074921647558048421 2.1964216758034407206 1.8791782778108614416 1.0837374225744278444 3.2325939792709639242 1.7331759550119079094 2.370390415809321194 -1.0189309986878687386 -1.4497193661984000279 1.5857964850413723834 0.50258334727786990737 0.016365846828375465311 -0.98512575581230521493 0.90664923111062145633 -2.1706354305523998249 -2.2910254057347847478 -4.1692278112015985769 -1.6605457985954426015 0.042014448415360811095 -0.42176900954298740531 -0.4118212631156975001 -2.1518906619571875893 1.1360905379641623725 1.7690385808425899139 0.63737890843522737594 1.8244749181818200601 0.018677915355846896883 -1.0657080695519405289 1.8008059878301250212 2.3682541916817112515 0.19562930620043172958 -1.314444861990483826 -1.6022018056505304973 0.26352242486615568007 -3.0588132434484154309 -7.5111736132863615722 -0.082951238028956375548 -6.4848325285887051805 1.6139875048415177616 2.9923111506318664787 -2.5460722005347582453 -1.48243578357643635 -2.1884788024621886215 4.3226646615725554668 -7.0467921287188861612 -4.4923875656721836691 2.2041842345017141902 -4.9092252286381707904 3.5281654718999195808 5.4361594452446073689 -2.9369559996898306764 -1.6695180918857384089 -4.2826528407645287899 4.547399783372069848 -2.5830417640275746827 2.5101083162157014073 3.4216830323224889376 4.8290935868706652556 0.75069468799812999471 -1.6368471794114256568 8.3131015633228670936 1.1554296008298519105 3.5230451277559029499 -0.90591863183246323921 1.9052208028831023601 0.23177858127003880817 -3.7202415721770010215 -5.8912527296117822573 -4.1536235318616148149 -1.9645688097458926524 0.23632058697016997129 1.2145157972276057201 -2.5026115097167513923 -3.8722918331660682867 -0.7199696692332365755 0.80759596650073239843 1.6669790053033473054 -0.071600254715816977202 -0.52954119815167044472 1.7980707280170071805 -1.0554579261891525732 -1.7150684885119606982 0.45271080298118859808 3.0819465157060728089 3.6006629273628756316 -2.2591367989495658719 -0.066863964216831411891 -1.8186111627602510321 0.28752132461960189236 1.4906760296442655989 -0.2870686463334657379 1.8571924111948630021 -5.5666995384037090133 -1.9304533458390320533 1.6572178006513769155 -1.0620153961997749192 0.60765263679925185514 6.7029709617676260791 8.8889543283583520861 -0.98218308597297543372 -2.7563731762327727814 2.1260261433987528434 -2.1183648169613382706 0.58192320184522217108 1.9167134733276784964 3.7174884992248298232 3.5080863393028769437 -3.7289588387007013282 4.6738851966588086384 3.5782378937964343102 -1.3690409664028566628 2.1397029233595414865 -1.8321590430245084935 0.27833281217566974153 -1.5941066343405014827 -0.78202881753984265778 5.2227098797698596755 8.0415341215214120041 8.5183839660928217796 -0.19514378468508408737 1.0644420107232239747 3.7122284237757945391 3.3998321745579831443 2.3274808368326502794 0.46150466496201092426 5.3864474778528403931 0.50977181644295599394 -6.9696292597980677996 3.7844506867395479865 2.6413566372660772785 -0.67579335060063705498 -0.3552118560829419236 -4.6253512721358553961 3.0023323082364585801 -1.3708229565952836371 2.2909846740713883939 -6.0182953746241860671 -9.0720350367773807676 -4.8034046056825001614 -3.9476080195459108957 4.6824826528793108693 -5.148499866663594382 -9.4547804157224675237 -3.7554716074346927712 -1.1299923383346910377 -8.7775857168173843093 -8.6154400031880129518 -3.734383399691424632 2.5453718959042554992 4.9295934010517719059 -1.2558097459313617428 2.0932042634484497867 0.64838168983056387873 4.8724385381583008581 -0.32007148279782315914 -2.678551332946718766 3.0418281348501179373 2.9907323510430603442 2.5980388042994055908 -0.21052587111306775292 -1.284746134176239174 -3.8790565131141603317 1.6723191442744300694 2.7254017190854247232 4.5663258639137147554 -1.3031095627324911224 -4.8356316383467019548 -2.9314879372595901152 2.52335527795573622 2.6926857068105323201 -1.221099268391026671 1.3740732118438516718 -3.164823885800828851 7.658736184280066972 -0.23495951742339585278 2.2242699231927391956 1.5703715198724894631 -0.45922396604840087786 0.43412216430774552833 0.27635621789026976192 -3.468411742330149039 -2.593575351043932109 -1.1127375044814735716 -0.73169908283870110921 0.65021088851075070636 -1.2106527652317091714 4.4957667496409934316 -0.6235228624990964974 4.9435169628817767773 -3.6354467618496388859 -1.1891074056727899411 4.7905487870591167976 -1.9807642963541729486 -2.997803280109182289 -1.7588764890584582812 1.0075281742390402862 -4.7304461419321652826 -3.4786248466593590045 -0.53652425529352942846 -0.7307592433730665249 0.21069948099664909114 -0.47327532629690849397 0.20326401515493205951 -1.2411301244253660769 0.63037775848503607712 1.8928715374899292012 -165941457465828.84375;-3.4824089288288568866 -4.9208970342147049237 -3.5557993811520112182 1.0528273836486679027 -2.0806616337153274188 -2.3368966891500368988 0.81057544693093674937 -1.5428861648177512045 -1.4671966588507150409 -0.99400396279771696673 -1.3606785386463924326 -1.0546713339990048119 4.7304901815934927711 16.79896049380183598 13.294108880229769554 0.19393377887928495151 1.7710475016705200524 4.4953706260314616472 7.3704881419078116522 1.5261111717313231573 0.47179014054735940453 -0.83367701418112338807 -7.2294324063079908882 -3.630110397056907523 2.7102799860141222332 2.328344838422083285 0.90364220570455433545 2.8629656588330476552 4.7189982036204547455 -3.0986839158539023487 -4.349268221944750934 3.2030597642422145022 2.4423291513458016411 1.3017772151266455705 -4.7480638300653872363 -9.6321102730928789271 -6.1157839324844607276 1.308507668752577846 -0.60648866805268741853 -1.3343530908014085146 0.22191871278805536116 -3.4629987841994647191 -3.5821849005503083596 -6.3317042773871037298 -3.9875705265936303157 -4.1283994487649611216 -3.7279946338358960212 7.0119471255125214171 -2.1252597881535382207 2.646301791305337936 -9.0880939312545319098 -0.57696971128618601554 -0.79329048374184185644 -7.9345363683761567231 1.0232472433628085895 -6.131919470276621098 1.5094921852760507797 -3.0057576657906790452 -6.0545766253375408184 -1.033879120117992878 -3.5437875503729543425 0.98416369510961221323 -2.5337063706424207687 -12.243484426368745233 4.3112939479686867017 -8.5959499074823373377 9.2687090274169285919 4.9156038995341626574 2.7205277376569987346 19.468986700153770641 8.18902584394200872 10.273330699653387299 2.0562739718630007602 8.3561041718955042512 16.723742579646920348 3.9451094080759894211 3.3314053896631179441 -0.60963084364129704884 0.30507418870541702649 8.5731492714235209007 -0.95690718508814720522 -6.0695966415922955051 -5.8212200974671315379 1.1709854929349026165 4.6787546310812446748 0.683782969668956353 3.6718787821508809266 0.71329474438496087707 -0.62304124305848529453 -3.9779211567113792469 0.87949904613843354895 -3.1607139576029350536 0.86741052587971700927 -0.17209225741607556137 -1.5712731521692995251 -2.804574558343562618 2.4514898442054446903 3.4926770728151117495 -2.8623610571972188943 -10.191651173330921409 4.8183408425623097671 6.5170343654621936125 -17.612078174683230003 -18.456388872856955174 -8.2633975552474172588 8.4147425679763276918 19.157064547317727232 10.746400851904077456 -5.6431754343878148816 -2.9366508973814218209 -7.0202610677965653352 3.0977961286297182042 -7.7272415702860071107 -5.0184205939065353874 6.3529865818113249176 -0.29481690477176675236 9.3434989785779034577 0.7309344753325914823 -8.593703379614193949 -10.220334250945873222 5.7731417675928788924 0.4629015109494772906 -15.65979868312785861 1.4315272015435178687 0.5341000568543581295 15.157980105457538045 -1.7327684165615084844 -12.561882227154576697 -12.113836533588623112 -8.6687941802467527452 -6.1552685214932125746 11.557790166664757336 13.526540818870017802 4.702291242483422451 9.6053770352834106916 5.2867673863949766755 22.192455282773948966 2.410573003920089441 -0.82184545644218132132 -8.6020040047995465216 -5.3496381934408834269 -10.032982572223003714 -2.1577599120955874845 4.5292666182306211553 12.383015363896062055 -0.51724408660296661289 -6.0761321719612775283 4.9486562451833160381 0.38658746849645453381 -5.3549409267863410378 -0.24874794163389343793 0.88446883104327334024 8.9173463651679973907 -3.2378558357085291952 -0.24519848751482320459 -0.23833186092642577592 -3.6699701931076109673 -2.07803326383909992 6.2675760398890778546 1.8761280439763576844 7.8952196259508937715 -4.0944661574083358602 -8.8542664611795434126 0.57301560985874200327 4.9405890998786183843 -1.1962069438497331397 12.227092390497926289 4.0692054784013622637 -4.6274651976030307665 -4.4736628234121349479 0.66965920308218718215 10.335479546498200776 -4.3731518246165759223 8.906344730000100185 5.425093843281277195 7.2119207527550477366 4.4350593404966147659 1.3413575887923401275 -6.8095262601662920332 6.9760557341620144101 -1.075666848790153951 -14.112167100693653765 1.0926952908251499341 -6.8683487187198037915 1.0361680477998453931 5.4759688281952438871 -7.3866880323314596524 -0.87656553365733480554 -2.5842545519874708937 -9.7441850479055673873 6.0774660534901574493 2.4884756152452882638 3.4355680316289367582 -6.0319632171689248068 7.6739447977101606924 -1.3800864602970108752 -12.448102184013841054 5.9483890280047067023 -6.6973190088880638626 1.1073872492621525954 4.2085591914684945536 2.1368087617697066882 -0.29386852100619414996 -4.413976307114908515 -1.9801425399622547552 3.471354938323041317 -3.6497064772017195899 -0.34819288436933065745 -0.29355298608530228099 -330733874939458.125;0.57449847151507305032 -2.8539349774140601035 -2.3243267394339817145 -0.035606118634069990059 1.0820180156563985463 0.59533191276898211886 0.061388332959141353462 1.5790010700251828624 -0.82270563875191093928 2.2876971598362589866 -2.0458846851212011408 -0.42133950505391359886 -0.29912881903252330762 9.5076170437514111455 6.3854456961764505252 0.28339884335605147747 -2.8457693883219028486 9.3396206029468586962 8.6966259510293806301 -1.805941629572828111 0.25802154027701806882 -0.2546152199778464742 8.759254487808989964 8.4270688344568913664 -0.35094895334391218444 2.3436865799896646756 0.43043955834342023659 -4.8471052742781823852 -6.1458705331194600774 1.0597531366792760643 1.2450872530992729281 -1.143285242754186859 3.0548627684368989676 0.031896573753625548364 -0.69617836331836302488 -5.186587153306406961 -2.1508051224078124086 -2.7791252898933431759 -10.843793477747915688 -9.2265535553769737476 -6.6602694608210466498 -13.383414059537940943 -4.5070737138324874493 8.0339533591019485215 6.5488257218831407158 -0.73655423993408097871 2.7097747743269446907 -7.681949952134021764 -15.019757794265736095 3.3143130682948567234 -9.5858339158002738856 1.2677739343709479858 1.5460855358195628728 12.872853576443498369 2.0088150390778301002 -3.3145440418645701897 7.4102022985464692795 -0.86132636477602297909 1.9010952168340278234 7.7748202607102410155 9.8203249832384109652 0.73219819853613765659 -4.4875684599841303424 -6.8806759396992109856 4.1971592250834230953 -6.036999782426566874 -2.2639029245333812668 -2.084261982047022066 -1.8230448670406020906 -20.022555902276806705 -15.083631752766404333 1.0544227276760145262 -5.2746742841160427773 -1.663916951903402941 4.7042309227002352401 7.0998667586209753821 -3.1757710187489207598 1.2379754164711380682 11.344878098047320947 9.1087821541634070854 4.6590337923506481843 1.0743625626520307836 1.7425790979197630648 0.32764798878675682747 -0.89135772145377478726 2.6746413842850071951 -0.65896972242194995495 7.5258133165058609393 -6.2742743274195591496 3.9110513851171524458 -6.3116815559831369598 4.9923306604604711367 4.985065956818859334 -2.906734131317415315 2.4672695552901173777 -3.2751750826964767249 -3.7033307918845159712 -2.7193963617653467146 11.115208086111096009 23.603718009859058213 5.0703294277471098184 0.56958976474796152445 1.4706623528717386318 -12.033454907526206057 -3.001891578953529649 -4.4164626546855778599 5.8751871815477967331 5.1410380238238335693 -1.2923160571082719095 -6.9916847921504574614 1.7757934599434337386 0.66828448099127713 18.895048773349941484 7.0095882838378571478 -10.730881958836064882 -5.2059936455117830079 6.4540284636582558875 0.62774671654924274478 5.8357771448957436178 18.599185796502172963 -4.0331495142992412895 -5.050709869839883126 2.6409568327613932581 -4.078974682032664667 -2.8504313714787929968 2.9831739866563067309 -2.4347984973224638949 -3.2036596660371468026 4.7741474159191223947 -1.1925263267470764816 -4.9599084957073609203 3.1270416846934740995 -5.4678119254998476251 -8.9289312056608416412 -27.989252273457605469 -16.868183176955195535 5.6471163337867018583 2.608261071605825876 -3.0197637297775390408 -5.8088356833308383287 -7.2266256454743587057 -3.1230527766789046851 0.5783709173001004844 7.4809295835425357879 -5.7101921505914665644 3.1241218990967065672 -1.7921777746804041787 -2.7485710279062947059 -14.297998174184968434 0.8954111662798612814 5.7323096078960737998 5.6928510445786599803 0.62073357961515351899 -2.5555522036936029195 -6.0972252736385224026 -7.1878824807757251136 0.50286834252899481612 -5.9451712573601298573 -3.5229262585237117733 3.2400963049862809839 4.6916319363673650855 -0.38936111088541647263 -3.8448428753451739937 4.3118064893411940375 6.6381044713968559989 -1.0811512124687259195 8.0696562206692394881 1.8668941008157642347 -1.510819359302893794 -5.4801087381870132731 8.5366475394157745882 13.499491416906410635 3.5576643172346731347 -10.27478326163928557 11.197290193965432792 -13.677514411201633138 10.89790490140524426 -1.039238428399850811 10.971670358698291992 15.41947423527304295 9.8142584906044909587 -0.57312276363044922789 -6.4363918963659969563 4.4192165481374185987 6.4367122422195812703 2.5899596266414683932 3.6211516745821845653 -0.76134425115557780028 -5.4530233129158141026 13.826913812200494647 -7.7682273217718513791 7.7670739002183051269 -7.2217575982951824898 1.7044319876402778124 -0.8041325843058411138 -18.547432024569239672 -11.75821045286319233 -6.2009905477757936154 4.288907070255315368 -2.9074706560453802417 0.055793663733112841552 -0.74617295932210936371 -0.91465714937238484783 -0.8500062282693625626 0.4940247761979269514 2.8157525278722470574 -0.060927484292929379173 1.3378203532067289849 2.892562728973536057 -150872712389384.34375;-0.19517694322168985255 -0.23627421637708048707 0.42488672631106350064 0.35156249507353642958 -1.1739500416739601096 -0.64456783343792978247 -1.0436534892000941532 -2.1953945429154426705 -1.3053987452715003492 -1.514746205577086835 3.2716267890726182799 3.0347840898984652647 -0.35464750810235556866 1.8513104894577685489 2.3165389629713732944 0.72389354763280033822 -3.5158197369045893765 0.016790790641062799948 9.2027474989611217637 2.7394325295129786646 1.5828173089132246965 -4.3474932809553692437 -11.657548835210329585 -2.5129047091131595515 0.40165442663572781257 -3.6532736883001959427 -3.1198672031494711909 0.11289227377465459179 0.86084061880486972829 -0.36942458033355934921 3.0746710236550192086 2.0443991453653658219 -1.6390915878367287029 4.4230609489544265855 0.51130272070654214644 6.7966929353846792239 2.0846342775850050799 3.7851697123215823915 12.864771113044486839 8.9911620128124507545 6.9540689514758344814 5.0825566171881702004 -1.5916360616260005756 -0.64939208094139200256 -1.9081704875744038841 -0.58863603224041516349 -4.867512404942907267 10.050729780894704035 12.936656611068141132 4.2640784457611475844 3.4503380819282183367 1.5695598710284319743 -2.4252972763332989459 -1.559896686628407636 0.026186296290160671063 -0.1996687514821789966 -8.3858680306291759621 -1.6192768981655496496 -8.9855682519534152419 -11.442265598143137595 -9.2769610680531542357 -3.7702609436177456637 3.5380419918649068656 0.28399651450459195701 0.23368124261940581565 -1.1074732129501050348 1.7634215895499012472 -0.65169357480552769779 2.7783313546864856214 13.644628819277926368 11.877837539864295024 0.43069080649169144692 2.4062793998576448296 -8.3863143458726554513 -9.3490971053786502409 -2.407672707018727376 -0.069653832347581046136 0.38078094936140560733 -10.446865042552971659 -8.9231822906680537955 -0.59337404955272388118 -0.15034977934103377351 -1.1885166663154744793 2.1771898468421446715 1.9399916295927448484 2.610131362547120748 -2.577541854266304 -6.4368999413993064351 1.3294510861429167381 2.2239662438394165456 3.5386620342342269829 -1.0529331925628564459 -0.84755596349054218575 -0.078731419806963798269 -1.4130922291250245237 6.6160616472775553021 5.3018450483527512773 -0.60318924544745566863 -2.6854421402519315087 -6.082826441860515132 -8.1931386549591422863 -11.176214976358675557 5.5667883618554334646 15.70569690974874888 7.7662538420841649156 3.1668289559628948204 11.820352273871087334 7.0488000005899396072 -3.5041066416478749979 -5.6773010829856129789 -2.6874998606910933674 -5.0429851813594348542 -10.729892009023277666 0.55172099766366977658 -0.899085847427582463 -0.80030026840803980548 -5.5720028808399044706 1.3585782916402078246 -0.55521286395161495442 -4.6094262075413929836 -5.8772754912168974073 -8.3905656568451654209 8.5950863703404429828 9.9310733439162035552 5.1365926927279916825 -16.986623277023305434 -3.3588977061268669999 7.5743907876268368184 -8.2662911648606094417 -7.9274793275563819606 2.9859691327861845878 -7.2611059070102079716 -6.1649736669557873014 1.7894549795185179519 8.4493282274427965461 9.7196094791723446349 -14.473992699293775743 2.4371290057368826254 -6.0290545122941985312 2.6130414551076706076 16.600183634669576804 1.9314567984828601155 9.8277165310256098252 -7.449780137095773469 0.016815297227676384573 2.9227899507255252765 -1.7070512285797116991 4.2609926399853668144 5.9105211678789109087 9.6042922769435854491 6.1950565575438174548 -1.9612673898595964772 -8.1268943777041435794 2.1861173480959754656 1.7401277215735189152 -2.1191891548133496848 1.4528254672015226134 12.790919176141567704 9.9153989135763467289 13.788979741668928369 -17.988769896071072907 -5.2468778263962585484 1.9541476634184404837 -0.69760655840732355149 -0.44705790324483446474 -2.9058969770133908916 -7.2090557830119754712 -9.4825076504411036638 0.97681309242134584103 13.106968656459228484 18.595925548651685233 -3.793851776145607424 -3.4952136066822454552 -4.1090216290354986128 -3.8897090332455039885 6.6756095325486262126 -9.0096193049772761441 -2.660475548367672971 -10.282510247187973462 -13.531856224380311104 -14.319476788380502086 -16.836871850546341278 1.9952532537598328677 -1.4836845277648023078 -0.97759675912847399104 -3.0082817270044088787 2.0085573298054346658 -2.1505290937816030628 -1.4342098876805979835 -5.6759503758083473812 -4.9532374781314771894 -2.3958482559467060291 -5.9510030502623703086 -5.8714457379521878266 -6.6457344931846273894 -2.7469565213329003583 0.41159666143338824451 3.8044792641286324653 1.417128951325843822 -3.665441735628744091 5.7063357849423397283 0.80751066433778384557 1.3978625307173846437 -2.8806081505114864427 -15.710473107061407205 -4.4071980610007672752 3.3385312252062866456 3.7186829684119184769 -0.41015976269749576666 277642190283242.375;1.568132199137456384 0.052447988267890148506 -0.85564654202594558896 0.10543011148411639277 1.3166374106284337575 0.93401031897837138995 1.3027462190719298896 2.5667130426985531599 1.1229448750050456951 1.4156265225135455932 -1.208453426360649452 -1.7650312352469927912 -1.649173633787687665 0.34419468675951220282 1.6574487184273640761 -0.8211155580693646483 -0.67673101443884087214 0.67272263665106368791 2.2655929247215738087 -3.7672160128081064734 -0.95693867925087305881 0.40498920059768678259 0.57025023793280837925 0.95100450965442284712 -1.5681946734392824272 1.6882083581672797656 1.5174177729824254168 -1.2766224767547758034 1.6114084137331561308 -0.48594512076853835225 0.58737682938489799156 4.0985815112495256329 1.9904525238119903374 1.7358394993694672426 -2.4315112060829973117 -4.2569454856055664038 -2.083759913637303729 -1.6368455976010733988 -5.8952279509553431325 -0.39840916201648968187 -5.3220291855133545766 -0.45028420315279560349 0.81904173124968093767 1.1702208237380258282 2.1359675964470130616 -2.3424021636847101036 2.8897112981763579675 -3.8229522872665571143 -4.5997568806326167845 -0.73589179284176398088 -3.1857520855577776686 2.0072973728993752651 3.6562796794769081288 -2.1156014124727229309 -2.9622661834506294198 -6.9929682234092158666 3.4041767463756480439 -3.4504931120238824249 -0.20101319306807574616 3.9831198817258668399 3.4295939521963747509 1.7242749383161557475 -1.2338189021191474648 3.335911312788821359 -0.3831467642013914876 2.9095083136909498656 2.3666642948695741921 3.2339632400538800283 -2.3461712728586987531 -5.0745958855373469731 -5.4895763369747987426 -2.2777185060349411927 -1.5998450272841464592 0.056281797013216228187 6.0230838667124126928 -0.56311938215192158808 -1.4002137397402127927 1.195380150532426633 1.3781309146298150736 3.3855438622691766959 0.41350833483063337281 -2.2726997358665026461 -0.56156979154273023447 -1.5112961351428060297 0.031978840986690293402 -0.8224551742287435907 2.5116684758055543014 1.8259958300396554876 0.12399138906684908923 -2.3691343081397548964 0.55767943944587727856 1.7581002667807195117 0.43880914712144142298 -0.54275018196852420349 3.1432168942744445062 -4.6602647778793295785 0.16230235261703557237 1.7945346880741581685 1.5718690614369754677 -1.8112180988068526943 1.2488603407482556928 1.8211513573832573964 -6.4051779209021564299 -5.0507722332089883821 -3.2148110060638597218 1.28699952130515749 0.30975674376779621655 1.3060065276888070951 0.9348256463063364663 3.3554983604709924805 -2.9843167839536892672 5.4698503963568541053 3.3768017491547999143 1.5398793699514055078 0.48227754050161503185 0.20981389929866400834 3.7545407301811088985 -2.1936210300807168494 -1.9613851186768540558 -1.5219025482753072431 1.8364296020847665769 3.279337769227047783 -5.9020583810356832544 -1.2560150583869824636 1.0681375413694584875 3.9003893592323604089 -6.2515272259683003497 -5.639883745330806164 2.4631611345154382775 1.7518293966251814453 -3.3170034921968953867 4.506521560271091964 1.6949233479953398351 0.40481183025232125861 0.37550350869186877034 0.39657434734352153827 6.3867950562940940529 -0.41695829152455332611 2.59945963658314394 -3.5678725023393917937 -9.6438272637170605606 -2.5246317710532508727 -9.5515753679928607767 -0.48226269541268168561 3.2021096147605030424 -0.97975669322783298654 -0.20015978914982376913 -1.4997728408692969637 -1.4791414683419754628 -5.2416811714558644297 -0.25047786247415942951 1.5771814295005099904 4.9042056125009141354 -2.7270229555248186593 0.60519845203038424852 -1.5420095468307064568 -1.8831887799089577218 -0.21106092029683171107 -1.0259936605860642267 -3.242671066840237426 1.7779422627011534086 -7.5647758102771245348 -5.083564149693645895 -0.50012595840441920192 -2.9389239853283872783 4.5920014377129465544 -0.2442799990564731849 2.615610649773529417 -2.7259389397506788022 -2.1353486907862779809 -1.4736312411157246327 0.8240860778402014919 3.1056861223761584867 3.7769533573613482957 0.082419856120100831731 -5.7921370528203555139 5.6186650785789069573 -5.5210408653529245981 -3.314579189398004111 3.5463028579431359333 2.8887804047244012295 0.25471907940197524578 -1.0351457474396890124 -0.77557736350092720823 -0.2476273367694046823 4.0362793853965612811 -1.0744816069876885756 2.4988722325689405324 1.9631024319045240478 -0.13710843146836487749 -4.3849707257143881733 3.6997930354762904592 -3.7911738662266953881 -2.1173036211496802927 1.4792159383553258323 1.0594541105947679061 -0.60348458940352323054 -1.1166018059816404939 0.33162479084623630587 5.7502572054616090114 6.9929978573179969459 0.0013799771131239868538 1.6452987229665105851 0.67188809973718666146 4.890876863925884166 5.4305199186046921866 -0.5455940240389383078 1.5435622161106661299 0.64937540134997340235 -148177169691271.96875;0.85828853336163857257 -1.5440656069478055912 -2.3142683839288666903 0.53432989316639034616 -0.20315770697849930282 -2.0715675996106490686 1.3775396813672018403 2.151213889062791651 0.75103596169453434861 0.65185406486874053478 -3.9984003300168708961 -3.4665604655528339251 0.33073545719736441306 5.9690105566417166472 6.1260989115741022459 -1.5254251586924685302 4.995433091980402196 11.702592352324899139 5.0642512627970210914 -2.8590885135092523051 -1.9628453701879136073 2.7821089252777335687 9.7269008158537708653 4.5340807393926958468 2.1482451975716156944 4.977299133901032846 3.7901973606217658208 -1.1053076508934298605 2.2604414138549326907 0.78191077411571408007 1.119322538008320489 5.09358818262632429 4.7404183352894468939 2.1430674611284810105 -2.5904713830967507349 -6.0700175990274587434 -2.451296064925854612 -1.9711466832872317489 -6.4704021895049921298 -0.71910301629277117996 2.100093555430011083 8.3758150909404047724 4.168205866683818428 1.8725539337398615647 1.2286991628241137331 -4.470322093713286371 1.168560964886602882 1.1087365117370175938 -0.021541759355533818265 -1.5465235259976946036 12.527175542669469976 -3.859939779320636255 -8.0782449622950824875 -3.9782301601277461067 -6.2299240004276033034 -11.910805853612520977 4.5948989831516158233 -5.9744634538437546567 -3.7978006511508870524 3.657501424482660024 -4.3051445135729453639 0.82390972817883767476 1.283557302776121567 -5.5151937097766685625 3.652984148010543386 1.3538317364221632566 1.4689636102258010197 -4.0158303662556926739 -3.4863973178885014903 -2.278222783531977047 -6.1164087035032439488 8.0181968612945020425 -5.2325595408499223637 0.33536968559190638572 8.5388899892229108701 -2.983117328718140282 5.0371067885783524787 -0.24864889108046039912 2.048217728679574634 5.3158419624900536959 -6.7622399477189079064 -1.0292474665314568227 -1.3773359350128184797 -0.81000204717474089122 3.9079322313990547677 -0.011283545348054119239 2.960906739039969704 -3.8776631748112038167 3.4777166704705795297 -1.3110822333312213139 2.8519457043397866691 -5.1156951152693128648 0.5192328174313812772 2.2867282715243724134 -0.48014656175696501794 -2.0010023898165605338 2.3516014970883061252 4.6408706464539859482 6.0589814578734264572 4.1088753247706355509 11.454304002375362614 5.457554431595301736 -14.218102558054242834 -2.3845355617964267836 -8.9817086299351629464 11.446201838684608276 -7.0582997249187586775 -6.3552239962618548574 -2.1557806158914991634 -0.71694598517801622073 -6.9835628552180359918 0.18075699934405278779 -10.231807371689718877 -7.3283732250591357982 -1.727945383265665491 -1.5980697457698764818 3.4539590921339144991 0.27665541371090218714 4.3405045184493795674 3.1635247517086648728 3.036287736497380596 6.89311830056143382 -6.7232755377146240505 -3.1401384516377572886 9.0212402897199908125 10.690834904494444402 12.371471865262634537 -0.094715175755043443107 -8.1357752892016765855 -6.5630280132894869283 -2.9882044144865469448 -4.171566592122032624 2.206837345309223597 -1.2173057873202934864 -7.6435156855315646851 -10.690950698799563057 9.679386996438642754 0.50392613921790796461 -3.9524559406785728655 -6.3173781113007354548 7.0084921354167075691 -7.1422674139771249457 7.4938228815531937599 3.0579874179705344162 -0.68054011616751231006 2.9907097339023196447 -0.77000480978240792851 4.3724299325225963742 -1.2073138071314843955 -10.085900243152906341 -12.394096455128652323 0.87781625827438025667 2.2157763098366243248 3.9165768151772861749 2.4451088323220466769 6.1203961128606199082 1.4227381912313661338 -9.5122008123892118903 1.8884555083589877889 0.011017209785218029516 9.4608841438268154178 -0.15243797205384046478 -2.8229735526868893203 -2.6435616951922544793 -1.4981077193876044529 -6.612572791459731647 1.8199353863441016799 -6.4103591522650802403 -6.8249437939022756794 -6.8885157703924200234 -21.724237907187962549 -3.4585008724851409312 -1.8307346141488671787 2.9690425018141866076 -0.873454430277739724 11.739777790117118528 -0.05711697460411713223 -0.34282179635493625902 -10.291979227592689128 -0.52043579025258068782 8.5632381192377895474 8.1482839310079597794 3.4412102081916691176 1.3922161905641798896 -13.828000917930975078 -12.431622776140645925 -3.3272191336566567799 -4.7819947226025254494 -1.0668610135392690985 -14.452879287358507909 3.5079404029499920981 -6.5692725709668229328 -0.89646592738104202702 -4.1849105440607887729 -7.6497958459161621292 7.6722704086417881086 7.1996370067959869488 3.9571099101607360993 -7.2382333450894975613 -2.3096360278302827673 -0.71023596196624261268 5.769955167814779351 0.86367065190689540355 -0.89040943832629837473 9.3002313856240466095 7.5595436484563061086 -0.17483404851993267215 0.49453015281015771931 0.018727162019295251483 -280342482128476.9375;3.3686312499295545386 2.4252672783514954702 1.2450095273217081093 -0.41233278983614551905 3.199780926219795596 2.6702081036561287064 1.1569540140001333128 6.3112187016170571141 1.5844921450732005752 4.0847142783789296416 -2.0149603908321926937 -1.9481334817380315805 -4.7175351432784786709 -11.07255263759016195 -8.0438804791294380436 -1.523868629821327092 -0.16551962756556218292 -1.7563194462185678368 -4.5156925901470055251 -7.1581460044286613353 -1.5279290280266455415 2.3248288493394753118 4.800209004019912129 0.80126591309782146944 -3.6567828807359594734 2.0437659203884566139 1.959649804790515315 -1.9660207709798800391 1.0686565452202585469 2.0327502311774372501 8.8165651125995960768 3.3794432174215001119 -3.9085138301845656628 3.2230217761763064743 -4.0143545889903933244 -1.1806466220984894733 1.1345680150689712029 -1.1613875624116865026 -8.3564813029103319764 8.8302940577892456986 -13.656645732442491692 10.189425586092974996 7.4513112111052972608 4.7359329175207678375 7.5867396489092486789 3.9671373321402798595 7.5944417458907746976 -4.2057012491544627508 -4.3717536463535937585 1.2284236234916874331 -16.671913518349665395 -6.0931750514112108519 4.0907399708670659777 -2.9665467501588342891 -9.3190845949350276101 0.20505778582276523725 2.5627497042583740061 -0.79373387307222453835 0.63324050917862895194 7.2619669673384574793 5.4352900469618639079 8.1224330836990077387 5.2684871603934064765 20.078649018680039262 -3.5824903670797021427 2.8011492156729040914 -9.6872216072596373238 1.2374975585893874808 -8.2618274066150156898 -24.488691701944954815 -10.585145125677112077 -12.67875312822109457 4.9100662989869050534 -6.8725383694034309912 -0.29553715385330903143 -9.7866179172408696019 0.26362453257157913988 7.8782548683883675267 1.9292390399587138194 -0.52342872987853172884 -0.54216373741760937044 3.9929587133915434016 5.343731060909933106 1.1418849152931860313 -2.2376736229693316993 1.8808967797703484148 3.8431977738670761724 -3.9511173836059114706 -4.5133668950281995436 -1.7776844455718272542 1.082913911637372939 -4.2961931288894010805 -1.9683830439497260745 0.76694915135665597816 -1.1700696881195338239 2.8366247283101149179 0.40694481299816287478 0.74054966590259563297 0.54837047808800276627 -5.303511566986929715 -14.702060279257292308 -11.727066545086705318 1.690843235061394001 2.3822907524034753202 7.4897054600595085461 -0.27285489065196688596 12.104115962928869266 5.8419171575442989663 2.1201026372233053863 2.42821593163721694 -12.861487684589199887 9.9048876028323640242 -3.8583426999162533377 -0.22610243393547690971 -0.92748491856677661715 2.4801324148564232175 -0.49703911285984980761 -3.7605484350189515297 -3.7324056606894080446 -7.019777646167435492 -8.8452583314489423572 -2.9290015320338733673 3.5820625068062623697 5.2885765003497891001 7.2401304384898317323 -2.620930801845260838 -6.6916511732138745927 -2.4007290035055066646 3.7310931412047581013 -0.4424062923398764946 -5.3868422565816764802 10.089735238126575467 2.8195079257585646815 0.87258245303306369856 6.5266346611739898265 14.205201882181997419 -3.5669724687997264034 0.4561920705477277016 5.7946884714148838569 1.4674672723811199582 5.0672898077463237598 0.8943702552435147668 2.1234738626602425171 -2.8222111892910510811 7.5247342620608819175 4.4091046691905191324 -5.525032245577742529 -1.9340724264582984659 2.6780249601722374564 2.0146721731128924837 1.79082039471444876 -1.5201385823125090901 -2.5806912757163118499 -5.6478724006993639151 -2.5072356128041053402 -0.38242200113136776141 4.3050081853451640512 5.9780769265830544512 5.7511484382889248579 7.0315427011324409534 -2.938100371903151764 -12.252391452703902175 -7.1275012700996471793 -7.0352876278085005879 -20.599539644503877867 7.49029550166857927 -9.1108712358111958451 10.260113757531778234 4.2649009029733901954 7.1279698785695284613 13.652004659078468052 0.65034921391978983696 9.5523995802157291024 0.7164139673840634881 -9.4139657654484274474 9.8690049145297695787 -5.7691168751358352651 4.193736648021080704 -1.9840419869616610082 2.9746511255479077818 -6.0114340942070310092 -10.922235415062790054 4.2787732450644782034 0.43687748056364095195 -1.855132675261785602 1.0961787750358416016 1.774879179812663299 0.27121415326343623065 6.0751290618771669472 8.5090646245860437347 3.5412228058926560337 2.4314791863463112165 0.51530363526121703011 0.44693482539889689553 -5.7250979296163073684 -13.216648891056461679 -6.3857267146815974712 -3.2517294747877363292 -4.7993380915062360259 -2.1528110235978137332 9.7988692947859004079 -4.4741393162544982331 -1.3176370601498998969 -1.1573030805351640637 3.6833218358729098441 9.3990996794369081613 -0.18778021179978354738 -0.72862071481313317456 -0.20819380195902909003 59266155086287.101563;1.6298797657437491537 4.0318302756786374985 2.6393519837402070749 -0.5918036309895154945 3.1397714597657118141 2.0342026749150248222 -2.0330505714582911558 5.3437206160441510505 5.4653004953375941 7.1749830988058933556 10.278880269052665497 5.0579137987728159942 -0.9005541799969722927 3.2659051769708051793 0.76496439922181469484 -1.5435381818219018335 1.5721503077903415946 17.221865074471857326 8.7367231028525118575 -4.092142659988984299 -9.6150380563177861859 1.3800671695480597467 13.817467078276918002 9.8488130322494953361 -0.8817789593366829326 -12.178326722266181292 -5.1633906441164976187 -1.6026659389088044882 -2.970708175825083952 13.164653279363065508 11.659213633224036144 -2.5571335157143426642 7.7444646346467367337 2.8367498462654143765 2.5537586489302563919 -5.3788350744230246647 -2.5062432889828625271 -3.4670052001134776809 -12.318904612932742637 -1.2325586067069038698 -10.249410820594786031 -9.0900072556167650362 -3.3748683326008941386 5.0123162951628863482 -7.5940948867791515653 -5.7822252192755287936 5.5609350026411998869 -5.9857395781773181653 -10.686472458268571728 7.9859591801080087592 -11.199944557857557825 2.8485463763583798169 4.4716816828295273822 3.9179996484918393485 -14.734801824463065856 -6.5413576823376038405 7.2057684623950590819 -17.087434076725426024 -24.042361626571228328 -4.3966343925313378094 6.0292568834195598981 -1.6480173267844491214 -3.8931822829656397289 -1.4804946846609297051 3.0234336819241987016 -2.9422901483830128377 0.1191306553693607384 3.3064689927339370179 -2.9700086816672155443 -13.055976368890961581 -6.0989870824518908066 -1.4705784159625778784 -17.520502220105100832 -9.2898146930895624251 4.2879608576351975202 4.7321342068757497046 -3.6960419756034306182 -0.32823164196874143883 15.345096239655921622 11.569237889052065071 3.8647455263907750656 -1.4559601116022298228 0.28815051870259678068 3.4966924704232513754 -1.2383233939777655852 6.0502426270988669543 2.2636457776426777144 2.4775043825099802852 -2.840923041743111721 3.1693013250888100174 -3.9815400683501933621 -2.0462297830866971182 0.38967040574166922351 1.6657199452150643904 0.66554285197019913412 -3.2902286174365205085 0.5344834276669949702 2.6275917374945483296 6.774922008622873193 8.2667907700737082166 -5.1022970813172472404 -6.7770371917032896647 -0.19530966232405466698 -2.7418185264603311957 3.8621946116072676247 -1.3324478004963926647 11.662324351201762695 5.7982675403257371016 1.9512049492201291034 -7.9641413776037426331 -12.87607433942173607 0.31378434278130268309 0.07205406105132522443 -1.988378625785273135 -8.5523105703910822228 1.3597233858167452336 5.252964852303080967 2.3869296613820529807 6.795772786180803493 5.3661188269540751605 -0.79746936599678597268 -9.2323321327092138233 4.3139280376831523611 5.6737655379090856655 -1.7434666345415927857 -10.585412279902708832 -1.0689920779197892298 4.0338841881714762039 -5.4832939636884159285 -10.457672365036744466 -9.5814794694809926057 0.13001180074134932596 5.6547378818911138154 -1.3786650968105096382 -8.0110258625412686939 -1.8794945397107569729 -1.5085160549992162604 1.2101923019722189423 -5.7625526731205178876 -6.3871138593443133047 4.2325666418186047579 -0.73072952480419606225 5.8858421770828561748 -0.059918741569239653 -4.5555042245556940372 0.70418221045848017337 -5.2975363817996559135 4.7706011052268584294 -13.985352672045021194 2.4701154285334965266 9.5003638430153376504 0.90694206815240885344 -1.4316667317962479267 -2.3476086699175309214 -11.047209318704217296 -3.5396079870285461766 -1.2592388616156673375 -0.62651958664429607815 5.5039881999393047707 6.6868469266779699822 -3.0251177328566463132 2.3357601979633209055 -0.60203361921978759685 -4.2227305042640743693 -1.7618925023748110981 -0.3119687440971236625 0.40417029209692878489 4.5043009882410443012 0.311700093360596453 10.25656103347353465 18.933327280584123287 7.6453791053732631511 -0.17211180121722530201 -8.4455040581158193902 1.8471258938044277098 2.8189798913892407661 3.0332101002259004296 -0.14435044083216866384 -3.2173552826943101479 9.3306989603924819221 1.9215237724679512521 -9.3871291964396270657 2.7700724154601545912 4.6998085385756160903 7.1093572613675242167 -0.42825369897690701571 -0.52100928425577097691 -1.7580933898239767821 -0.63435783423982872176 7.2836629576110718531 -2.4929042898353053204 1.1153732073439428518 -6.3391062864655509657 -3.1806287644551503035 -6.6698587799316344515 -20.395090307993573475 -7.7403199546980667733 -3.4962997996219167263 -0.25063377991040980408 -5.3420939006226655366 -1.8947620335030495031 -1.5732752746107734332 -0.042720552896607727478 -4.6512407923669876197 -5.8442449448584294913 -2.3953594477896715809 0.78720412298211861479 1.8455600217557499576 1.6429155046271444185 48265737814696.078125];

% Layer 2
b2 = [-0.28623422316621383032;-1.5732112796802486532;-2.0077723843505315138];
LW2_1 = [-0.17720001877414909286 -0.13335785524922261214 -0.77378209636282468953 -0.39175888164445699102 0.028703045439691501906 -0.090611664493308527457 1.6309259663070778679 -0.17032074344368694496 -0.39277878275726030299 0.080458194477884090179;0.58855845919854477 -2.5921697594315427082 -1.2309862986375965654 -0.98289077600265828405 1.6524037093460255399 0.040151071588179584881 3.1011315266108065991 -1.674698338265087294 -1.4942879195135945203 -1.0043257374774616775;-1.8423582832389027164 0.90396769591580750092 5.5249061640799670414 -1.6516390461783658772 -0.087651765662265193613 3.5833342587447112315 1.7167148429964975698 2.1842256191914590779 -2.2795825815240879919 0.0395361158237940713];

% Output 1
y1_step1.ymin = -1;
y1_step1.gain = [1;1;1];
y1_step1.xoffset = [-1;-1;-1];

% ===== SIMULATION ========

% Format Input Arguments
isCellX = iscell(X);
if ~isCellX
  X = {X};
end

% Dimensions
TS = size(X,2); % timesteps
if ~isempty(X)
  Q = size(X{1},2); % samples/series
else
  Q = 0;
end

% Allocate Outputs
Y = cell(1,TS);

% Time loop
for ts=1:TS

    % Input 1
    Xp1 = mapminmax_apply(X{1,ts},x1_step1);
    
    % Layer 1
    a1 = tansig_apply(repmat(b1,1,Q) + IW1_1*Xp1);
    
    % Layer 2
    a2 = repmat(b2,1,Q) + LW2_1*a1;
    
    % Output 1
    Y{1,ts} = mapminmax_reverse(a2,y1_step1);
end

% Final Delay States
Xf = cell(1,0);
Af = cell(2,0);

% Format Output Arguments
if ~isCellX
  Y = cell2mat(Y);
end
end

% ===== MODULE FUNCTIONS ========

% Map Minimum and Maximum Input Processing Function
function y = mapminmax_apply(x,settings)
  y = bsxfun(@minus,x,settings.xoffset);
  y = bsxfun(@times,y,settings.gain);
  y = bsxfun(@plus,y,settings.ymin);
end

% Sigmoid Symmetric Transfer Function
function a = tansig_apply(n,~)
  a = 2 ./ (1 + exp(-2*n)) - 1;
end

% Map Minimum and Maximum Output Reverse-Processing Function
function x = mapminmax_reverse(y,settings)
  x = bsxfun(@minus,y,settings.ymin);
  x = bsxfun(@rdivide,x,settings.gain);
  x = bsxfun(@plus,x,settings.xoffset);
end
