function [Y,Xf,Af] = nnet_2019_10_10_15_59(X,~,~)
%NNET_2019_10_10_15_59 neural network simulation function.
%
% Auto-generated by MATLAB, 10-Oct-2019 15:59:44.
% 
% [Y] = nnet_2019_10_10_15_59(X,~,~) takes these arguments:
% 
%   X = 1xTS cell, 1 inputs over TS timesteps
%   Each X{1,ts} = 113xQ matrix, input #1 at timestep ts.
% 
% and returns:
%   Y = 1xTS cell of 1 outputs over TS timesteps.
%   Each Y{1,ts} = 3xQ matrix, output #1 at timestep ts.
% 
% where Q is number of samples (or series) and TS is the number of timesteps.

%#ok<*RPMT0>

% ===== NEURAL NETWORK CONSTANTS =====

% Input 1
x1_step1.xoffset = [-1;-1;-1;-0.512233287604889;-0.931812364043442;5.84980600526758e-10;-0.674656118022184;-0.801778836272943;-0.966464082853353;3.36670608497693e-08;-0.798700609248203;-0.776766151141046;-0.998923397214214;-0.956562073448116;6.67961020789506e-09;-0.885757392180689;-0.485212211080173;-0.931812364043442;-0.852442343688565;-0.911010896730633;-1;-0.670590436186658;-0.40984008207843;-0.801778836272943;-0.653432375048127;-0.737492092930979;-0.934769412097667;-0.668375607051179;-0.796244495922833;-0.856362450001276;-1;-0.671800341599729;-0.3425373589126;-0.663919278548267;-0.791656987840078;-0.669587855972405;-0.960714210265582;-0.629948589126603;-0.582172440288955;-0.77852157836103;-0.956562073448116;-0.735314094151961;-0.609795420929494;-0.998923397214214;-0.947984898582191;-1;-0.140658250651152;-0.404408305756594;-0.244769698813137;-0.931812364043442;4.47777603597369e-11;-0.472466392929299;2.71148244403259e-11;-0.489447347543714;-0.866619978699416;3.42202302992647e-19;-0.478858759766436;-0.271068850388321;-0.1711150864163;-0.801778836272943;-0.411623882121321;-0.369107232652861;-0.348414866882069;-0.500503309846798;-0.696163943214684;-0.904114151054286;6.59217475170731e-11;-0.319796101307495;1.21399182401403e-09;-0.354973119770439;-0.628994450893157;1.13993771814698e-12;-0.57037711739438;-0.756867080187402;-0.96498287961678;1.13347098626207e-15;-0.616113971964594;-0.254533845513191;-0.214599420579423;-0.601329811070565;-0.646595858297199;-0.327659830634361;-0.4097266637393;-0.784675483077372;-0.647578075446664;-0.996773667615456;-0.492221444074585;-0.187447385005347;-0.497595712660171;-0.464343554878003;-0.504116270594976;-0.655300674423494;-0.604887292193951;-0.436327908642938;-0.77852157836103;-0.956562073448116;2.01694003199982e-13;-0.261142078000943;3.01005399964031e-11;-0.167082218999275;-0.596192119123779;6.17721647351274e-11;-0.49223761012799;-0.501998598558148;-0.724577100139679;1.23908880850915e-11;-0.763765979013951;-0.641535807696356;-0.998923397214214;-0.875264819731582;4.46171925294159e-17;-1;-1];
x1_step1.gain = [1;1;1;1.40564822334411;1.06947893364194;2.00000000116996;1.34252480189253;1.22192204633672;1.06672601780185;2.00000006733412;1.26062268041158;1.34715235404274;1.02220105215588;1.04390117922691;2.00000001335922;1.15620548144946;2.27019206576761;1.18820658239946;1.17802174585294;1.12404690611168;1;1.49245340670692;2.80180392400762;1.43150869344905;1.50875008579592;1.34716464962114;1.08756930204669;1.35391872789171;1.36247147645353;1.09764324361521;1;1.53067014709112;3.10647923486335;1.52840493374603;1.3104618936322;1.66850889808245;1.02115727394259;1.74936704548529;1.94688388774817;1.25973026685328;1.09102687481055;1.31895488631369;1.52008534289862;1.02735278173706;1.0735396686253;1;1.99550441633577;2.50640951035258;3.19344082416316;1.10623757446245;2.41199718016372;2.21148796960508;2.27188417720996;1.54719378763358;1.14208979706305;2;1.83441761275017;3.54208473943826;4.03372050907078;1.37776494088568;2.03432616153189;2.73562789470776;1.82561322618189;1.8028093026204;1.48418047629515;1.18691245767733;3.01047914930318;2.81444316532547;2.86860525635952;1.95698180421918;1.50119959534531;2.14120652472818;1.45667831402906;1.31911600974811;1.07583053941937;2;1.61739988047734;4.12548566718554;4.41419741643684;1.68293950498455;1.61411884698684;3.33165413110269;2.05754499984647;1.39317933625369;1.68946418103838;1.04432483998921;2.41186257513212;4.88475000100484;2.2829246695434;2.7127526896695;2.30845547526518;1.40704377501549;1.76249310988879;2.04959926416681;1.26485460133356;1.07486636858642;3.13517627658171;3.6898252286359;3.31473955851541;2.12487382299113;1.81097407653187;2.00431337570492;1.9268021507292;1.93972641364409;1.34455767725344;2.1731798725646;1.31854277546238;1.55956198801169;1.04453354829792;1.10372799813209;2;1;1];
x1_step1.ymin = -1;

% Layer 1
b1 = [1.1060165891006683569;0.2119558480891246266;-0.1759420511210021687;0.12600383538889428636;0.11042193242493814065;0.20104422727798673676;-0.66647346821133124362;-0.81405482066125411933;-0.84557326619676864699;1.5485748098961640284];
IW1_1 = [-0.13739789757746190269 -0.340636344838609606 0.03221936560245495379 0.0079161202037854525027 -0.068458331279853346096 -0.062766697089476741755 0.086699261247405290387 -0.033696393454597746431 -0.28798426582809349972 -0.063069427805917122054 -0.059218139252333198974 0.080968428837454073377 -0.061907605877133287109 -0.11988389927382833711 0.022390044235032470488 0.029178050415115487637 -0.085828386321469538056 -0.016204288549866035368 -0.085874461572734997472 -0.14734473332975223103 -0.047411558155669109027 0.021925379276036313647 -0.070479014788485699894 -0.013906502703893907844 7.5989104566564547906e-05 0.19297106721241766292 -0.19922311211392215724 0.22876747620181542286 0.15629459498469774892 -0.26408376995191923386 0.025097951729719503861 0.14904736822092515269 -0.041372111146062068299 0.0126947239617012618 -0.056838505657309267016 0.014286859814659113449 -0.16624177270315809718 -0.1015821881397774018 -0.12055838500588869633 0.023818839452255314432 -0.066918463717897655463 -0.044549594273294738922 0.14156787377242405213 0.0024388096549402388767 -0.027323021432288777111 0.078009315293779010747 0.12520340872968219181 -0.0072703456964319981143 -0.094139587429514517969 -0.10190930174998186208 -0.043724455550353445721 0.12520160816224323863 0.13478004546913277539 0.16227595001973094124 -0.13125118530177160014 0.065467360397666415905 0.079132240737083955895 0.071248530733190845732 -0.050275543836506196571 -0.09810612863033751907 0.082092493738423158445 -0.030765170577927006268 -0.10453412874447109981 0.022719104752528012509 -0.0667212040015277702 0.12456734963646458325 -0.056739558615946455999 -0.068090152922485533415 0.077277408473280115309 -0.12682599814474121436 0.11072458367596942075 0.21402885436179980294 0.23390881116200074041 0.013392805754032425722 -0.10737751750050006372 -0.0064851250189060585805 0.10782757484197674769 -0.02422359548708994878 -0.093885737763292759217 -0.0016844944267445868553 0.093977655934847845187 -0.11629047457042784863 0.18894134716508040328 0.046915151719493168592 0.076287951773837681113 -0.050016200082672310212 -0.13505930044352726371 -0.05998329634839542901 0.092753251382910684164 -0.084177106721305836046 -0.10194080362621164848 0.23356206215073219146 0.19302153237508135053 0.070801520533436579363 -0.17494898602486991246 -0.088866662472903062975 0.13582059342199803709 -0.10290586516937137718 0.049084976178039654848 -0.34713947046942866814 -0.12487705041570829056 0.10897301119731608865 -0.081776266167119596173 0.013413249167955419022 -0.13764421353036443429 -0.0085885368467907320655 -0.035783666418207349391 -0.11635205774712122084 -0.053616236382469255328 0.10010936155662067404 -0.083481936587586874632 0.022809167876380771756 0.064511383256575460798;-0.24082858398813478118 -0.3166872179124147757 0.21713585221153289262 0.00093236574172083361896 0.011835228969582309994 0.0067867646740227115937 -0.0023005577843652675642 0.0077727754403562211022 0.0091848456012360423645 0.0048994369326438606468 -0.0049770311619357293989 2.8582226473633099014e-06 -0.0061368165430318493206 -0.0016224936951169559914 -0.00049119535975109972128 -1.528207664442142108e-05 4.6646142811219671275e-05 0.00022485731949131417462 -0.00084772422006801784883 -0.00028377471331179074865 0.0052764276785975498807 -0.00068410832022733456155 -0.00012150386148653482426 0.0001854295634594147629 0.00068542357746086070465 0.00039065470074221760608 -0.016093328728411418482 -0.00022657570284322355405 -0.00030942607862763019241 -0.0041402432806148135522 -0.0057571185386449215057 -0.00082632964798389429376 -9.2662354118861050151e-06 -0.00028666170802593319645 0.00027527406517544858238 1.2548165368209793262e-05 -0.0031373574985385744782 0.00035750604595522633439 0.00056436410089833767816 0.015613392467287918672 0.0034320680071375365798 0.00047520966870820142546 -0.00055023739735600375646 3.544957377098177698e-06 -0.0045593529674059210186 -0.0014744050255977043246 8.9416602148778388673e-05 -1.1582495009802753943e-05 7.4563558679504891098e-05 0.00019809233625382412832 -0.00013492957082469539528 -8.8700898319849863852e-05 -4.3169583066293935869e-05 2.2621824586974614759e-05 -6.1044540463440135768e-05 -0.00025692366077386514199 -0.0001592275973055016483 5.8132383579519301454e-05 1.5697881562958905576e-05 4.6531446974426030549e-05 9.5529123877148799959e-05 0.00012337638257995739845 -0.00017760820306625732913 4.8430313121855411728e-05 0.00082121316216981728783 0.0024620928618400541102 -0.00014813137769371993615 -1.5359830288236628456e-05 -8.9514128462170721172e-05 -0.00013967110812149668509 0.0010430399575629425123 0.000262482337153553528 -0.00010157627507542203976 0.00041594554556740714456 0.0008021071892016896172 -0.00081738123059601900441 -3.1063811356679213601e-05 -0.00014168392080178229429 -8.9405476440587017392e-05 -0.00025019795198803068681 5.0609251991675521603e-06 0.00025694590673620241192 -1.0367246266930365254e-05 0.00044478136319484539666 -0.00062106224010723663515 -0.0025671095928181636263 0.00030319341937321112089 0.00011996365335979330014 0.00036776424038648553591 -0.0001712756743406178533 -0.00088070756945239582394 -0.00093742352224426405555 -0.00039395542547982387738 -0.00064841975333210981423 0.00035653960050250423129 -0.00057057375389209968094 -8.7136483387672514461e-05 0.00015829106893689275375 -0.00013796597463833936608 -0.00032023791278824940802 0.00032217444200822005973 -0.0005398449534122957711 0.00016930485881961373617 -0.00011329188176862028839 -4.2493079959877899285e-05 -0.0012115674624394111823 -0.0001361865917378580679 -0.00023510546138240002458 0.0014627379878744779448 0.00080108976101277672155 -0.00051220122438062139388 -0.00036257950846814847139 0.0039932172970119327038;0.24038284468897355706 0.013728139673264449713 -0.17412098657299188154 -0.0033461526515867509417 0.0078963186709535716085 0.00070197362064925588904 0.0011125630749484543506 0.004982625707365245446 -0.0057468939993196603219 -0.0051765019929737952215 -0.0086738963866370040467 -0.00072676611578782811078 0.014274171003697664131 0.046878783226430111031 -0.0087983189433974949567 -0.00076618833919711332604 0.00027275228190389629729 -0.00057282218301164984642 -0.0017524900097784330485 -0.0011358215171663778309 0.0086993114150010677349 -0.0013789281420748397081 -0.0005268826419689772193 -8.2512546319819521162e-06 4.8525722760059653807e-05 0.0023414882400949236195 0.0086013870113540984857 -0.00051539078456790707143 0.00092785172646343350763 0.0040953725315774625049 0.01098017290704639444 -0.0023523536241079130889 0.00038764859426026218679 -0.0010075422447917510484 0.0001107660399849951763 -0.0019964631949533819671 -0.024940521364905866158 -0.0020137340224272745441 0.0004284322055114204021 -0.013788658293027824739 -0.015396158506303478375 0.001763602053704807493 -0.0010242666766097138081 0.014593898901408443661 0.0077609678981483756766 -0.0079245675560790165837 0.0010460810984384049174 -2.4325839313390555755e-05 0.00057489391927086704211 0.00053906287444154281276 -0.00083884744922570956931 0.0001968885256202773811 -0.00058217741518222022087 0.00012741768180848174648 -0.00027492048321896316509 0.00017494140131152824316 -0.00051149058195872510336 0.00067428262434436527645 0.00011495008098921612248 0.0012340406596612822458 0.00080547820132054832789 -0.00043108321792511016023 -0.0001966190850643414307 -0.0011290568047410064981 0.00013364781854072503098 0.0030789765960625445698 -0.00080909363221384571468 -0.00022052765220284279639 -0.00054599820226914578137 0.0011027644212864863831 -0.00044315130774576260222 0.00097094608988911024466 0.00037194729959080211242 0.00051071261176431170629 0.0020857974077822818114 -0.0021287269383899148738 -0.00019229948701060675187 -0.00053299099962150048825 -3.6949393725296501162e-05 -0.0011136645621287780909 0.00051686451355670379876 0.00074886583067185858928 -0.00019753738546002255956 0.0015677107277626053244 -0.00035404314763463537712 -0.0035506037500247270532 0.0013524235984158177164 0.00011332058648248066876 0.0012186405976468519304 0.00024401791995944485019 0.00094857574446563866239 -0.0020336896649350306304 0.00011025766707751494234 7.6282678793675564102e-05 0.0005407540664135892074 -0.0041006088298135255632 -0.000259247373679793319 0.00027356986759026312309 -0.00035144193060811381541 -0.00054467693885619733549 0.00074592903792930877541 -0.00067519376440746943589 -0.00022775159193119968917 -9.7696705587133162189e-05 -0.0022242254303768580967 -0.0017654576129177538841 -0.00059912088180037335796 -0.00095355145176851427262 0.00077256259078966368469 0.00013712901985542366896 -0.00097464146128326076962 -0.00058349723585221036169 0.012315392941478304698;-0.048735839466676089682 -0.025293899080634701937 -0.10613816456864963444 0.013006398571229708244 0.011821275574238360867 -0.060264498098595950526 -0.024728137545684956283 0.031159837565513662933 -0.033131078799010796332 -0.046090942007656565682 -0.053316712022662346437 -0.021290211907037202149 0.079842931806545433537 0.016790880670568185395 -0.061728163205134904679 -0.024576191590748593108 -0.007446452645755688611 0.0025096519493186838883 0.0018182663650057088404 0.044801544057899149454 0.023340989263708127738 -0.00029597754337228065775 0.0065122324665554190415 -0.012013357438730769278 0.026091598509883448531 0.0013064591035843312657 -0.021545950908118668282 -0.0091325687610590063764 -0.0014922600466843417497 -0.012881500878263786938 0.0090915118233613687049 0.027060150386637654013 -0.0046033754540216109338 0.0074184125337681053325 -0.018374354916353082684 0.009337446076050429089 -0.039070323240077031723 -0.0030182896228858652372 -0.0025983781126130665873 -0.026305152501432484125 -0.068989306157298826983 -0.0066329764717379703642 0.0087905938153057215645 -0.051397756794566061556 -0.0057249991169729935042 -0.017101280655455710494 -0.021981619859437730169 0.0063949083185001172683 -0.010759315073965356607 0.0042313640382425831907 0.02513870948978906561 -0.0057001681739310651117 0.017955674782509797871 -0.007899365962845027872 0.027780464010824380827 0.016113012713069641002 0.01517033166379029574 -0.013732319928578578389 0.0018325780355917913045 -0.023421402887503436213 -0.013196689717835238462 0.011496233248139206898 0.0081969999594067796678 0.014056923912252172054 0.00081613874299921781302 -0.015314385675971441819 0.013996117064645268932 0.0030920241401190206275 0.0079286350973580485557 -0.0046883382382928318749 -0.014549389637398881317 0.013286661562536277933 -0.003794165912634778464 -0.0041285567040067741237 0.0016579727804010874637 0.014868290986327326389 0.015528188779810074213 0.010740749342762432109 0.00270377355311365343 0.021803213300437090244 -0.016806981189911390784 -0.010763517040188174193 -0.0066834168260202411055 -0.018162408100739983741 0.0024829203523248290393 -0.0091237583548522613319 -0.021118480220485534582 0.0009839256801973733299 -0.022962736330909273158 0.012677391596158214468 -0.023414892675493424734 0.005385191372903740982 0.00032391923643550608837 0.011281119938336211725 -0.026019753343802257128 -0.018855295641377448762 0.0075962435721476234685 -0.0043599963158984815156 0.0071197928618771198078 -0.0095395282294310265042 0.0085552973682653833676 0.042083041815350191728 0.010315198872719887058 -0.0080414641074134270149 -0.0025405310295439870009 0.032345633460404185633 0.025227946559432324475 0.021288678128632314984 -0.0014796376424817791594 -0.0057461448668892226369 0.026871559635180453096 -0.022861041996100697066 -0.012131977761410150593;0.3006259757837874691 -0.27526021053783722436 -0.019667396282871511121 -0.0032776134560696884926 -0.0072953995570653020278 0.0018134385794676304623 0.0048226723893135987897 -0.0066237780419620140293 -0.0037917225121116364915 0.0045246908328988788214 0.00084673467061728807485 -0.00050860449319054283276 -0.016870524134877891431 0.0037762951563562940568 -0.0015469531897939433653 -0.00020177928284910922685 -0.00015136084216227767307 -0.00015205449754840592272 -0.00015281259834236973717 -0.00059681224719990979763 0.0016546967394451123339 -0.00019579238046007124219 -0.00016701170055345135367 -8.8396422156647067817e-05 0.00071326888347549022296 -0.00079993109871795843157 -0.014857547546640590894 0.00030431233853835083173 -2.7342713848733220738e-05 0.0052317573047394256083 -0.0034313281683576442142 -0.00027256220550133969686 9.2470006782799027412e-05 -0.00016078253068538454567 0.00060232629506648364959 -0.00065441304763156694143 0.0027311275449251426299 -0.00075059134330406464351 -7.9360282481636605471e-05 0.0061099588532846109065 0.0029200939124183361052 0.00081365046855889835032 -9.4818158316880275208e-05 -0.0046504830511204676285 -0.0029330653533228114374 0.00088211963755407767594 0.00025294542202097700058 -2.76268063855800813e-05 0.00014475455199022756419 7.5144473272555068182e-05 -0.00018297071754166859751 0.00010946925273340354619 -0.00015151562066384149084 -0.00011001458342640143618 -0.00020601991779372423315 0.00011412813171593992872 -0.00010611321561940049996 0.00014846670408714070688 1.3734657949736667738e-06 0.00043546828716824111669 0.00029174374685912946113 -0.00012708656034181992339 2.4388194069148430771e-05 0.00013727116722539800596 0.00078328346295894295259 -4.5483976357723177161e-05 -0.00012470845821758761124 -5.1032270878078562029e-06 -9.7210651576098047982e-05 -0.00033888484398044940076 0.00080051940879530443518 -0.00012950562993155646254 0.00014302740079846692285 0.00017574253738695277982 -0.00034135423091879351157 -0.00017337804523225746646 -2.3503319125134021527e-05 -8.1922170746357339641e-05 0.00011381978510238115329 -0.00021138551638878781908 0.00026657023355471841592 0.0001005852042846434142 -0.00015909962617078238266 0.00011772168725563233365 -0.00021520880613469341234 -0.0004453054153327069809 0.00027641800255012049679 5.4371047385879994664e-05 6.9705757756911428417e-05 -3.8696655734221265921e-05 0.00015123505129309292635 0.00068740555300788447595 -5.2854770343611246635e-05 4.5140148203873047515e-05 0.0010099353740695570132 -0.00056723526567059980377 -3.7528524558256386981e-05 -3.2085924030084600651e-05 -4.3858751762177166506e-05 8.0536700396338138327e-05 0.00057338366441631472697 0.00058512052721060650584 -0.0001982849477298511548 0.00033077902833691713493 -0.00066390920699946483988 -0.00059637174497803688723 -0.00018086984456890806074 -9.7891748373469492529e-05 -0.00011571182128267328839 -0.0011170379185181671024 0.0001395303342672830568 -0.00041450995307652972353 0.0040758358069140684238;0.057125404115898274771 0.15484519357230794312 0.29245559493300982146 -0.0057476869163021375789 -0.0058937076185777443477 -0.018741251804788777724 0.0099159308979275134766 -0.0063525150886435382408 0.0023289270284082342656 -0.0063172732539493910153 -0.0037415207411092754261 -0.0012306996632802202733 -0.020677826105371426707 0.046079624271560572224 -0.0089146204891533669529 -0.0014721441846545519488 -0.0012117047172019719363 0.00063272075090296418451 0.00030178732089550480526 0.0026083643039378190918 -0.0051863493600452824708 -0.0010768834248842801531 -8.5389355719495748254e-05 -0.00057226175126199891469 0.003751839984928024424 0.00044839950268308411026 0.02267119923604824297 0.0020025081230399606642 -0.0027288264902675454793 -0.019251764167890813434 0.017066390210175714365 0.0008290942947229956294 -0.00033487004651344025926 5.4533920244940587666e-05 -0.00030530202763201898589 -0.0015762148625313831662 -0.010102007932917659444 0.00033222175911792661612 -0.00033151522889711583378 -0.00015620648960466211228 -0.0023379004454824924356 0.0029339274061557325465 0.00023703063678797095808 0.000427380118641073844 0.01827340498011138098 0.0030560705712598971659 -0.0011361719713397192173 0.00028855425031983793953 -0.00052966554211356575363 0.000550213976193913816 0.0014764458733258465934 -0.00022749987877867164214 0.0011095659488824240971 -0.00031529541499567838823 0.0020190869881334134323 0.00086107897667738668261 0.00070668338387198730791 -0.00072687706996955717999 5.6461253732418194165e-05 -0.00087963032935132318395 -0.00032089675440552664024 0.00075837184132801905949 0.00038042529351669097763 -0.00053394861180578346172 -0.00029849919735411165273 -0.0010314931489531380983 0.00062115135815514759161 0.00018795727463000877358 0.00042996352907868266944 0.00058090042860910770343 -0.00089589646614428493105 -0.0018861731492824367756 -0.00056074060211775290236 0.00042729951017119913951 -0.00035601515453084563818 -0.00026138445994862885601 0.0010395640577633286084 0.00050849481641619339884 0.00039920573876218280003 0.00097792356584246393006 -0.0005849391965941700116 -0.0005080175437087966657 -0.00089631780522153993527 -0.001003802760610167117 -0.00061471425840711887371 -0.0016277895812207420368 -0.0010664966414858610688 0.00039119321060671096487 -0.0014927782946434384973 0.0010368031051507539762 -0.0019784033728607762145 -0.0016617703875964997314 -0.00015566060351493299905 0.00060952353695200754084 0.0050123542019506490269 -0.0020528568848342115816 0.00034026868171455987256 -0.00024419469653959253791 0.00022656803482905030515 -0.0015546451973612014988 0.0013962935358212684878 0.0027878144640344367476 0.00037423949621492673921 -0.00049773509289903321035 -0.0033594578899071836885 0.0011883273450417684673 0.0014548887601114857907 0.0010298556677900028589 -0.00022826361163897111251 -0.0019088121924916233007 0.0010976954369943372949 -0.0033852396680884673172 0.013091191014281871111;0.40813966238566340428 0.12330495259817159104 0.21716671499441694837 0.047353331572218354539 0.081261741449859731246 -0.043564829579955319239 0.0059552895643270242418 0.065565818875043577196 -0.10913854426689049981 -0.034929646456432157653 0.050638113766040229735 -0.021232193052938923977 0.0086137295175575997325 0.01343272202455967658 -0.047153768759730006754 0.0073328825819566701219 -0.0045543972459895628799 0.016617721160704094358 0.032549577335820145674 0.040484526367236477185 0.11056394198418703634 0.0019081938397889233825 0.0028709853224337311337 -0.00077395146601566663837 0.036575214032797662145 0.0066141955142899246795 -0.070295158787090264441 0.0015448995800113477297 -0.016685042264746693941 0.10577139793184850425 -0.002811591050269411033 0.031102337691866842329 -0.0093060017299228473681 0.012092899578126417234 -0.019336818248816462634 0.02003179743218107961 -0.034481861763472274052 0.024310477174316478394 0.00025769759915907178597 -0.044968248101801423788 -0.10935038455878941244 -0.018860985876659297489 0.018145057196022967849 0.07948292223195804751 0.075996393814306728576 -0.012128456053275908991 -0.026944966302828315258 -0.00090596437979807015184 -0.013906456668931815521 -0.0061019144501409548417 0.024055983315680082302 -0.013042020882467820694 0.021118515773122688295 -0.0051203528828640482509 0.026096956901625844444 -0.0053702333209862907967 0.0068745038053847377577 -0.017299159664760203198 -0.0036747452972628615563 -0.032577366918398430184 -0.011603354953330667632 0.019441758845521815713 0.0075625479179887416387 0.025251331660396988954 -0.0170455716775693919 -0.030388605573280619981 0.01586682393704575561 0.0061811856890665733966 0.013129013846947441141 -0.016415824424334021781 -0.022504034312008425189 -0.018843554821193531784 -0.015990162840578494435 -0.02282122489951778424 0.035532268365505555174 0.010188709274152095777 0.0097352621471484927784 0.0092463153658379291372 0.00045434534163340200251 0.020883231659926237284 -0.019545064780350073635 -0.011945927624697276828 -0.0014144448704617937351 -0.0059166430487415499345 0.0055532349547590285563 -0.00086863681198048674995 -0.028288461357546455105 0.003725382336431952348 -0.024680460888889733939 0.0098387815100127572893 -0.023556489171864453125 0.062264001552447795218 -0.02377361261709889928 0.013465925620898579196 0.0017057072047194947115 0.010047408656310959432 0.0033799850063192821842 0.0014944741339998333408 0.0015959870926617971722 0.00026621392282808153647 -0.014886312553988041707 0.035397644671368563851 -0.0060313908796934935855 -0.018198433052305940799 0.031393206753812026577 0.020370957777712968978 0.01683114433319042938 0.014443376483704074148 0.011228230707708990871 -0.015468865959445672262 0.0077751388697364261227 -0.027201747568069485628 -0.022002888918408396168;0.38222754455771101867 0.1533414490514708739 0.51307910309685433869 -0.0038005447130750663262 0.0068676174511748972612 -0.023438338345331839047 -0.01879878934609034366 0.013448120461868379519 -0.026161173833316536674 -0.012985399937832809575 -0.036634369457063109543 -0.0010802943322466341571 -0.07040278092248525299 -0.056245767580783923023 -0.053420917070061212095 -0.010072813606102319281 -0.0013145771895874669693 -0.0021575209194002161264 0.00066478920443559144215 0.01157573471828459051 0.014811627515002680211 -0.00068184702387493335406 0.0025953576642279269603 -0.0046900741041094413594 0.0093102840049507119835 -0.00076806526511762973977 -0.013034676704766328878 -0.0057456462626328122859 0.0049316687455952645108 0.0019879418479664353638 -0.0059240992462043420147 0.0051361333146507847855 -0.00091164207031277420899 0.0018585268613789582802 0.0095698823573476202858 -0.00042314691230423021138 0.018942368328111754139 0.00080849997805493734482 -0.0023868556529367916663 0.018742563817540597998 -0.0065146059489227100756 0.0035273656377464903539 0.0016954216497878423636 0.024987883336402363227 0.019057132027495850279 0.023233693028914127743 -0.0049269476807882982283 0.0020768524648298847778 -0.0024296172968854023479 0.001612786088363526299 0.0063796878257371117046 -0.00071079442543989484592 0.0044045293760677679817 -0.0013819939706444387198 0.0057967370231114855386 0.0055210157790158836955 0.0042096149671198932612 -0.0029703755567537255128 0.00077399714930673538769 -0.0053014049974449001246 -0.0028568866610880613507 0.0015923744722501510102 0.0027478828131198363219 0.0013387123668139482881 0.0020941194372630289253 -0.0026369654790564019814 0.0032612724175374889143 0.00049261891279648532121 0.0015495993764649185123 0.00032840900818943181841 -0.004517089707999015491 0.010176876541270571397 0.00061440861990414504142 -0.0007067849035975907546 -0.0025754047842133941972 0.0052042176207618947095 0.0041521656206094112798 0.0026873605164360108918 0.00069709621490125631745 0.0054195862388334379439 -0.0026126210155120203546 -0.002680937648525083452 -0.0013627720979559644621 -0.0078667397763698843766 0.00099943517079661872531 -0.0037096138801843048412 -0.0046728429130014252982 -0.00031846608910123181454 -0.0049946249698991831284 0.0012964665577185768581 -0.0047623793845727787483 -0.0037020566636005738069 0.0033485481053976756324 0.0012470505885697987826 -0.014838812434631015041 -0.0052375359301313172133 0.0024093730955121262297 -0.0013067670446140773177 0.0020099766364768717648 -0.005375485533185825511 0.0029678471250393434824 0.0098157584155922662783 0.0031254445981460403023 -0.0010740351464552002746 -0.006111705178996664975 0.010397777128184017628 0.0064944391443880799056 0.0051170872856344962881 -0.0063253294402930357321 -0.0030849653797605800301 0.0063875485646713815388 -0.00075956365180618746601 -0.011419721433000360258;-0.4542232845058089552 -0.169848621485000989 -0.47180619126330403112 -0.023960563849249078006 -0.014812655792821831716 -0.0020739378537085852508 0.025115658994132653709 -0.029230987456304927813 0.011597656120358734722 0.014008071258580154228 0.013360983389466772955 0.013464130641263194824 -0.069808376657060411397 -0.0011552042968331385341 0.023072881606766914436 0.012137519994562586192 0.0032669255577700761703 -0.0022821263986294213454 -0.010019506434450493881 -0.018343831680848528276 -0.030827452175834622883 -0.0028234010524741709643 -0.0027734627981029101249 0.0055157753257391800919 -0.0088968797982420504827 -0.0015209618472171700446 0.033379346553020217137 0.0038712882435928950599 0.0011444739583000320109 -0.021139153349171307256 0.0090983604340499155821 -0.017316439330712925238 0.0019266094071240657138 -0.003458036800361255405 1.7487968430017903883e-05 -0.00665582967920150953 -0.036754246504645801674 -0.0027808094695471650103 0.00019878475606375394825 -0.0057581772076953962117 0.016615157194291085146 -0.015332602232182777208 -0.00026736241953265513617 -0.0073305913965142832298 -0.009207635073787859975 -0.015131721230409197684 0.011691017087692944648 -0.0038575785602319280845 0.0057729461739461102737 -0.0021613671715782064794 -0.0140637494346860948 0.0037148919041282407044 -0.010213259153698875381 0.0023154314169057032755 -0.014180593337258042691 -0.0081132421254367596136 -0.0087768473665994391208 0.0074594502255112965505 -0.001459865884741187508 0.012871042454813944392 0.0070780835706241284483 -0.0056587139452820576016 -0.005313944680172723832 -0.0087026046199343270321 -0.0020180042955079665126 0.0068628611800366856946 -0.0078627486151642903001 -0.0010294342706305928837 -0.0042600478357984750133 0.0032742969225401361878 0.0092889076505796273897 -0.012602492764448721199 -0.00026685880844750525537 0.0038854942401342750652 -0.0062122900084817106459 -0.0084174629491458562158 -0.0088090809643203635271 -0.0059308265280738937941 -0.0011537445647324903221 -0.012023894066072005754 0.0081364784489489447999 0.0056599508705685603466 0.0025540348754977452127 0.0047638181376647315696 -0.0015937766671882383409 0.0013428107052497130665 0.0096038621032556552304 0.00043323227094535390978 0.010971000359742091868 -0.0048223095154586699887 0.010301302986221451755 0.0016692983644944795699 -0.004608292567315476658 -0.0039135163286080128925 0.02200959489999685173 0.010787063817261905233 -0.0049113470703762663813 0.0024758987962069031741 -0.0041841983842380503153 0.0019450981236733689943 -0.0037653236745086794864 -0.022447345679223816572 -0.0095961654820428173712 0.003381389466042643982 0.004450767736405914117 -0.019754079822549910905 -0.020038477767605790414 -0.0097761367191364634266 0.0074244197833208654472 0.0010921327610297429118 -0.014766647422334213541 0.016569149093619773422 0.013536650685007308587;0.54789744274009533065 0.24234894765576830977 -0.020643872487918591557 0.015107891199666595786 0.023708233093622566728 0.027061187886803249325 -0.0015053546691906902547 0.0068740757324199010941 -0.019853172315401935999 -0.015657530603285965687 0.0058757934407734375287 0.015376265002622402367 0.10345118348684734233 -0.047007004759630641177 -0.041984839909339738417 0.0089607220200302126895 -0.0044476955047556276934 0.0074891775509162593003 0.014244591958932019751 0.032830572509864833219 0.048217587625348619362 -0.00015874337636150983645 0.0017196526474584175083 0.0039908666227118534675 0.0080326336910408243502 0.013786130342601706292 -0.017958477199705044636 0.0036729517991945280844 -0.0070210207261254195532 0.065759029506613678184 -0.0028060208910197052823 0.0019611682717244572835 -0.0022527046483707064209 0.0020453112064514251435 0.006801833970945869029 0.0073151954961689757279 0.020523084435519770019 0.014834064059547230965 0.0060359058166736846707 -0.019511725005700798069 -0.084453053820347512293 -0.0027216244920982520829 -0.0020081027474420217946 0.0078219105305479437462 0.025073273138462737891 -0.0097392572005044284605 -0.0013174053149519117812 -0.00053182269931951044011 -0.00060289378406929317739 -0.00069249779393998637991 0.0028400086893514645686 -0.0027314853733349958066 0.0022913495030845729486 0.0023833030157764546059 0.010797379031077608547 0.0055662228263062014239 -0.00011223269111856754563 -0.0010156766429722161298 -0.00072127924943262420373 -0.0018647820930231264695 0.00011100587638474645579 0.0020174065328058582609 0.001236721078563780352 0.0032806247969830136524 0.0041634594987668997398 -0.0031411350826983440269 0.0010211573664397550262 0.00060609089594693132952 0.002190642556442171443 0.00060287890376224824961 -0.0020300949731225054022 0.001292297694933558375 -0.00018629790551145318208 -0.0030089775473411614626 0.015404865107283826145 0.0019413690976129395135 -0.0012245536361414116524 0.00024483327497647335924 -0.00029511086697596694128 0.00065453313019390156093 -9.5553070114957403664e-05 -0.001444587445958759285 0.00071427916775502315293 0.0019142912765021838188 0.00024718779770398847983 0.0010886731094411413335 -0.0024742731354499463217 0.00015900981904237664034 -0.002078006983979828904 0.0046306867325217370215 0.0011681309069350844041 0.01354897495051449012 -0.00057042900864268369227 0.0024213340895444432875 -0.026967382054558324683 -0.0063982618231736522116 -0.00096322875910750341971 -0.0001630635541422214424 -3.7459514979600102983e-05 -0.00082386268323753791051 -0.0016230627848773813895 0.0021790980813196805625 -0.0030991182449081381388 -0.0022634049175484951925 0.0091652355273286398307 0.0048659015426401807866 0.00039957628347484939937 -0.00033007348675606292855 -8.9018180698394758178e-05 -0.0015629001972583631691 0.0019609313130055329097 0.0033223934423352195419 -0.02172754319806674897];

% Layer 2
b2 = [-0.1424021965776631482;0.42526097921622790787;-0.026273735097044104841];
LW2_1 = [-0.00023036287669563071129 -0.7156693312464270651 0.64129708557115083778 -0.22894014592648689876 1.2217303370885317371 -0.16593567918995710819 0.083853822737305433455 0.64821208929200690996 -0.37221142190505845937 0.60345343220303737652;-0.00042142161418782402883 -1.2456664958592991166 0.43715851244223014049 -0.11733397038558603109 -1.7635755686642899942 0.65635337745116595354 0.019577948223084767204 0.24996434736730285819 -0.10456251742875885546 0.05293408314539421039;-0.00028157008411013338461 0.82891765723811805522 -0.8220701777650850639 -0.36045591373989177564 0.018069046875802140945 0.94275631712113394656 0.038053378954775771148 0.90243442057568556969 -0.42298050031865064291 -0.11637672240207551366];

% Output 1
y1_step1.ymin = -1;
y1_step1.gain = [1;1;1];
y1_step1.xoffset = [-1;-1;-1];

% ===== SIMULATION ========

% Format Input Arguments
isCellX = iscell(X);
if ~isCellX
  X = {X};
end

% Dimensions
TS = size(X,2); % timesteps
if ~isempty(X)
  Q = size(X{1},2); % samples/series
else
  Q = 0;
end

% Allocate Outputs
Y = cell(1,TS);

% Time loop
for ts=1:TS

    % Input 1
    Xp1 = mapminmax_apply(X{1,ts},x1_step1);
    
    % Layer 1
    a1 = tansig_apply(repmat(b1,1,Q) + IW1_1*Xp1);
    
    % Layer 2
    a2 = repmat(b2,1,Q) + LW2_1*a1;
    
    % Output 1
    Y{1,ts} = mapminmax_reverse(a2,y1_step1);
end

% Final Delay States
Xf = cell(1,0);
Af = cell(2,0);

% Format Output Arguments
if ~isCellX
  Y = cell2mat(Y);
end
end

% ===== MODULE FUNCTIONS ========

% Map Minimum and Maximum Input Processing Function
function y = mapminmax_apply(x,settings)
  y = bsxfun(@minus,x,settings.xoffset);
  y = bsxfun(@times,y,settings.gain);
  y = bsxfun(@plus,y,settings.ymin);
end

% Sigmoid Symmetric Transfer Function
function a = tansig_apply(n,~)
  a = 2 ./ (1 + exp(-2*n)) - 1;
end

% Map Minimum and Maximum Output Reverse-Processing Function
function x = mapminmax_reverse(y,settings)
  x = bsxfun(@minus,y,settings.ymin);
  x = bsxfun(@rdivide,x,settings.gain);
  x = bsxfun(@plus,x,settings.xoffset);
end
