function [Y,Xf,Af] = nnet_2020_04_05_12_16(X,~,~)
%NNET_2020_04_05_12_16 neural network simulation function.
%
% Auto-generated by MATLAB, 05-Apr-2020 12:16:56.
% 
% [Y] = nnet_2020_04_05_12_16(X,~,~) takes these arguments:
% 
%   X = 1xTS cell, 1 inputs over TS timesteps
%   Each X{1,ts} = 24xQ matrix, input #1 at timestep ts.
% 
% and returns:
%   Y = 1xTS cell of 1 outputs over TS timesteps.
%   Each Y{1,ts} = 9xQ matrix, output #1 at timestep ts.
% 
% where Q is number of samples (or series) and TS is the number of timesteps.

%#ok<*RPMT0>

% ===== NEURAL NETWORK CONSTANTS =====

% Input 1
x1_step1.xoffset = [-8.90441808680563;-3.79045844583723;-3.14195510651308;-1;-1;-1;-1;-1;-1;-1;-1;-1;-1;-1;-1;-1;-0.999999999999999;-1;-1;-1;-1;-1;-1;-1];
x1_step1.gain = [0.134837126894005;0.219105758750718;0.332349962543935;1;1;1;1;1;1;1;1;1;1;1;1;1;1;1;1;1;1;1;1;1];
x1_step1.ymin = -1;

% Layer 1
b1 = [-2.1199911902897383698;1.699794956956299119;1.6923799763703992749;0.65706742111897142866;-1.5855327825877119086;-0.56187163514951821153;-1.0702371778770722877;-0.89847456322221952441;0.22848616596677470691;-0.99424895394309731333;-0.57435059642734498375;0.18016027543743165507;-0.24291689951990563801;-0.1438137876601623677;-0.22252342702860131163;-0.54111699247158362436;-0.58521022854556703496;-0.38686372360576942731;0.36160736233382662075;-0.16877126395951475013;-1.1787139527746171019;-0.31693696634026474745;-1.0801498043821951001;1.1337306564668676589;-0.904826716028890643;0.76544451725809947717;1.5985525342764361767;-1.7233139098053282812;1.5522376012633138931;-2.0764946742030976345];
IW1_1 = [0.95885229467466226438 1.0769140635008200846 0.17412167421040974924 -0.13156403642744668447 -0.18664949505966524357 0.20945754193612473038 -0.47700536894207912209 0.65534841675325961052 -0.45401114780173207341 0.047368007598383811418 -0.35053079786978735832 -0.052587943876049841885 0.23195301066348048002 -0.086878727650131742921 0.17171441956090144343 0.70794894871982672058 -1.1729247299198974908 0.7356617984213223993 -0.19078688647092673092 1.0057880792814912763 0.31184052784226956589 -0.16866608038181740703 -0.080917334798653511863 -0.69178949815084989083;-1.0848604922962177266 -0.1306491270425811646 -0.15344647825305282596 -0.38610995739780351599 0.41181002080861345283 -0.80934428786914525134 -0.071059949947305300899 -0.6916794022153867072 0.13882944670977548363 -0.44218103223809196445 0.63370829482874457828 -0.13628246511371566729 0.62661915974245507854 -0.043031000227032656369 -0.48776367712267537646 -0.091101365745595755397 -0.54080051084111457893 0.22991242802063988071 -0.28283182698464787164 0.16639774035036530853 -0.62829764593149883822 0.56591356317474283966 1.0675948059355013786 -0.05557360072652355043;0.095107914061713871856 0.015076271425157335149 0.45376575911973371369 0.020955703252116295726 0.14617431668836594616 -0.26405400480212654069 0.49450715720401416942 0.7166931628830031098 0.15234944068292147201 -0.1581787527683015393 -0.13892229733345773379 -0.5935716596382339949 -0.34262605009259938793 -0.40167049732623572034 -0.25546371325773814531 -0.23263009578456475546 -0.73953296414893110455 0.037299769871883457772 -0.59659817603877651759 0.014363292715990754259 0.14304233979499123008 0.19979833840442728921 -0.82223491078634236562 0.54566733914009069029;-0.69946558298091987549 -0.087792741540219654262 0.022788580205294284298 0.19747461748622924249 0.033386228074392877707 -0.11318883212468074106 0.23603932536971469758 -0.29789215438320931773 0.062828376375675731857 0.063372246745682467295 0.18813222841009430431 0.19598997103964058142 -0.64864372144148585431 0.020958201012638320165 -0.16196751061432956842 0.27024310386837596676 -0.45511386401331149765 0.26865322449324846588 0.43797883214758909221 -0.39223467084478808031 0.10000288482351070429 -0.22064145366772819346 0.98968949660656035938 -0.78714003853046887738;-0.024086840505008123847 -0.23719647435418136916 -0.76222335360387616365 -0.31712597795980818072 -0.22869659471548675622 -0.60927328903321009701 -0.50831042372539214647 0.041549175721361880642 -0.3793775257231068454 -0.69168860864879033734 0.29360173904608577455 0.20097845775290826276 -0.19535153880626410228 0.49715283296970663729 0.23112270109018456798 -0.19626329690288418783 0.30182986700935432456 0.0039748682983901748728 0.47751104780789849213 -1.0325876688538937476 0.023054218536264010214 -0.19622868411283628243 0.26397537332027148915 -0.2919232000905832014;-0.19061203475560806186 -1.013245965852877406 -0.13387392227194941374 0.3149809599953434236 -0.059235819744001994014 0.32171125042067488797 0.38622601244994403391 0.018304294673776855956 -0.094973248329469101003 -0.15571151123593052201 -0.48586447510228214508 0.19469311495696353664 -0.29841585493183275801 0.53568914021466240705 0.19386362780719601506 -0.45568635234967219683 -0.25672297269201493908 -0.60077021092423499304 0.50290975009411409413 0.02276016954628868813 -0.46497000252763159844 0.30846606137206589171 0.17288032913528875167 0.51892497497761935765;0.80333775832370724057 0.73871768457934394725 0.25507379398266466497 0.034466051745846999765 0.099724405634136092935 0.059647760340078098684 0.40130778416967638478 -0.49014473978614386818 0.40217576388661763209 0.1706219028697967266 0.42954771841545552613 0.45280165910412406571 0.3060870815219921548 0.10016981168859288853 -0.87768183496952634215 -1.1342267897540152521 0.33317692559832878807 -0.1070514678053427482 -0.12576334726152157972 -0.72636714969365767658 -0.14049058911183678888 0.2670996438171533427 0.1505371092467473193 0.016251287119884987031;0.78304043415030788466 -0.028734411456859908912 0.13914303929350924083 0.31596301843786306351 -0.21772065241246063572 0.29824991167544212534 -0.21467837586200244626 -0.1796148260922613149 0.43397620648294660262 -0.42443774427410974059 0.4958742578146914104 -0.3047235250083138447 0.31983151040784368879 -0.30117108996714381242 0.13726353836032922917 0.70370229013742979784 0.1865160257415632572 1.0200841412496497451 -0.56842644681193144063 0.21297907488927778075 0.46370306075746170471 -0.43716566333091722019 -0.61763045436092156582 -1.0325995513880228405;-0.48682039457327425103 0.99421532874629892085 -0.90953288712792268456 -0.20667187346318605101 0.079030769554340699057 -0.012589622253309812328 -0.57138588549895763524 -0.52066949353774916176 -0.5431463424214628688 0.63838204804429643513 -0.23691008989402384532 -0.061203898817242113894 -0.24905588744827900083 0.0094976334792327872514 -0.30337634837158916623 0.16107826796898730426 0.48299712294209445895 0.1990634715699318158 0.13890713341516058854 0.39717355250611602324 -0.10386998819382797787 0.38364230709344560033 -0.33418227159283281358 0.077081655002781510055;0.21855003536840450495 -0.13120805707465463263 -0.74844951232654122197 -0.053477030724295326891 0.27337527471963307679 -0.32704467009597237848 -0.097411990850602064862 0.08163996956203364852 -0.11625233878446625257 -0.19532024498605921048 1.0750236832366204531 -0.096477780038519853067 -0.41574615629093830682 0.19277461869503248471 0.23465737696597310791 0.086172197708230244273 -0.33532459567372818743 0.097995293773170802365 0.151767778244546514 0.71937906778076410319 -0.29569956876644837296 -0.33650627385879239295 -0.87928080472355818475 -0.034029185034236172913;-0.25322988980347743704 0.60210728783514300133 0.32845669880658723283 -0.14640858662647468491 0.37401145481608627508 -0.17367601951353014988 0.11282517476760021979 0.68740854850962818112 -0.034330941260229390355 0.10280361753704296557 -0.40099072564555909848 -0.39245377875755432795 -0.013429267793287701094 -0.029614189875827291731 0.032746202036689604775 -0.14817468720501719703 1.093632725151320928 -0.25552563322293625481 0.14451257473581549662 -0.29284050963974850301 -0.77767350074389296477 0.11733687643173833226 -0.39330575936710188145 0.60659399102688682515;-0.29151429883073426419 -0.032058889938511067608 -1.0369953609467517097 0.56729794734164085135 0.048066503263934239054 0.72816000746091180673 0.56229387379869466557 -0.063028816191871214758 0.65237444336158589842 -0.24714190159894355858 0.1201939270450450431 -0.27159441519087423877 -0.36973731489195588162 -0.0046495713946819901274 -0.0066628678197555250146 0.0084837880070910438174 0.033996248481794104357 -0.31178488800088144384 -0.50584647747425004471 -0.34691803714832003536 -0.0056875483381881933309 -0.16600206034198203287 0.65223672969198853711 -0.26965284615467455254;-0.35960085702353061787 -0.72334355978056719128 0.37682586452754135431 0.030681067410498419346 0.1237624399417310006 0.079890329675207219506 0.28406264217463067512 -0.24204969159492606412 -0.055314937500832168926 0.50844068616172710673 -0.57250570755265051126 -0.27420477128891690421 -0.28885250375395521427 -0.19691013070299395737 0.85601367736338729308 -0.075959114849590128604 0.26987051716343413155 -1.0867486996308193259 -0.36791938615814867575 0.29223426065267382734 -0.82591359812391607065 0.12916090038353880698 -0.063798054066253856442 1.1387851438583052044;0.91756678944817238186 0.81464547701298495319 0.64330417830699193615 -0.2200158482709924368 -0.11712569613441965732 0.080225879344621608968 -0.020146233259084989076 1.1501056237480287159 -0.16679040177551454627 -0.31431144710270031428 -0.33402784801463958342 0.23239311470389470426 -0.68360323618676288593 -1.0434860227922277964 -0.40269145696993585704 -0.43639599792137795387 0.2211931553351594304 -0.24308124800983640923 0.20549647819457345088 -0.024178819404487964656 0.36272780396686626903 0.4809572322209881845 -0.25314154024185558933 -0.050601809307395335946;-0.27766742350808809592 -0.65354387605093144931 -0.29912391330020610125 -0.59504389032630722323 -0.97085615826751436863 0.29651777219414099385 0.08809833248068987821 -0.51822733976491708319 0.48122380913676476855 -0.60532598937014936435 0.23460956098290525196 0.21663703745291507108 -0.49602710974427738355 0.92795794854605784252 -0.70772334014066595742 -0.7912769771066509028 0.59410471942742404394 0.8534441816158094829 0.19142093158688205934 -1.045056034656365318 0.97803586038145906567 0.82952498880804725889 -0.14437341537171327621 -0.85633249238866981923;0.077999651115247800592 0.16159325144264755081 -0.13788973448998151361 -0.15839615597640849254 0.14925990295112179229 -0.2519952280710193171 -0.61511231701378066283 -0.048753963125377636212 -0.096772276685915953331 -0.019328752246157272776 0.57874909127874607506 -0.29883224289079801661 0.48620279867665072704 -0.47926315829568355564 -0.5926754991210849699 -0.15491983471621920132 0.53866405301388464721 -0.25350803707588620561 0.97444327071837377741 -0.22616334078416683306 1.0774673721771619306 -0.64573029469866627394 0.37669587439524798711 -0.14641548576642224311;0.29808325762027343409 1.3136304561252947209 0.074741534633694969858 -0.077200398523267071971 0.47314178962806208162 0.26924900085084102486 -0.23450614307975570227 0.3881761479575237539 0.78026727653289218445 -0.59181001589985504641 -0.39841465368751471932 0.48425478228735485686 -0.49864248992838983154 -1.3129420350241889359 0.070813974892897299518 -0.39678861329310943784 0.52396685120188268847 -1.5684617635379931588 1.1249987271856329851 -0.1140917236442442334 -0.45915023352640493837 0.27626298633620310907 0.55727194198884255627 1.2386311400663938542;-0.37869305751237125612 -0.34733912361587876427 0.28295694713215263638 -0.029865223549525317381 -0.15348414284478276159 -0.14091272187703857144 0.14115361596804684718 0.34111354032879559472 0.12097519589594911416 -0.31728565646671430533 0.55161910382998613489 0.43088826393340928789 0.0039820862396732527311 -0.54211458092008402154 -0.69854387133381590225 -0.20769857389021950667 0.38418842953960763431 0.55749740855694362995 -0.18805198917192531005 -0.73846003535414161956 0.33226559334694627523 0.29247761022479490389 0.46978181054756212864 -0.45411297129875449752;0.19208929824708353973 0.59990975625257536574 -0.61754504500901064024 -0.26184955884979066454 0.10781836301520977828 -0.27094961881990642372 -0.46324045015936743397 -0.44080649958201600924 -0.49141115752075342771 0.20924612904364955912 -0.067063926867474282778 -0.38970144977199944192 -0.15064050350217317309 0.29575990336555713078 0.51397135315642150655 0.82316760557595436421 0.78059591670081474035 0.15332209627737314328 -0.15420433446523962306 -0.45318962055966188762 0.47687627437553020693 0.14979767473638536113 -0.3756589392222743351 -0.099619962343126686188;0.28349252150534404171 -1.0862919655232721183 -0.055048421709584745287 -0.84637215518256103675 -0.65991739757719658499 0.25638889752299154345 -0.20671869347103929981 0.0251272072693578645 0.34475477298540230242 -0.63133362786342661632 0.37272305328432442373 0.20565294886295440446 -1.1643462132638306983 -0.42618422991592547211 -0.091508018792584841505 1.2978303229083938408 0.81225577650057179113 -0.12427332815000204091 0.85049499620269430888 0.40119125119577314642 -0.66933187088562673406 -0.20066350955428088887 -0.58809680245978879221 0.45106510726362680774;-0.43582087880928338519 -0.55775815418457064254 -0.30672289256092738485 -0.30331321870915373129 0.13792387108113560168 -0.061885915132140451034 -0.1143126327033898576 -1.206520403648639661 -0.33936535140242080066 0.39225611048822661697 0.3769474261768566703 0.91832029836249351451 0.12495034680430527896 0.35989352329501672623 -0.02955456996560801991 -0.39534823013742342868 0.2861860312433570086 -0.96929183535323759635 0.25807236472363387358 -0.11598979195594516511 -0.46710260297434946786 -0.64138075207247269294 0.27567736498080680496 0.22559735401206409966;0.0097265823864978902258 0.061968190562246019959 -0.52234459971581670423 0.14815528410070552545 0.32223730157809932217 0.115116336422040208 -0.037527682542320979497 0.27434941711411864329 -0.089739010026549909105 0.25460209802064237561 -0.50022595572204309189 -0.20345924288394512391 -0.35358520047662894692 -0.53411621360615335607 0.24373534001570076879 0.8101071492771265703 -0.00279120537608117808 0.58023330128635319802 -0.67157178243879012136 -0.026335187627028411317 -0.0048760439765746284996 -0.18172719377643903327 0.3519566553992755642 -0.91158943344107479234;-0.35627136074014142952 -0.39188996750422178117 -0.081130104576078013179 0.18879724822089172243 0.052831505353730566499 0.13574285386911685847 0.38568600472643732591 -0.18447005561445550814 0.65609982448299675184 -0.21471909417321621838 0.1557150109878432942 0.93747687020400838342 -0.39051199009007048213 -1.0579085033697086526 -0.087585540712193474255 0.028809033563687178048 -1.4592347330408730333 -0.41979304692230917651 0.34760845137404250416 1.2603320525547883069 -1.6174851074526392924 0.19502951492618292306 1.0320402385539189094 0.89773814634909321342;0.25459922994958472664 -0.13574303487858380146 0.75108371547023000669 0.2363206518148558144 -0.15910427077437666599 0.15131829891465525817 -0.042862967913910240969 0.33377567236228894432 -0.17866742073164784688 -0.46757844722898289636 0.53331250752968628603 0.1000818183440421727 0.018086356565682408515 0.17447215262844839589 -0.83157961898824006575 0.31583921735808195841 -0.64194614912951675212 0.80832045770394211903 0.97720658811141891675 0.31311752239443702006 0.34034075303648447797 -0.40668905479657618818 -0.3406416266374278079 0.31677006374429017566;0.10395143686853225429 0.32588453172756121079 0.09101312443820459841 -0.014642917509595679976 0.023093234205415577587 0.34358432592983917386 0.67361525237944108735 0.46592891363646304903 0.30711822739176747321 0.15649113102611542092 -0.42661525631345176279 -0.3565655651246237845 -0.57432718448211039775 0.31568110505091651063 0.65310915998709584418 -0.53996628158083770366 -0.21233471692971747635 -0.33624257783253125309 -0.7660562924665565987 0.25252710720171206438 -1.1444003676930611935 0.79852372833990548084 -0.018992343452709600782 0.14523299087757171599;0.78339211560237143051 0.59781932286998107351 -0.047155147910998299055 0.40772074655557616341 -0.056304046116143473266 0.42543257473495160736 -0.025943377829539076423 0.37877290120547429941 -0.33656368758498023119 -0.45861875179840455585 -0.97475305421235391989 -0.095461281515524146202 0.10082637001193014981 0.64742538870286070463 0.081045286796097654181 0.82818389537937431299 0.057859984984303752809 0.356607339498760334 0.31253245572353660631 0.21680708049181732222 -0.47005096146699970605 -0.27176412016659823312 -0.34847139929392051405 0.20174505703586498306;-0.36613513739963954308 -0.61628199115693171883 0.049457873218180341268 0.17016653450034635586 0.10648390512985268785 0.060058575297522405478 0.13784163793756992744 -0.042819544699162763457 0.92049161525453571109 0.11031122844258307858 -0.099651336613066132664 -0.1401660448555711036 0.017279484603999948483 0.54085975721200962862 0.44714751509928613027 -0.89138388696210579809 0.36140309113190022261 -0.43269687584388455415 -1.0030913800960341575 -0.31087967963705204211 0.23827622766486403205 0.77750904384576080552 -0.7353602005332410263 -0.43752448933528975683;-0.30785173793898246153 -0.038138033805759551098 0.13223180236748749428 0.042932241379372862444 -0.04991810896351828869 -0.9124828055776040836 -0.15428158114758733221 -0.26804714142411201205 -0.37595092589364753621 -0.37608809999745052011 0.28885516646057118884 0.10232701526120402402 -0.18515464655590263554 -0.54899267797011397363 0.14187063768479588055 0.23039804700292498829 -0.12615970270554680011 0.52652583025764521096 0.26856765631941392769 -1.0845784451433404527 0.42590477525923164936 0.19999690606905926038 -0.75167861466691565653 -0.45627603853327675099;0.29206821990896930652 -0.97178247457110833452 -0.66544627926656207961 -0.2004605167166073898 -0.34507796298900561549 -0.31928418169457017939 0.46139049732356629541 -0.87538661068880208038 -0.60338087782362015421 0.13100610446881361115 0.63269933344222928362 -0.077097178274026956224 -0.37305173304307887028 1.461350993204549864 -0.49505106153236949629 0.39861822903659682726 0.58565678821087574502 0.70154238029447024694 -0.50720265048201551572 -0.057296369230200969169 0.49179029366580667704 -0.73493505447438667311 -1.1582869213652420282 -1.2704943263201335935;-0.12049913574809426042 0.11322763241519304134 -0.41263995452299639943 0.04229578974813429787 0.050052378369937630676 -0.075888058339707228916 -0.19529308738994652361 0.68723380290890423439 -0.23650301508942270234 -0.023947104559891817244 0.46125566144303908889 0.60094092885227823331 0.46273527298651961903 -0.53252833834344437403 0.50652201505349636612 -0.58000366250507895405 0.8633013772132661634 -0.35456136465248400125 -0.6198636142499522883 -0.46888829642632562367 -0.55228568546382916793 0.46765876429734476449 -0.6446497762217334726 1.3276300039103654527];

% Layer 2
b2 = [0.14144680653239508072;-0.45948236136402909047;-0.45608895716961384004;-0.91986130916726971396;-0.2443889773536210841;-0.75828322444484796971;0.078723954880983423865;-1.1152744518887915959;-0.96603680881931963675];
LW2_1 = [0.18453770618161613459 0.24018025274516963119 0.063601422748076202884 0.41561575101213632522 -0.17598541469133741066 0.21501111873444411771 -0.39367677315366311763 0.6656787112818662866 0.51021083161820890428 0.30163348327568656471 0.10133729752858455786 -0.54451138866295711871 0.31603616603162559828 0.028984069222560783496 -0.1188969220688621542 0.32995809014079391375 -0.81891160982514255018 -0.44305565537262026066 -0.31723055661594579124 0.034002359592228408036 -0.8855589594245233398 -0.11557681659836684107 0.17067403373682901724 0.061285243040389084102 1.1987029337274675012 -0.95039431880947666809 0.41175943367909195736 -0.45606344648392610486 -0.52198343269574443148 0.52958504995178234953;0.14467400039060623884 0.056266237684856786061 0.44707445296226583364 0.18839466353114309172 -0.72173664369372403371 -0.12194521373182541646 0.18767475703775876594 -0.1921079168121574976 -0.25819061291933403934 0.10851056314337001463 -0.40157110863074713114 -0.35847906518507072215 -1.048102360097705299 -0.77444255557940078205 -0.033529897054381120614 0.088965363228422716935 1.0388358708097753524 0.78198725180824601999 -0.59761896540985148807 -0.15350140530809222583 1.0757669458884673297 -0.46587225237243085063 -0.56263391523434547192 -0.41379861151801972108 -0.14768982621050785742 1.2361572328250496344 -0.38734017074051474427 1.1294287887193004138 0.63327748918935899969 -0.84581083808686963188;0.3857907247402070916 0.063268649870901083609 -0.089713151045721944987 -0.094917677008366910241 -0.92908856732175770787 0.70317712116956665458 -0.36913110040645141785 -0.12793544567915915433 0.18054598441907931949 0.7069423336187509177 0.15991488481204046979 0.62843117993440189561 -0.86277233488499527336 0.060867619145399377845 -0.46796152923216077779 -0.49372234366986778031 0.10173605548218635219 0.50786854210112464258 -0.35500798772465747 0.72676279701961732371 0.51044908891971840781 0.15185966738356737604 -0.10852431354790080531 -0.011097295185096899689 -1.145912398118632991 -0.33349947165743881738 0.071936161373567425459 0.70607033571710764441 0.35673895115360026997 -0.65366068323141301999;0.17565051862716624109 -0.073984194276414158575 -0.1517564115464177521 -0.15772825677715240911 0.20910987034839803589 -0.021527804732971136253 -0.16843180284603986863 -0.70123229434867151433 -0.016643291222489250275 -0.79938513131694588498 0.13152042390257373539 -0.02811724852423748075 -0.50550124872709145674 -0.20155822753234736711 -0.2008677543448152969 -0.60479659049582312758 0.94320809692164686577 1.4301723042392111562 -0.67087340724421018479 0.037804971609622275985 1.4038939960566576559 0.026490109635069557237 -0.28301476378025569591 0.74360896582454028003 -1.309475244284996398 0.20567161827343166669 0.050427649069076249666 1.1291493899273892243 0.81684277390536630392 -0.37465189422389894025;0.58403665350817901558 1.362857688047863558 0.59426358378756860557 -1.2164348275175000946 0.83036906916930997014 -0.31276938052630109954 -0.60942367838528410662 0.82326164202317908547 0.1003949544020240614 -0.41184058213322538577 0.94085639674274357258 -0.028812694715683269397 0.87021962409179387521 -1.0581225985831197445 0.17108469736106410308 -1.2359000502461692239 -0.32754676789285341876 0.57181432635293794053 0.26327395959590133012 0.1542059632243709677 -1.065213459922087047 0.47520499483475098224 0.09106408071628613321 -0.75818087168303538448 0.71511018759248212717 0.84756040430715495759 -0.31816924631198056916 0.094095158292589908822 -0.083265783103351809213 0.040369503961144928561;-2.0670823576324885984 -1.4270367420953511406 0.74955934797781142986 -0.091521973057990008149 -0.3375100083526446082 -0.87461287193302039711 1.7172167866994696439 -0.60826412275979602207 0.19070566960698592807 0.7675104679825547338 -0.52637772492157042237 0.66015199579177485933 1.2594242320138058222 -0.40438745036686901679 0.35859943446283831792 1.8231103514741469063 0.26569811834801565498 2.1084137675857284044 1.3170077379381828209 0.37931054250562845631 0.10717602911862272874 0.76109920975341915916 0.31833883292410886101 0.88762577708282885958 -0.043900393176252376637 0.62636288428858055699 -1.0959234088235529914 -0.64541685299523599006 -0.31203650738394705932 -1.3406031655862533647;-0.44590221244010219692 -0.66765047694910162335 0.082967781298114787192 0.87764466962023868213 0.15333771702001361414 -0.15601359076114956759 -0.13881642285063716669 -0.38343291806879281625 0.032626132996966802913 -0.41628541476269176336 -0.79342652152164994117 -0.04425995429800196751 -0.15262436325641576262 0.10294899532579034063 0.49015133832320351148 0.81057087819090489766 0.076646202736734073135 -0.47180614807762638607 0.098577650000687785936 -0.97908022791237114824 0.15576419509653521844 -0.59783842831563260845 -0.018958644848859597387 -0.40546580057474157499 0.84481095253314442139 -0.20037117009780530674 0.15582918840870821353 -0.18931219414659491984 -0.13006788206964578491 0.91227444646613709001;2.1453894011276446463 0.13812776978489818558 -1.2028876110978312663 0.53817384567033699216 -0.89725925793868877012 -0.97480784467581238495 0.12496722927721148899 -0.13511747762508283244 0.8782217996741173982 0.86837491152825285745 0.88504139718223018285 0.94273404541463978745 0.050684711350311689726 0.87711526413023899185 -1.3027964096657569382 -1.2234561365599423421 -0.75300510594199565606 0.5871349332991999681 -0.68387892100345459845 1.6214722154548097954 -0.12144322174594204822 0.20186169064364722914 0.28978317347315935004 1.2100216326993957772 -1.7251184083623920529 0.14210771580535236369 -0.050441241082261938089 0.14027795839083714857 0.21411058067502783397 -0.83895135095958794924;0.9254715562459574496 0.71151991064386532759 0.18963111892397027658 -1.2923302792419197882 -0.17229048390461659812 -0.62036647588736704151 -0.25299342754991199778 -0.56913682454240765995 0.92401393435081036198 0.47260253463178614197 -0.65744861262091447429 -0.3917120438243633096 -1.0293433110581846623 0.19956632016548558894 -0.37444195347260555984 -0.85474347277802331657 0.11463588395961554767 -0.52812409461852427572 -1.6195652935649653692 -0.35036254771779151707 2.2541007111208206659 -1.3047016041264174468 2.1834412107377438872 1.761208598835902972 -0.85687095654896949792 0.24896503207631481835 0.80326805093212849673 0.13122992385827322859 1.5285192683315302897 1.5581251444316730481];

% Output 1
y1_step1.ymin = -1;
y1_step1.gain = [1;1;1;1;1;1;1;1;1];
y1_step1.xoffset = [-1;-1;-1;-1;-1;-1;-1;-1;-1];

% ===== SIMULATION ========

% Format Input Arguments
isCellX = iscell(X);
if ~isCellX
  X = {X};
end

% Dimensions
TS = size(X,2); % timesteps
if ~isempty(X)
  Q = size(X{1},2); % samples/series
else
  Q = 0;
end

% Allocate Outputs
Y = cell(1,TS);

% Time loop
for ts=1:TS

    % Input 1
    Xp1 = mapminmax_apply(X{1,ts},x1_step1);
    
    % Layer 1
    a1 = tansig_apply(repmat(b1,1,Q) + IW1_1*Xp1);
    
    % Layer 2
    a2 = repmat(b2,1,Q) + LW2_1*a1;
    
    % Output 1
    Y{1,ts} = mapminmax_reverse(a2,y1_step1);
end

% Final Delay States
Xf = cell(1,0);
Af = cell(2,0);

% Format Output Arguments
if ~isCellX
  Y = cell2mat(Y);
end
end

% ===== MODULE FUNCTIONS ========

% Map Minimum and Maximum Input Processing Function
function y = mapminmax_apply(x,settings)
  y = bsxfun(@minus,x,settings.xoffset);
  y = bsxfun(@times,y,settings.gain);
  y = bsxfun(@plus,y,settings.ymin);
end

% Sigmoid Symmetric Transfer Function
function a = tansig_apply(n,~)
  a = 2 ./ (1 + exp(-2*n)) - 1;
end

% Map Minimum and Maximum Output Reverse-Processing Function
function x = mapminmax_reverse(y,settings)
  x = bsxfun(@minus,y,settings.ymin);
  x = bsxfun(@rdivide,x,settings.gain);
  x = bsxfun(@plus,x,settings.xoffset);
end
