function [Y,Xf,Af] = nnet_2019_10_01_17_44(X,~,~)
%NNET_2019_10_01_17_44 neural network simulation function.
%
% Auto-generated by MATLAB, 01-Oct-2019 17:44:55.
% 
% [Y] = nnet_2019_10_01_17_44(X,~,~) takes these arguments:
% 
%   X = 1xTS cell, 1 inputs over TS timesteps
%   Each X{1,ts} = 10xQ matrix, input #1 at timestep ts.
% 
% and returns:
%   Y = 1xTS cell of 1 outputs over TS timesteps.
%   Each Y{1,ts} = 3xQ matrix, output #1 at timestep ts.
% 
% where Q is number of samples (or series) and TS is the number of timesteps.

%#ok<*RPMT0>

% ===== NEURAL NETWORK CONSTANTS =====

% Input 1
x1_step1.xoffset = [-0.749720656203565;-0.891308949473909;-0.664105989705942;-0.617739618427872;-0.696796887959158;-0.593541514140334;-0.475816774691974;-0.437771949090291;-0.682102362765662;-1];
x1_step1.gain = [1.22299741919723;1.18669128331523;1.58384680219454;1.49188307716652;1.42051694502548;1.55559283715676;1.98857166841134;1.93600032324937;1.38915837625341;1];
x1_step1.ymin = -1;

% Layer 1
b1 = [-1.8565884238059289224;-1.734992079853687974;-1.8072497284397692763;-0.64231170240096613355;-1.905343976365635017;1.1085415974449543963;-2.3746694343724028542;-1.9775864737261659165;1.2576105029524937695;-1.4603786247294054945;-0.65877460413938204731;0.30860908725249308615;-0.92760758704015255915;1.2471638823909758642;1.1194393094087315976;2.5206372811358210839;0.4242678885669017852;1.0635791748831924242;2.1083087633037029818;0.6893112559439193987;-1.5988448710936411512;0.096125391781657076873;2.0095051889759227848;-0.4833503388653576649;-0.9805324003128139676;-0.91699370171721361622;-0.38957089928900762166;-1.0820558499518824203;1.4090862534255290672;-0.25829000282853986636;-0.57503342559420922431;1.9253533453712832202;-0.57330911126686334711;0.24045044595256859221;0.10120864527173491221;-0.96251189622178767724;-0.15026587966848128919;-1.2765395135838428775;0.80262918788747161791;-1.0265947743366283795;0.088736921837420837389;0.19047372801483938853;0.72173593440051375669;-0.42266180460462482449;0.087228494731798972284;1.4111663976824262434;-0.29499443009190706722;0.40738092351034999039;0.11287330528351514902;0.55514338731685486383;-0.11294877403240548286;0.66573897031507645039;-0.45096800531593483896;-0.15345976341271366783;0.59856573397821455362;-0.85979087326747172249;-0.22580882601644680641;0.76569685475931614782;0.059177858924987697398;-0.44009419446791586683;-0.54741705223069381248;-0.37874875765797599847;-0.59264982206650562713;-1.0892727231114900377;1.088974975638396403;1.5427518526022534484;-0.18332667658839207903;0.13320893666386637855;0.35748380489111886149;1.796475091776662536;-1.7675923606316306103;-0.90746743032888288472;0.12996282611804688134;0.48080595864717939891;1.4122506681239255233;1.8111258584229714685;-0.42461426704980154145;0.25170682465840771291;0.56303604365315995661;0.13597076953284564782;1.0308266920095199293;0.99407601424887936936;-0.87893214665937624552;1.9195578472518577406;-1.6688981273588849863;0.8702325503060507339;-1.2470963425755337006;0.95946736349515959752;-1.5831387743694551595;1.7855578324298593262;-1.1113133800960968145;-1.7473215367364682837;-1.5400999124628624859;-2.6080596587540623155;1.8640419857933798742;-0.57550806467380977161;1.1513784486076996671;2.6695075078046297534;2.0650471320363403827;-2.6484724248069939634];
IW1_1 = [0.81770892271037565191 0.29310384939295930362 -0.93383657440770173608 0.36137814242699628497 -1.1457237411632601454 -0.43583751609908288893 -0.27682301323537444881 0.80730956888188132314 -0.27530989091717539274 -104235795897063.14063;0.46577879051129789101 -0.8563463155449564379 0.94460579139091349621 0.78260714549094889669 -0.73256051871121197205 -1.2639452854221040479 0.64877251761410570374 0.90064712511922762062 -0.94277378185243154718 9644225230993.9726563;0.76934891496799062693 -0.69566449209914116292 -0.52528745305253432551 0.28076333314357404536 -1.1063998587349432867 -0.31288213166895639805 0.6584979021301071711 -0.10130082579499929962 0.90706184065474637634 -65909210339686.90625;0.95378268211632011297 -0.4754219490372523782 0.69530787289542639318 -0.69417291842328254781 0.58803994070296916608 -0.35417630690741613853 1.3921576875149710428 -1.7666145823924479519 0.5366437819836530343 -118768824100790.73438;0.48538391280227644042 0.23917386067639109792 -0.76371956650105210507 0.1299644668849944118 0.8118315562150287823 -0.77089017419386418606 0.17478135201591266101 1.5909161998374869995 -1.4362966552402758325 29574008834070.316406;-0.77459194024902233711 -0.6835751377130262485 -0.52291679727059270366 0.56715935643180714898 0.97410532013798278861 1.1224872970264374583 -0.73340093079226953421 0.8840451149374641826 -0.35932739500488936057 104290195418007;1.2640879276100918105 -1.12140301771571127 -0.55938843993673470489 0.30801115704004655704 1.2078380640071928465 0.68855601956069656389 1.294409643149768474 -0.94520975237393412005 -1.0267807021872874529 69313664600415.328125;0.20693458341292716995 -0.58207759968924654981 0.076472071198220664678 -1.0180335520424084184 0.80559169910836936346 0.67646186196723934181 1.2768866227925255163 0.42035881760296134324 0.12956983193651025466 -30968247985872.945313;-0.38411113135953783848 -0.91518129966301609013 -1.6279843817839625419 0.33778581653567063547 0.58020533776250104996 1.3574118614594690158 -0.38322836542028071438 -0.13513399209608861762 -1.1432255274553291269 117272981566432.85938;0.81093714941089567461 0.2387549970937763999 -1.1212283518343424404 1.4898690561139418254 -0.25185760596879774864 1.4740285963394172963 -1.8841539455361926425 -0.42445857607209214191 0.52746026664382739124 -3229560938847.1948242;1.0774325673868521136 -1.2630542198404792753 0.11522303062842695343 -0.31230747443147982567 0.60476891466169580003 -1.4888111260603027475 -1.2464717307763295562 -0.83486422731836984479 -0.41255247727283989034 184152643722144.09375;-0.21272892706551160824 0.085095935083644741459 -0.32790200732499402703 0.028764297957867064615 -1.0206925270364515246 1.4168492328051691675 1.0345393386517520717 -0.1485352117268896599 0.81709771839578937414 96458545903537.65625;0.71839618299156982051 0.51730177852740832911 -0.21691049605014492418 -2.0347258675142896323 -0.21648752647802635418 -0.94345227357702388105 1.6706964751040449535 -1.0687519918444896572 0.51128706645969068667 -72773841302548.5625;-1.15772655226543697 0.64580604826699739007 -0.97684295257924813605 1.282019213277361791 -0.7063275366219227136 -1.040545172212299363 -0.22558817271904438306 0.34502759815744499239 1.6704599285527748087 42041291927.35433197;-0.080625728969585266914 -1.1481171797827112169 0.61216195452184607451 1.2296147292208203794 -0.83554924683486353487 1.2101665993994450421 0.2265028707401472996 -0.14332293352136965536 0.86334442138202549533 96079125517455.421875;-0.9268344817746663189 -0.3149935758297446875 0.29548637237315611426 -0.71328067453192889324 1.1660214335445271416 -0.45401916498720851223 -0.38769700360311598608 -0.19491509831675452036 -1.9545572618990412206 -113597441041762.125;0.83477535922688417269 -2.9287321901947742653 -0.57072124531641132972 -0.93286612232887233809 -1.3593292247642621007 -2.0701083791237731013 0.49786456906193216065 0.52362870010691509037 1.2383848788354356873 63185532898307.429688;-0.51774737280330840328 -0.80437973826885733608 -1.476991989321911003 -1.4073584833094574531 -1.8990613960745630351 -1.1869361245658627269 -0.30683276941955761608 -0.62177348896975415116 0.62358634522976708059 21225246381221.503906;-0.74884220298628834112 -0.57905602325161531496 0.86118533521268314512 -0.44863754143445955247 0.7659507087611803211 -0.20889885225293661208 0.40443976412875232151 -1.6671466212427443754 -0.3598796708423563917 -156464941052160.46875;-1.2142182507951837511 2.9191031339163937552 1.8019604936340696266 1.5884379811009463612 -2.0942499871118371857 0.075835038207545751865 1.5212995445134827044 -0.72627735918905877988 -0.78315019565101251509 -37898355845113.929688;0.53657172252607254759 1.2899840991186457551 0.92844808321860461398 1.1400776065375082258 0.52892992736771138329 0.17520933709194644323 0.83186740038733775204 -1.4573918360327640098 -0.4907284061961568189 94903701730624.625;-0.28250767772025003888 -1.2060007421402074712 1.2044414346513478975 -0.16789527227075878857 1.1452530619587690808 -2.0878512986637116633 0.57123823806031859274 -0.24818362215161457462 0.52875862041044896511 124543503262879.65625;-0.93043610612001947935 -0.076955296913089055177 -1.0631016452577592979 -0.63046557276083325938 0.070730889739473917777 1.178139963016998859 0.32139711763477790685 0.82296076648028126943 1.6748160384847541327 -89337189472450.53125;0.73338851502793811488 -1.1483846059061517675 -0.94261084134351647013 -1.6172490740895011374 0.25660863018070756425 0.64932680038304435577 0.12502210495931126433 0.39979954964810432427 1.0276144270276437176 -67052704911847.039063;0.45219628197779621059 0.63446295235371152899 0.42490855812859307239 2.556639725596469237 0.71424689959635545566 1.1421421880485400635 -0.29128687280975906759 -0.68430297224787062227 0.66234029541085015502 42254778360515.710938;0.90668012747540160934 1.8379873411982607934 -0.35412520306237088574 -1.9488983725193023133 1.1207765630654107358 -1.308281838531336394 -0.70402547945553051179 -0.97503884117562344969 -1.6079802355390595547 -96507063684424.1875;4.5123879948654392891 0.050904337209411829046 -0.42443308700985848958 -0.023505706783037535329 1.4770812033042397537 0.30290705670930379023 -3.220765946536439106 2.4349457140037911174 -1.725377063489060836 40038572172570.46875;0.74437983430749832259 -2.2487809542512602334 1.3686631075311270767 -3.1297377321108692527 0.24076484662093261546 1.4937431138021406429 -2.084746105618933143 2.2790498139047934423 -1.8025736506830645212 38557407541355.890625;-2.3878450286428525295 -1.854190991142550482 1.0850874392830365256 -1.60040773489633259 0.50629486290017133854 0.65743322739298182267 0.50859442835893797774 1.842821746310821629 -0.85604629586430625032 -135477525142184.70313;-0.305286256663924227 -0.033554300370024547906 1.9930809029402292154 -0.63681454648247570738 0.44175623685444637134 -2.0144705742329174214 0.39726401122746812788 -0.22200699511083063498 -1.1163751564673751737 -100636519666267.84375;-2.8146133763505969405 1.6364110335374850713 2.1227025998672930385 -1.4140381247440758639 0.99071970849751445076 0.035833116699392660032 1.7918035696392859979 -0.29481394081743911295 -0.25703576724945526033 109277770753795.25;-1.0390018493094856922 1.1743757313469684878 -1.959269645266194626 -0.4667721323984346804 -1.2433234136558639626 1.56370349119116403 2.1777500798930504722 -0.14232548469062089591 1.1148153844554788972 -82052183948394.453125;-0.2086642939876980074 -2.9684822172168918719 -1.4664534988318009834 -2.4595209051931967714 1.0554063490796046221 0.46443872740271946453 0.67521334420362344453 3.1992567040867441186 -0.23185461105726248854 99845142036209.75;-0.67411933988268735174 -1.256277224847314633 -1.2862294359234938135 0.86920446612321944357 -1.7045613170332807318 -0.066888861915192124319 -0.94540382212487661384 0.17599765038204179257 0.93818540843147091302 47330713912701.859375;1.5967628850086466041 0.10163843401826039292 -0.92743953460271877365 -0.11207117099304451935 0.96288938474743490659 0.2931552951201331636 0.28197163618102910609 0.56260027175734039773 1.2437768818521000025 -65508971089849.296875;-1.5594997254585636348 3.1884551328772676726 2.3643862980114866978 -1.8855883558401793643 0.084887914974570932714 -1.2549215174836370057 1.6052779778762680252 -0.40249398737366709478 -0.73922313944104767192 127134415291687.57813;-1.0809981640591137531 2.6922552058962523347 -0.91396122425833303815 -0.24609432860354649164 -0.99071477529194340583 -1.2067841525717977191 -0.18790518244757747901 -2.2148671507187915886 -1.7639258886096453871 -38996887624618.726563;1.5493696941537431488 -1.275166412519607384 0.1584301941834168892 -0.34996841002702316903 0.05840915074480577257 -1.1822101989823519119 1.1345829125998792009 0.23436362321511775009 0.11030349350908887074 82226366819665.796875;0.9088022386664890151 1.3734274913291819598 -0.039902138678461034071 0.73480194549531430148 -0.2151627483924214157 1.7746355715825192778 0.68705273357311436033 -0.25146292495127614552 -0.083292955861456366429 -51474714239850.890625;-0.30987680875809736625 1.9577684268601425188 -0.62801197195277924656 1.178442937711844829 0.28399096330776502084 1.0238335809340122218 -0.40897141627467942238 -0.71655663761157062375 -0.3992651540350632966 165752979217264.25;0.84664910224547196282 -0.26900290421499534199 2.3247326956657903274 -0.85857036260535046779 2.0073035574903319578 -1.2564393410825771547 -2.5328976420613402709 -0.70930763372950100809 -1.5560218332935693564 -68059725233357.953125;1.0072491142156871913 -0.24588619606991402033 1.6057766805855437919 1.5338145595405781041 -0.93651746962948390074 -0.31330467611939766259 -0.313172681544368392 1.2047057663741809197 0.47195969508120644287 -4038772936978.7685547;2.9040346033040940199 0.8835070104576165928 -1.6614170856048855462 0.42617665093511936103 -1.5928853379534999579 -1.011287511262746408 0.55502349953565988105 1.1957402658053373212 2.0645812741849001171 -92085928157915.71875;2.970623175430135543 -0.15581543051267449096 3.831543565482101954 2.1006105765707969724 1.4089034599445906526 -0.058104641707937595974 -1.9909966854711595996 -1.2070046675666483704 -1.3435672183506932598 -6033169095286.7011719;0.89959246482201327133 -0.0094177242943427851019 -0.68771014150185982849 1.3881489271306339806 -1.0395665075032594071 0.084383079238087729812 -1.5538358679176038635 2.5166452985984135715 0.24083784277174649646 -128899138728629.01563;0.42718795811597920498 -0.34422475680422831568 2.1578921922484730622 -0.93546297215920914958 0.10302744200011802744 -1.0335523499075016662 2.0439693865969168485 0.86145426073708541992 1.6794965734065505636 -102206405420528.45313;1.0700008756130587884 2.1640637981634056608 -0.20254425127816741425 1.9191117719307566603 -0.73476445144890067951 0.79290175900467241288 -0.99732669569849374813 1.8937591876980113259 -0.20895977482477121057 50538808943867.140625;0.59853592841150338177 -2.6164871426344058492 1.0549770606716726284 -1.2030218633653055882 0.64986888923539942731 -1.6014195807824991302 -1.0882198850003577117 0.98174605571284556671 1.9844345404686043466 -55252979111076.78125;-1.0724070534763683327 0.62318002805280714451 0.026275191804905367876 -0.46693161439820207725 0.0021903243633362434739 0.74014231382978601381 -0.26872203038586922608 0.8414093181818017575 -1.8487866762614628691 -83747412672623.015625;-2.419297901462016398 1.6421944264750485409 0.21397887032444243283 1.9697807877046682457 -0.74430759107476274217 -0.99962344538482061918 1.7247439384724481126 -0.19644417170894215574 1.7482499541558063072 -10577603060063.958984;0.5211536541006840384 2.0135388319127507373 1.8408869907586291603 -0.13827267238023072116 1.5254831626576264014 -0.9544934954982150499 -0.13031011284087132274 0.4197150256675739044 1.0969026419815433027 66163378432882.429688;0.86974223419198481988 -0.49371654301698142397 -1.3322745017017743052 0.063342894597645027499 1.4305552633086511261 -1.7261989826661823244 0.44258564171450359703 0.49203922999159960261 -0.11143375085344454922 -16853296714479.755859;-2.514004728993383786 1.50813860825484225 -2.1725447421283541338 0.076732673345405649767 0.47511006291734764195 -1.8122847397267392022 -3.4214830943474749958 -0.71658270538126500604 0.57900497928294758498 6711479987934.8779297;1.3804511407384747468 -2.7219086939261161184 -1.0654992706012420545 -1.7800836036353746561 -1.4730930452847050827 0.36258991277537394593 -1.0027428404453178068 0.83128445440314757686 1.1321186131975322642 52848708324327.101563;1.1404852707047501426 2.4244167842739599017 0.20617718826074771243 0.13179256886095250256 1.1825626613155377775 1.7241921495655117003 0.047462626362699218696 0.37695270471656638911 -0.51915555120622602914 -98373601512619.421875;-0.77076392251442360504 3.2588637273754477164 -1.393289015810499798 2.9156049374448391731 2.1264539285082966202 2.4795633568738759678 0.31185232395090789481 -0.20223390714573441507 -0.92058346329664164642 90932165557297.671875;0.42687601787315537782 -1.2785687976029767032 -0.13928203931207844279 0.24079809570123009155 -0.2552026602277906453 -0.74975738985032525097 -0.85647793006783090597 0.39271259214932174864 -1.5914587422695813945 -38650450528397.609375;0.30200624467044651089 -0.90872603305036858679 0.64722384569012991751 0.3947584907383530628 -0.9850796482418704425 -2.0660422490200871515 -1.0991865040307573498 -0.64143092361504994159 1.7529489280161916209 -28017871502662.34375;1.4830947108253467182 -0.60610445276021795991 -2.7836935082465514846 -0.18441989606217981668 -1.4497708179625881098 1.3438975320030783767 -0.89068407352343625938 -1.2171330880409556574 1.6948048889726532451 60878334823855.8125;-0.37741990169602085414 -0.14366381660790350505 0.59267407257472615179 0.50515707431619805146 -0.35304260861178188291 0.42577596546189738769 1.8959480506701673619 0.68715348167245582367 -0.4022486965922257296 96952870268110.421875;0.52507558917121277542 -1.7649408395060413035 1.5771739638478021739 -1.1439549949065206391 1.3023876826315463617 -0.96155482037134187845 -0.090959114456477363486 0.11725401769155975595 1.0529335898306617647 130820563594763.82813;1.2341559774126655835 -0.87210776642670395642 -0.47822481830126245539 -1.8545050359470203194 1.5556065140821766501 1.7061801918927450572 -1.066708858925208725 0.5582443629573532462 -1.2147989837717381167 108395512457984.79688;-2.2668567520451561315 -1.3430591433298499915 0.9085762611182289783 -0.14115298646086366086 -1.6066530045377236391 1.3355934343177480184 -0.57469360645676792476 0.51819108632630594968 -0.93691638117025732857 -104019074936032.10938;0.099628275465711971237 -0.59767280450528215141 1.6351619304290325729 -2.4240179119953051412 1.831052881172201996 0.83062043558585529901 0.89799036439734969406 2.0611016612225738776 0.72827971286159387532 124478613097895.17188;5.682427345464671653 0.46351162109632937369 2.4889347845400422443 -0.25316601938753940937 0.25147477972941362223 -0.25993015412509695716 -1.2906638200254156867 2.0432060988764395582 -1.3438035231148626192 4808360057950.3574219;0.6191658230120261619 -0.89668773456984263159 -1.041465448688952522 2.2238461903670696529 -1.2325076948858517678 0.69386730122317374914 1.8066298030535763441 0.18919203222336153369 1.6260979877436672059 -102095019363454.73438;1.3568079493382405598 -0.38145773822281375809 -0.44878445455533055863 -1.9075251128630315023 -0.79597222519641130933 -0.37664057661862471171 1.3980244996453374817 -0.84638109257034188637 -0.25623504180755779513 117393046714673.40625;2.4232111901138084775 1.3559076264689733371 0.26508259632219832724 1.5813355890672637916 -1.5486513391532366057 0.38193550872667275664 -0.24999739592257186338 1.3026320952089358585 0.44023063295169484466 97090908392264.515625;0.94634291998293207371 -0.83703268800791397197 -2.3113409045641115647 -0.37698890211707192233 0.53308308758897327007 0.87198404735840517876 -0.99230245219519808142 0.57286762387174872124 1.141734097151935412 -104668124293911.89063;0.95369288410378150189 -0.76590634682025959812 -0.25295236330262815816 -0.55905377247468324153 1.3162220049601756067 0.3152613327750973804 0.88114603093162069403 0.84718228524156136139 -0.11552798334078964726 -79696700967151.34375;-4.0550678176643035755 1.6201819503387215882 0.74852509878835649104 -0.16510347907101977083 0.43640669796952119563 -2.8596620786039474993 -1.3561685033118791033 -2.3952445278631802061 -0.02265755738302754202 6620633110167.0283203;-0.37698630208639510863 -1.9881716423090853851 0.47998574023501272556 1.1982321051188682404 0.28140345652931580966 -1.2051446231493794237 -0.10627237759977849196 0.070354489899422431587 0.97976685277160469045 100877017635998.92188;0.65687621747314084431 0.14911453232372340327 -1.105238711210345004 0.79272474214971100359 1.4358468588168182833 -1.1932687148515250808 1.6742377818784983656 -1.3315341745454587485 0.096137738647992632135 -98413043407597.75;0.10030518149037473408 -1.7981530819305975299 -0.44929189606873043417 -0.0028227250851862954045 0.62118389422269526534 -1.1159242716153290331 -1.8048806782233544066 -0.41200678397537110476 -1.8813131311957687064 111321565466190.48438;3.4925252055406272866 2.4463317999036617856 2.4571758474082168178 1.3899157607836707395 2.6474288607802760609 0.57781393333025732328 0.92537992047755690539 -0.35824847450021612971 -0.0070301601666444557548 -90515503739979.109375;0.82818339470343438347 0.62485785715702968357 -0.87466282580093046573 0.8997309549563361486 -0.45235214207819662846 -0.78059814942676220006 -1.0098666164051492977 0.096821658718094963381 1.3233406610491411648 -60563990252430.984375;-1.1696144411865769808 0.15670801194762157271 0.24850289491132057651 -1.6021707575686812142 -0.45135338997331936328 -1.0579659600664923502 2.5334742368532623402 -0.24611770069667052163 0.47366693016758182333 -60826535970437.484375;-0.058934830175782278172 -1.3833920133080459536 1.830211999777900056 -1.5818527927318870585 -0.43979462247458050994 -1.156457379899089366 1.0594861711394840675 -0.38106108313947928412 -1.501042041000253624 42622093832178.757813;0.57967219804413372408 -1.8860100528969390155 -0.94086476077494018977 -1.5042450844190986547 -0.96031372744130449881 -0.98268242878372513704 -0.28261463622967308851 0.27367571211368874051 0.64574185850676768528 105024614553594.5;-0.31159093469715581914 0.17028043108678478368 -1.1744817275996275452 -1.6027660451749632387 -2.7209482702354645944 0.67803427457033316195 -2.2348959319906009924 2.0926113057335551382 -0.21302735151670212921 -152530629602290.875;0.64964392538833570789 1.3031522513068982683 -0.67678325424977114899 0.22252374913326655737 -1.4318725655622299708 -2.0458485344606782697 0.92926327912440054302 -1.4976610398953942305 0.55551374617704019077 -19413828756340.050781;-0.073434808509888011008 -1.2958719781015290984 2.0060342402148063634 1.6544948018167242587 -0.084637625622675488613 0.53274319000098990795 -1.290114459212714948 0.39079756530923775992 -0.6718160337416290151 -5009045458793.6835938;-3.1039972588984987567 1.0488486526133182775 2.1735783657086309439 2.2508953342076769566 -0.43331022993751916461 -1.4316871426437618453 1.412987907523512332 -2.0463963350357894377 0.5096987756125558322 -47506664949991.6875;-0.20808306128725539974 -0.1618277251995005328 1.3264687232105958348 0.011006559537540368948 -0.77741338077595389944 1.5325355466148469219 -0.68005904701711206162 -1.0202975705311150278 1.1652284585520795712 -20947217738906.441406;-0.58042850684011060292 -0.72598993240863773924 0.84004859714685831129 0.041628028881176608322 -0.32544251017633585299 -1.2768011967135828311 -1.225437830199194833 1.3005406179748075779 -0.53198254219951834898 -137359205328036.54688;1.1128076196884026938 2.8412785474300892297 -1.9154372630945792899 0.48300822161473777605 1.4383347787830487174 2.1656764322059238737 1.2123275009692051629 0.47219528915729069851 0.21606529751034198039 38059668811074.515625;-3.9782712648263314215 -2.3062974408824228334 0.79325733814508236907 -0.44127129066398740331 1.5517598101940088817 -0.62822483089124681044 -1.1618771681245685379 -1.7123724594520075559 -1.6918784072775137073 1219127298066.496582;-0.067761016116513195229 0.51697033135824521644 -0.025931202532787710202 0.11894275311093049918 0.59151890105681625975 1.2771598259835847955 1.1990093917245872035 0.29813382933031118416 -0.79417448454647898703 145898714648852.5;-1.0558526961711907077 1.0656520511831770737 0.010370126105771620972 -1.5542171007572400665 0.0074830695495408210138 -0.32939782450709775841 0.279451162244577056 0.97346404591243052007 1.0072386920355320683 41734475535371.367188;0.99793377427617446784 0.0066696632907316897448 -0.63203981132112041497 -0.17067880514839464667 -0.98637687313578825687 0.040058174534837509562 -0.57750003772437030758 0.34735112417928731832 -0.73997313599280500895 -139030148969993.32813;-0.42440593221247718825 0.5772326255227856473 -1.7391045076314781692 -1.7305473043946599798 0.20220095024904674585 0.37610622295802537129 1.4842603682091486395 -0.85529988793042488471 -0.07145489619971753803 -30672725810446.425781;-1.4323256482422170865 -0.16672563347003194201 0.31955229219484077019 -0.13588141972319009443 0.62510027456841965598 0.67333365670701816885 -0.13196171921760579959 -0.67694173758054565493 -1.0580433265491089312 -53239349979253.585938;-0.74496701778581742026 -0.20424066081004316198 1.8391245362177288669 -0.71654433400643524621 0.68583014463697744567 2.3735298787815497512 0.0056178571679629928787 -1.0179309983833493281 -1.2869188411668166516 91419553395205.984375;-0.68375933029630397986 1.0836675828633812735 0.82206063860249933839 0.3542178410074319217 0.96086017612595830961 -0.19324962004329845899 0.80516733779152938055 0.029400389607310083162 -0.57058545718060693641 94552544192443.84375;0.31525198128997433678 0.47856515625005985326 -1.3789348772384284469 -0.40832674730900420101 -0.6071726840220166288 0.033214700755090420525 0.78160668908098240859 -0.35185750594738524066 0.25696880114621611924 66919152225297.21875;-1.1810237053382519612 0.25778229627252613465 -0.66295572466174046422 -1.1061468977093156241 0.41064030377025839691 1.8682385618202237421 -0.96977103945671538909 0.99411906235740732374 -0.61366279624543818016 -129278050923552;0.27478938158566729166 -1.8580425673124985053 -1.0207601901984573178 0.53627250328664166634 1.4858929597270684742 0.50886854957588201209 0.74264741605067219332 -2.1964968795783410549 -1.2723717771417726308 47944077670590.703125;-0.25683549120012671985 0.47180327508584130047 0.688501912169373953 -0.87366012122937430906 0.85787944785605751985 0.70436947988681586352 -0.88311451456376943714 -1.3629838873081974171 -0.51732561493050810419 -65432683519065.007813;1.1669088568720313859 0.85404190458318951507 -0.050869064185475910966 1.3489954011315496984 1.2698814668794740079 -0.06078177044774928095 0.32038480475281611026 -0.45176524742553980651 0.74369228127520203842 -35966878422577.96875;0.55923793328954995996 -0.078841023983955704768 -0.77014962437940426287 -0.83154431080542268173 -0.12627116121464451726 1.6962060562659007079 -0.86666419508043579523 -0.59831296881182594039 0.43215973674538388227 86848564513326.59375];

% Layer 2
b2 = [-0.53598442771961518627;0.21588788968013389313;0.72986285959157726211];
LW2_1 = [0.80805449994192501961 -0.52948029342133817732 -0.20710871761946172964 0.62101164153619770047 -0.018343457447118519804 0.91347121762335004025 0.8848812467762997569 1.0219827688126128518 0.35225948245310317875 -0.54925789997945395626 -1.2529094460571308378 -0.85262321785854910949 -1.2515040320388282069 -0.65922933012424256294 0.26509076088888433587 -0.50878624845433884083 0.94918449635450330426 0.1877137311723053037 0.24655466122459590572 -0.17028683041303543932 0.91509394833550961046 -0.32439908639977055316 -0.17749454095359365469 -0.35891891998019276322 1.1631202266052143024 2.131178112027454663 1.3492312291242680722 -0.42372849825898123433 0.80998210348530086389 -0.24797789209154627588 1.043418237207548227 1.6404909019599267506 -0.86413734776883588395 1.0104875355389031366 0.96363752621917764252 -0.58481041871081718142 -1.1866641884354569569 -0.74761534519532069076 -1.1642432654483865218 1.1230988950983640251 -1.6162379233535386636 -1.0820818914651575415 -1.5333304025585781094 0.42796275520147702975 0.59305605154383789213 0.92490848335531705704 -1.1750912621079758758 -0.27569103129084554515 1.0660536816246750647 -0.72004377924629547891 1.3196214315005792006 -1.1984265998790877283 0.18501100125974814792 -0.88236138119765716858 1.3381816000918922427 -0.78519025013949728109 0.62830068691608320641 0.79117051500117629992 0.51291983389279771632 0.30357178729407258144 0.10076776585990925017 0.47953585279510407835 0.20834173148444065649 -1.4652471133614621834 -0.82388798132432461419 -1.8015133933360123475 1.838706345396394104 0.89671891869443032252 -1.1469424920649646804 1.704819135474301639 -0.99218577830655885208 2.4811847066086194502 1.3863033107423106127 -0.57414039828364349383 -0.19338964199043623404 0.86037050324621699993 -0.44126809639146447051 -0.52422683310459028405 0.35539630698111901452 0.99520725056677517006 0.30930640497960282254 0.46573871196719929255 0.71547806317645612495 0.48820354364045387419 0.7179154868669098688 -0.79952278207326965553 -0.84136896955567741507 -0.14487116434104879703 0.61043492295210821652 0.016850923656484446955 -0.93359995005900997533 0.96659548358412072933 -1.0601762635657974165 -0.88673197085886568125 0.2103146751378352497 -0.78211385428945423559 -0.28690458145735686646 -0.17312615958785590453 -0.84428171823395792295 -0.54855589165143314734;-0.12763110151291948147 1.3057777943386490449 -0.39620618239855226461 -1.3254543522074588857 -1.4491434829713552013 0.61345764741087371874 1.2393669973730445655 0.015715800113386815817 -0.49310230201896393387 -0.91346413837463680263 -0.80825350474678936408 -2.3998593909953904735 -0.83825482670891682258 -0.89452843796089742678 -1.0361887597302870123 1.070318596506693698 1.7177011391557439612 2.0741984261779191634 -2.0424099403319924129 -1.0340079413792560015 0.03452452671516614835 -1.7958028361180109478 2.1402885813712284602 0.83692021943213645852 0.68413001744625900891 -0.173971462899616236 1.2360143229377125174 -0.41485754530325924527 1.689393786403511788 2.2412702571937557217 1.0940968936391139987 0.2129909746870263243 -1.1949607520006841899 -1.0554299747850963698 -0.52034445447357335901 -0.32363562284094554711 1.0426230083166605489 -0.53026932895971656823 0.22960904753890704066 2.164362962972819826 -0.96505873439438105699 -1.3504896785841347118 -1.2756941801466590292 0.58140030369818873623 0.93685288320181325794 1.5981764436523890893 0.52053599108932191442 -0.251760540021658763 -0.71588364143003080375 -0.83547974830556637205 -0.13709444050173466567 -0.097310031391499712816 0.13907435991628877558 0.57053720254685580393 0.92978867899035966271 0.61502296720434346256 0.72069692282379149706 1.1019991985455250827 1.4938566115725422367 1.1866880192200865984 2.7346228534812024868 -0.55396881571764555741 -1.5841198058465595366 -0.82725236005579705356 -0.76751898217365421839 0.82634556988860108362 0.10880629952394380022 -0.76910729827917534429 -1.6671282346515423622 0.57380134957759054704 -0.80934699984115776594 0.076613271313581116084 -0.072951441656965945737 -0.49046864896933806133 -0.87891792047889938377 -1.1227179310640615917 -0.17125379005787183528 -0.91757814262431625085 -2.2884949201595334856 1.114999925771117395 -0.030850866226411248483 0.86044053428207978307 -0.37581261079918482082 0.49038525543129574125 -1.319344970029602937 -0.67333949361084710628 -1.0926205477229988805 -0.74934527472900669398 0.24978677927390274816 0.04927288701718050834 1.2439212277942841567 0.48666192092947413439 -0.76472729233098679646 1.3944959167020689605 -0.25306443847717624562 -1.6538163994863199768 0.72059946809054531425 0.40607828824200820073 -0.79560093235233075859 0.79248317919129440678;-0.098443519987884670064 0.36707107047054793325 0.023203605486071463004 -0.30078666421767780159 -0.71353800169706971257 -0.58061041973087512691 0.75504438071100654639 0.042527776954932872133 1.4686590620389792239 -0.46023196943751076837 -2.0064647150071128756 1.9264177136902636001 -0.10481719596303892827 -1.6542831235709742899 0.8116043806718670206 -0.86926610569101903092 0.33948228421543991118 0.19671559189236229037 0.39296201480701997699 1.1608596515176718977 -0.97233177185322261504 -0.064258076146384845995 -0.60990723427724469197 0.81104947185418718725 2.0179979483632024539 0.58334330890351859811 -0.24504525611934924179 -1.5650265204200897173 -0.14408428264951309017 1.3406166204138250109 1.2333207190972281797 -1.020261675233608889 0.92047846977556457837 0.068664191803126717328 -1.7651494503709566075 -1.118645430182555911 1.3941052151561510453 -1.4977796975506521004 1.674394810485182461 1.3033931604665300874 0.81274320751511264227 -1.0715961023890825388 -0.33508328788709129675 1.4384444796789375154 -0.28261588433293727274 -0.079520134904409386922 2.0096565813946254409 1.6973085566855374839 0.20233210778109475547 -2.3527665859178985563 0.24010484566495834957 1.0227722017457343551 0.6602686441962027919 1.3257924297987286888 -0.98240671979234106548 1.0781900694226538295 0.64385664357680472136 -1.185685173074007448 0.64837942422289118749 0.099363936885453307823 1.6819370497358905325 -1.4141845374350425768 -0.63584902820974487092 1.0480825784636793596 -0.43680856683561952725 0.985881429790267938 -0.53835570697053425349 -1.4555617531714182267 0.54940418673406743455 0.90826963835649510148 -0.90089224575506898773 -0.51629119866976391773 -1.2198838636953406311 0.73445974360619814547 -0.80738097929699481625 -0.94833966463525765089 1.0516014105799951217 0.26432230876299467326 1.1044092607092104164 -0.41099855241126759253 1.6392680110500799096 -0.65075958050050297654 0.52421655708866499168 -1.2642195513319096634 -0.49403421459284313499 0.32866445987905301696 -0.85078458964595216063 -1.3739074563991784395 0.43203192327290995678 1.03667932624460013 -0.1523557844917057813 0.54228704387616522009 -1.1468429518516054522 0.38651801418431258606 -0.80680732012969069711 -0.58555571546402207517 -1.0102880309086939015 1.0075357362645431802 -0.82105434403468291471 -0.6298696555609663017];

% Output 1
y1_step1.ymin = -1;
y1_step1.gain = [1;1;1];
y1_step1.xoffset = [-1;-1;-1];

% ===== SIMULATION ========

% Format Input Arguments
isCellX = iscell(X);
if ~isCellX
  X = {X};
end

% Dimensions
TS = size(X,2); % timesteps
if ~isempty(X)
  Q = size(X{1},2); % samples/series
else
  Q = 0;
end

% Allocate Outputs
Y = cell(1,TS);

% Time loop
for ts=1:TS

    % Input 1
    Xp1 = mapminmax_apply(X{1,ts},x1_step1);
    
    % Layer 1
    a1 = tansig_apply(repmat(b1,1,Q) + IW1_1*Xp1);
    
    % Layer 2
    a2 = repmat(b2,1,Q) + LW2_1*a1;
    
    % Output 1
    Y{1,ts} = mapminmax_reverse(a2,y1_step1);
end

% Final Delay States
Xf = cell(1,0);
Af = cell(2,0);

% Format Output Arguments
if ~isCellX
  Y = cell2mat(Y);
end
end

% ===== MODULE FUNCTIONS ========

% Map Minimum and Maximum Input Processing Function
function y = mapminmax_apply(x,settings)
  y = bsxfun(@minus,x,settings.xoffset);
  y = bsxfun(@times,y,settings.gain);
  y = bsxfun(@plus,y,settings.ymin);
end

% Sigmoid Symmetric Transfer Function
function a = tansig_apply(n,~)
  a = 2 ./ (1 + exp(-2*n)) - 1;
end

% Map Minimum and Maximum Output Reverse-Processing Function
function x = mapminmax_reverse(y,settings)
  x = bsxfun(@minus,y,settings.ymin);
  x = bsxfun(@rdivide,x,settings.gain);
  x = bsxfun(@plus,x,settings.xoffset);
end
