function [Y,Xf,Af] = nnet_2020_04_05_12_06(X,~,~)
%NNET_2020_04_05_12_06 neural network simulation function.
%
% Auto-generated by MATLAB, 05-Apr-2020 12:06:49.
% 
% [Y] = nnet_2020_04_05_12_06(X,~,~) takes these arguments:
% 
%   X = 1xTS cell, 1 inputs over TS timesteps
%   Each X{1,ts} = 24xQ matrix, input #1 at timestep ts.
% 
% and returns:
%   Y = 1xTS cell of 1 outputs over TS timesteps.
%   Each Y{1,ts} = 9xQ matrix, output #1 at timestep ts.
% 
% where Q is number of samples (or series) and TS is the number of timesteps.

%#ok<*RPMT0>

% ===== NEURAL NETWORK CONSTANTS =====

% Input 1
x1_step1.xoffset = [-8.13004608624925;-3.41376552800965;-3.19920943591819;-1;-1;-1;-1;-1;-1;-1;-1;-1;-1;-1;-1;-1;-0.999999999999999;-1;-1;-1;-1;-1;-1;-1];
x1_step1.gain = [0.142779722494509;0.231581553013825;0.323753365058354;1;1;1;1;1;1;1;1;1;1;1;1;1;1;1;1;1;1;1;1;1];
x1_step1.ymin = -1;

% Layer 1
b1 = [1.4437964903783189197;-1.0849581667444978539;-0.84973489181003825088;1.4348555701599601253;-1.6048748507621621862;1.202039544146372485;-1.3452820996235725914;-1.2535747445642890785;-0.96134444909561034276;-0.7494557233368797089;-0.99565264378033679904;0.29568702024840343157;0.38379168559689119666;0.4948207712961688598;0.0095585724070087162152;0.3917678343714531275;-1.1748130723872098891;-0.40739602968003879591;-1.3912156262929877837;0.38783518669758793029;-0.95843801569102426985;0.84047602045534175463;1.1555653348200607411;-1.6554106122949643343;0.5453331257381588415;0.68486952139825707508;1.6192782974733392898;1.339768337657648134;1.1073047196656964353;-1.142108675076847879];
IW1_1 = [0.18763291984153804282 0.24591388742135017464 0.29965645763803139268 0.58155536979446653678 0.24389175357472411831 0.31424800995647061974 -0.21185423309966283645 -0.20207702912626596126 -0.43639254622563850017 0.46856318169084737457 0.00050391295028825522709 -0.21764881522001303105 0.97848006759201566762 0.82840517468978869253 0.38598931077178566529 -0.061278124691308839822 0.52581387919580080403 0.38607775929006543647 -0.089502406413133839269 -0.43791128413117641482 -0.16589138928786825722 -1.1675322449905434219 0.14051815637959980121 0.325720355187495203;0.42279071783753674474 -0.75784457436285945775 0.093259078403078815578 0.14201230513524765176 -0.40381676191955656607 0.58731897111053910088 0.67148552369870040391 -0.34591593696539513214 0.56811456423547113115 -0.2986153996639681063 -0.67211068770846449372 0.11075613931237765497 -0.11771186606960223897 1.1992806481353426307 -0.18867967969114146642 -0.14022279896889666695 -0.43533023004193444061 -0.25942792264007519254 -0.17922092470321759894 -0.1129683280587990557 0.37775832344752491299 -0.2816349738719318152 -0.75048322405952483383 -0.5961548170638271138;0.73843116102913841647 -0.27427659772727586152 0.18628440888746281012 0.19427500557459048691 0.11403490630597173938 0.60108681776901462523 0.097113780959831086381 0.36155727161910661271 -0.13545709561523899822 0.49974269940467819229 0.083920373033003134444 -0.45343500781408202505 0.068790289803213958142 0.32528585539887228117 -0.039343832131135611507 -1.3301204575893048609 -0.2558971680141710614 0.24902913514902025316 -0.90001663068540493917 -0.68383519746113397009 0.19962909443648646501 0.99140498241642360799 -0.73318568740397649375 0.42239585498205262093;-0.5704862171332953924 -0.0043777166236631092494 -0.1509069242756962137 0.43120606817055368021 -0.06595104583810922072 0.85630333161392302443 -0.34513750223319022981 0.74311045850963375337 -0.23388028001238519993 -0.40786703699768617204 0.25368692958116606517 0.20639810200520147809 -0.54030234076115246644 0.64315517088939389012 0.9894901880823617768 -0.43598822148467192283 0.20681693342468412955 0.82781316831722440153 0.4587209410634282003 -0.9249180898348969837 0.2864792623748133038 0.90648580868858830151 -0.31113531981901887402 -1.0871548248369364842;-0.63208024500167692139 -0.48789377621092022697 -0.43452103972438216317 -0.37861182434594148338 -0.12199110712762761821 -0.34633942000319034582 0.56951004666286841882 0.39926409920631428241 0.47069383822079696733 -0.12199528330561906775 -0.23496516526569466432 -0.55170616810141881459 0.059830597491103011676 0.83507719565808713469 -0.75307005433916773818 -1.3265377040725243596 0.25498128187649460319 -0.19312745805313885628 -0.27034978670409104407 -0.53864905977215304933 1.0699283089436435468 0.91702715896525210937 0.50689663932098794064 -0.37875229366745810644;-0.34061300245144887633 -1.3184994015549083013 -0.82577194186525959552 -0.72095936330223453492 0.11109599998255784148 0.036644238207890658665 1.1996054835445588704 -0.2325478709346736339 1.2789770076263504706 -0.52114345556978314278 0.38848122965811815455 -0.1872583236655791239 -0.16522564448438195606 -0.69829720700969466485 -0.2749286530087154401 -0.28059270606295227957 0.70001010324677481744 -0.49557810208621699832 -0.48689261036041209252 0.015044735748609365522 -0.069851293374487061216 0.53144400474028441472 0.58104586956074111281 -0.47149086860590089243;0.88898576688047548089 0.015517781348548597559 0.4049733197951685959 0.045003835105221851043 0.34752155470177747976 0.056068874440854864216 -0.1030057659610767451 -0.65900873062771814226 -0.40644692901973478172 -0.048506065460391718791 -1.0231215318521771351 -0.21118503623566972638 0.47063548283033240782 0.5326118979187683955 -0.14006042297624465842 -0.1268092722995003141 -0.9059442817359681932 -0.26053785708083870842 0.39323583516952775874 -0.8241573100368299043 0.86489295386808440202 -0.18005269832383730133 1.695795990389954877 -0.42079845344708877164;-0.28903415709298974079 0.31455671716095517931 0.7233797896605751454 0.31294600202121158894 -0.029245451068438062942 0.22218051224585147474 0.20995023368619439297 1.1337280585094748897 0.10824526720079775954 -0.44635543004070021844 -0.62762898139152911714 0.23047387429915261459 0.10435582462997516906 -0.12846644968806314457 -0.41981813119641492316 0.33898101215808279507 -0.80149057157464187462 0.096509887842465474916 0.32898864838063290872 -0.13735948395407632239 0.28802833997563553892 0.23388731985389271673 0.92615965860324600545 -0.1854853116199320362;-0.11114916238384869862 0.44869859180469573445 -0.080375763555132151428 -0.21544613559715350415 -0.16982910152279340199 -0.22164005932255667619 -0.036932610519242167757 -0.50374628874307891824 0.3047366042774155015 0.048793891378776814427 0.14428753451253445439 -0.42029052159645263753 -1.1592950691324674928 0.37173466906265234533 -0.095772384693038684067 0.66460617209521133386 -0.32555091125863794277 -0.31271162577908745428 0.25259892333506861473 -0.034670325700391094181 0.10232949806187417729 0.56494065558773187696 0.21688466998611130587 0.72116071246303148357;1.2361527698977410328 0.50959815461809587767 -0.16175280579517978263 0.025514263673590539816 0.034051501655161825477 0.13532097630438424951 -0.45906889763561586904 1.7193687026315491728 -0.7308654324036750749 -0.17540344990167661132 0.24126012743373173586 0.24845471896306153825 -0.18014107321147446172 -1.6018747656488980802 -0.39508791949352944917 0.36210837262385209279 0.30848871581854753199 0.3591417940635610595 -0.036907994651152339904 -0.32253983658949292312 0.90427789108402512053 0.27905484470251967766 0.18682384535367818623 -0.62528606740712988632;-0.18050729027546993932 0.35685253386019361033 -0.17298187726031544198 -0.42394943061817963459 -0.21780854078245320826 -0.38011683092333370393 0.12862322737952416873 0.31675170052769474616 -0.24509271524576670132 0.30811474251941234348 -0.44161416172117556878 -0.11570024425658870237 -0.126335626413251495 0.84515285872833190162 -1.1541362408650512883 -0.45927159378968618331 0.55058924118177721141 0.82843674436763770075 0.17044280171064699059 0.0049878905158765593844 0.76665049001633123193 -0.36916569803124338334 -0.87905615032553252597 -0.57910950773154989957;-1.0501447830016170659 0.19858018452756517891 0.80971053820449523375 0.064517794068663619766 0.15255583291865573714 -0.48197772824625190191 -0.36720721673484885139 -0.34244297563093195613 -0.49207217537880765246 0.25154505105425001288 0.70733880722762099147 -0.45742172697883759502 -0.050575295570456743621 0.4777425008592124378 1.2207381941230248668 0.080978561098788703898 -0.40232167225958187506 0.73809861100959761604 -0.80016111811617984806 0.49047426908019359226 -0.46859760061768146455 0.20188256660681536125 -0.20787589696460398447 -0.8406731214516537376;0.13496947328252417719 0.81348558322589326064 -0.37712511247088842392 0.083116343390752578379 -0.020113214955578582327 0.2712820951879028053 0.20575667297296207359 -0.25046892781208635048 0.28385938660170650927 -0.78298344787772311548 -0.32230159688113590999 0.41413329983448293747 0.20295216653161310405 -0.48472327381169166838 -0.73528355263418276877 -0.071620040553930702787 0.084367862821189548717 0.10720724137782769447 -0.83371568526058437154 -0.86301335995110184385 -0.30506870798774604614 1.2711039942942956582 1.2656092236087441716 0.1064615163356771449;0.27002646828991461181 0.54238772247800615123 0.49528197864678485951 0.0068413483882031698308 0.087138489296751525659 -0.17698986481426073891 0.088151077657594070769 0.24564014180584509139 -0.011612734510914310415 -0.12699643780957128869 0.16061752941321030819 -0.13123517783159055483 -0.59405999734145720215 0.089202803396598681629 0.0020617516678652376277 1.1424242933442487757 0.97117720136909013728 -0.04324256039427448739 0.052118824582533931911 -0.52266892483214455467 0.44436698224710940996 -0.66518067433483030193 -0.1885779661238634608 -0.1459162515127953863;0.98314004070245852862 0.52230396423117220195 -0.057044930403852819878 -0.12222058756051201733 0.10995464456021793176 -0.43926974206077101792 0.11712126496812837184 -0.54494132092574099069 -0.032217429970863756261 0.4077018372390112666 0.23252784708833887373 -0.45613282413502120871 -0.06830189561358687711 0.20945730363767658955 -0.62744472668956852157 -0.64586387916849197222 1.0209401492319376548 0.9905840565136654341 -0.23303484078382402656 -0.16505232757525745146 1.0460937882695704459 0.17753631278586631814 -0.35052327101962166278 -0.92141224772313878866;-0.87525884049031410505 0.96738685866164686455 0.0318263868817902848 0.0082439572716967064736 0.19155881947603251025 -0.1051483153220046235 -0.067300368013247957588 -0.2469035090892583717 0.054639355184370366758 -0.34881018114868667102 0.64543710476441684687 1.2498066647221437453 -0.15763263115105979884 -0.82385952542522034037 -0.25503379124036357206 -0.83223190134820201891 1.0075538781660660081 -0.75935423508475086152 0.20302359672293873727 -1.0379479780579918824 -0.59974425020237742689 0.65034339553170861237 0.80251910025413519811 0.38342918284340332669;-1.0532301768983123313 -0.84063555226487085559 -0.030184211912579500536 0.27844927293586657635 0.26081124929991666983 0.44091857121938216046 0.13967424342749160115 -0.19301940866003108876 0.36586767471221420811 0.05950181003243888711 1.4888047584189101347 -0.34419326941805172826 0.0090750405109473394893 0.18208684951955375619 0.22825172711910063361 -0.32961134494985527832 -0.84760918526506867643 -0.016621236349551659489 -0.075115063850847152427 0.67672835420390742289 -0.80435440077146458382 0.00085466642659933443615 -0.65587535030536259217 0.52765513867874158649;-0.31515777285222473791 -0.34954841184315044167 0.62321970449604657816 0.1263142931064585861 -0.16960657154777522559 0.053289299022970353092 -0.28863792614974942419 0.26759681588898076576 -0.43963166228913325151 0.046529467686630805734 -1.3642073077393626068 -0.25958369011376580815 -0.1646948866968663272 -0.39412776792496634348 0.76290216148599576673 0.54137411405440605261 0.34791955862548001877 -0.34106128162330279219 0.48671703248158104671 -0.051671087849777308509 -0.77893744661449026978 -0.23629541176094798205 0.71297201815723443286 0.72635566124786099529;1.0215518336535440724 -0.41975514056085821979 -0.30829297003655453668 0.04152217726628935901 -0.65856186093911384116 -0.00050289619497187638963 0.16171084608513852654 -0.30828203008382687456 0.66930854861841682091 -0.60493592298865317414 -0.16578866673223602302 0.1619670919336575754 0.50306192944299454872 0.33860366738436598055 -0.71576688374211849819 -0.58752097056700014477 -0.88420088184128764475 -0.26949250419565723424 0.56562651477642589271 1.0385941020643136845 -0.41936746228241039702 0.5665386040417019764 0.39616326824477254842 0.33017987508091806159;-0.37131350366587062561 -0.10135865183920561572 0.96949113399792097301 0.046168965293640666647 -0.1822462437048606998 0.015031052382976816534 0.010390039914867418153 -0.23816703842079775533 -0.13227260571453189342 0.5646959605506322033 -0.11410023323548967866 0.5134964783240854036 0.41438017650471714592 -0.15202784904556634893 -0.20648163809962183368 -0.57401986689923212293 0.68232491429780650627 0.37348266922107853372 -0.098632681969632735042 -0.51451561263341027974 1.0507913658926408829 0.13990350586764005447 -0.080985388740071370672 -0.98896524610558322887;-0.76357030974248318866 0.75078608200617169555 -0.12691862136707224296 0.18291077460840057811 -0.1411001253545129952 0.47853280135196668565 -0.66062661218882046121 0.2182288085316963222 -0.1263130968742900706 -0.052696702813986841252 0.16621064056876164172 0.45738101810603537523 -0.27381387206488572161 0.19526405313772507433 0.55876146311892849194 0.54350458247398580891 -0.55893119156551773763 0.2747308139402488969 -0.14623232438172889536 0.61212701506672828611 -0.42604271344787197906 -0.12742817644451615022 -0.72427582843168758497 -0.59267394925969441033;0.78689754667858446968 0.24244177227448970857 -0.23142074586079453002 -0.36685000949900170575 0.16311811982533372389 -0.73555684542547306037 -0.017022856425670810504 -0.25622278734139886103 -0.14466810986688061202 -0.72595654464612047185 -0.1748992886244884748 -0.60753813138620316181 0.17522355059046054726 0.1874471657553410664 0.53305188691181493166 0.72404216881475080836 -0.31516212047551861453 -0.71599404033350089183 0.048324644301187352768 0.46649038333530995493 0.073545805881105458246 -0.19101535847148048974 0.24010105854807520243 0.63784020854309630977;0.16374442777983339026 -0.20149064847429842828 -0.46798570335264572106 0.39498358118622994839 0.21483222017781516966 0.28159377037317306902 0.38768383662027411374 0.16165951485796536957 0.19490118079069507218 -0.42629446514780433564 0.62086435061516342948 -0.81349101155194403212 -0.24688247763444431948 0.441864876963111608 1.0616588464489677968 -0.6306365430906440972 0.36347792301323855746 0.30944024077946574725 -0.71858463217740298212 -0.16971162391876318254 0.18911899835270756798 0.6233513534773764686 -0.83209505613549683556 -0.30556842001008927001;-0.54729875807970740365 0.0082887690151652315684 -0.062282925426102135613 0.12321455281676536864 -0.0021882766341556540539 0.11119834039774563472 -0.5414932229839697353 -0.35785662371735632581 -0.30074289003784404617 -0.58060457215085181648 0.67034497611064236544 1.7871206448885741391 0.42075795468049381753 -0.09879411508482331683 -0.57773697550387070887 0.60080279782044787584 -0.89095783984438492453 -0.74165887836802568689 0.37685478150218976179 0.92154903563587642346 -0.76276680115872386168 -0.68590993211202599955 0.32107785238010544404 0.76167304885278697135;0.57515946922033100996 -0.061792059493077228227 -0.23355363364122394554 0.86571572648866024213 0.47429850185354477388 0.84776232323950262426 -0.35517498976800149224 0.012011591337242629937 0.18600191144368521945 -1.0026116702219178833 0.55797802766376891626 0.63445656685489426607 -0.035989390343004454276 0.35812926320586707662 -0.14038743056343561122 0.20448558639379404989 -0.68018905227818426962 -0.52525424719650903871 0.5699436684647075646 -0.026799481703292257762 -0.17797894947863793225 0.69018839524618447179 -0.19916388745070706667 0.31788470524629236502;0.43147820305846656952 0.33046432058726854519 -0.097156535279717987086 -0.11204157117194886439 0.024335001756033692449 -0.14885231536715060052 -0.11743500573661309894 -0.20631675958224018896 -0.076681628540680876749 -0.13661531151459593847 0.2777469695920996573 0.2818693043766963835 0.16356763037615518197 -0.12979756610814963125 -0.1460703757042708939 -0.19251811018150274957 -1.1413070252203267874 -0.35678546194205706943 0.59172994829928826643 1.0774157413671803241 -0.073171285587418172236 -0.29361505892038713972 -0.047457661640251336266 0.11847043832801973373;0.94792518792584068432 -0.82975289457502188206 0.78105061146577126063 0.23352127544421114047 -0.18013570862074962387 0.13736822313946384089 -0.0036988056137570897441 -0.048652549612810687407 -0.48947568624551263117 0.9047523474218406303 -0.09748174277682272737 -0.2006773212253337435 0.64063572048024952643 -0.4489733853379533346 -0.19796660989791456386 0.71049757029944560216 1.1507023287544011492 0.41486384138766591034 -0.57518589317711099618 -0.22755286374680488981 0.32735936540457721833 -0.51912932274165068947 -0.59338596605044113819 0.31895672026855770298;0.45661334716370605147 0.028572855665063075226 0.70506562176691123245 -0.031326785102035757669 -0.20600529414564769382 0.47206200330922976072 -0.15857800463810020619 -0.28221697874132062323 -0.052343381680024891889 -0.19170262769022203275 -0.067705519312327100412 -0.16286030146788110784 -0.60506623555532490499 -0.10144689841493075011 0.36617677138584237007 0.33278001255033967665 -0.43940645991066812348 -0.21252304888705733643 -0.35437870123170966963 0.053571483887734742957 -0.085399006020505138781 -0.060150696918889502707 0.52388117182722904186 -0.37778458656700408813;0.59485962158469629646 0.43346365787644286494 0.70881973163481215572 -0.28123539376751011121 -0.28596954622850495609 -0.48341479038231316423 -0.094233276159786660831 0.10733131226271688807 -0.16965022404236473896 0.06201647855790793501 -0.75633957185705658066 0.3739090162567918485 -0.24650317781224911906 0.23202094428223501987 0.96733823380347994103 0.37884007587156787178 0.72515727037434252189 -0.024842990948939353002 0.15356224048820935058 0.36137443186294226916 -0.38821718877427724426 -0.41713880838693956354 -0.080555336219518089425 -0.30031205072237582288;-0.062529062454379613634 -0.95863248975884640668 -0.18674513938593964579 0.1068035203155716234 -0.040168789005751832921 0.27200033784425270422 -0.35238640034920803989 0.74364721549473966622 -0.42652015672185955575 -0.59986857873082932713 -0.72434799959596851693 0.67946706641190912634 -0.12450456203139791123 -0.13405945147413844687 0.10297985749818315548 0.081115221117243341276 0.2397344656443715083 -0.45888931512268610335 0.84501038732522737451 -0.6708887682293731558 -0.12531522046430965123 -0.20241495429302946985 0.17392358316802927765 0.57982755912607186755];

% Layer 2
b2 = [0.29781673210226466963;-0.099195640792682629461;0.031599343338826371697;-0.26059375302528087204;-0.36101772110080521117;-0.72645549432494016528;0.60819118968380458945;1.5683402970556914457;0.29839023678596166];
LW2_1 = [-0.74597846795530298181 -0.095911626924197024291 0.44398010040967605949 0.1931187228919842569 0.4348825401370470245 0.0042062618523260840442 -0.23927033615623607976 0.58419515727046522624 -0.17385083655553137949 -0.062148387935785677494 0.055424855190818037021 0.93556925318648220813 0.12316855138308981099 -0.47969228802576474591 0.21764022946707700656 -0.23886836406838632407 1.1579681006544237931 0.2073996499657453918 0.1818758707826335641 -0.24284555741244021054 -0.16266704219678324028 -0.0075921520816316402647 -0.091313793222095873681 -0.19176978468871769268 -0.16260227979701166734 0.49031818383025416175 0.35835915665453293988 -0.031304958115767764215 0.51099314124213957022 -0.68520777984702585517;-0.81546955969660295249 -0.38177067731350716739 -0.58837227735298425202 -0.37362458456763419923 0.27313451056191734301 -0.56968138122385492128 0.52556919765987109017 -0.72913132994800911035 -0.53117501761459551268 0.023284702591806615002 -0.18513404029544133778 -0.4130237859401941769 -0.20249781711311046206 1.5981922649651707502 -0.65979881513353921818 0.1422690886419800127 -1.3238806794139486023 -1.0612736070409971578 0.29669402598657623749 0.7461689081264678558 -0.94748030844437647335 -1.6000755926319190081 0.24574163438974305773 0.75786704448891983876 0.06155934631274076474 1.7842428103515675097 -0.49112881931758195497 -0.25854431408514921831 -0.69940067780967873912 0.6326462550021106912;-0.30710580260196645996 -0.012980095756829930845 -0.95804987345553882516 -0.22144588732678774368 0.074022098527137494828 -0.10868129778585668144 0.33406766189366227104 -0.91092464882371348978 0.7054390324194870221 0.5919161515304498522 -0.19646167079447610093 0.28438702725581638253 -0.31554306281283883706 -0.49065590601804964788 -0.90438675188555783802 -0.70957802684874304866 -0.4626108280531909811 -0.64773483297673284387 -0.38979872432914652869 0.078844444157444668053 -0.51829957731802522858 -0.25428966303110089875 0.57259614762856270165 0.4755987086218501636 0.14152750115046688895 -1.0280618933672702742 -0.11375454206683799363 -0.15619639551892836038 0.36905720666810187813 -0.10690298603113373987;-0.24886412647328351455 -0.16357456035921402737 -0.5951454306475031375 -0.5887084737460208661 0.21670187826584494384 -0.46785460061007855259 -0.18444187607385467698 -1.0927555438954794642 -0.51794226061877790546 0.27372064102047116707 -0.03864221626657362435 -0.53658537988849164257 0.22362152553445413528 0.87342508224145987139 -1.13336839869536532 0.27963861304126758078 -0.48337754398623938856 -0.39095968341098785714 -0.092120504374411354975 1.6109901425882762194 -0.32507434494674475323 0.43471833526583020246 0.087764006922480389261 1.3420169963302301941 0.21910729510714016532 -0.80606569290151097729 -0.22213468979225128863 0.35291158178586012895 -0.97738643526409052509 0.87249140788158074944;-0.42574226403073511804 -0.44110473555752338637 0.18035738260731440374 0.5038606894834396499 -0.90892656097531543402 -0.65742875743188255999 0.41739842292747275643 -0.075846561548616839299 0.50310929295320505616 -0.9260504951093083692 -0.4365342713777251582 0.78951089355805659231 0.39540897030949456736 0.37687920454385243074 -0.23844626082025066616 -1.1299427423069743348 -0.13675674978060681219 0.13395038799979275268 0.069649504868367906329 -1.858860603453920346 -0.19966373602260956144 -0.9166571943746335549 0.32437238669439016903 -1.0568919169708115291 -0.65834364212569695951 -1.5231231221482304239 0.1082856293663297248 -0.96829648391876010916 1.0959230665560273366 -0.59254306499394704399;1.2248516115325907005 0.22119546977330081794 -0.35520146063275159776 -1.1534543466125739553 0.072923059298916945159 1.6607291952270986091 -1.1839735490801130968 -0.12709882502067293419 0.97273554062225464634 0.45065501693111487125 0.97514722944054199605 -0.928968021684657419 -1.0259895598809674055 -0.7721753582212566025 1.2672612595452317219 0.43661566448714295152 -0.59618364537389800795 1.1495682927449295541 -0.99797995195223565545 -0.36583043085232413993 -0.37063853804794322233 -1.5520811029361860633 -0.62952925489212774313 -0.23908533766234829621 0.78743835726633337746 0.75624965659332743506 -0.57167747915946676152 0.3976718143016713114 -0.26579279443056014198 -0.48167574786004924148;0.52000609983067902498 -0.19159432894894340427 0.21726229851632708479 0.058992561355775276211 0.68310047743259671993 -0.018201833603470305573 -0.052126349133949964609 0.2925357294176202938 -0.52756086934686419188 -0.11104682113007641187 0.16456406882329308039 -0.13889925481934450868 -0.16802339949683620102 -0.36928413232542850464 0.49410547876993188288 0.99436245525914490617 -0.52299021620153662848 -0.086152494409056035174 0.15194871661603662205 0.24951570200056097382 -0.15462762339261321154 -0.70147101876554196487 -0.30514628110603686517 0.080082539643629019332 0.05366299082604181897 1.402533739757080733 -0.41438530320890459846 -0.75827937285806412682 -0.54678582585341639621 0.39501908300930943518;-0.11430921557763060181 0.63545435244617198833 -1.1100801337314807338 -0.40232175304432510332 -0.23846170413222891882 -0.82741068797672501223 -1.07244926907660032 0.053372980083331682255 -0.041258566772654776955 1.1600560523650447209 0.46939422706836425592 0.77719332293869158867 2.1429032242470209546 0.27373314246621371915 -0.43303691454869713828 -2.1419497653187189457 1.7813748074365609586 -0.42989111888287090402 -0.97500963889089453662 0.0063366099772038664284 0.86961554976777066805 1.4646003350594472003 -1.4495028777993268498 1.0626324973972600674 0.097419915437878895625 -1.4607176016985672362 1.8669375018282248213 -0.58001287744537788349 0.21424298245658837669 -0.39131597758602426618;-0.084027793687422247526 -1.3494469728795206453 0.61020175421624456291 -0.95131537015469425089 -1.9501842818181833739 -1.0460687026060913052 -0.1521341344695220088 -0.30803698607516177832 -1.8299837546036801239 -0.50920644105192514051 2.6348427324279963813 -1.0637907315778516448 0.75322507673894267821 -0.33092414077124060467 -1.2864921939181317434 0.47971075342115720996 1.2384411548559690619 -1.3947879151389859231 1.0245122241257824669 0.8436564601739670044 -1.0555002381468328032 0.28745134382803438911 -0.35029110506719390861 2.8738176114321207777 0.1929766628780622828 0.42621775335112194183 0.03440259148592219457 0.33387354102413968615 0.79768859624664478769 0.91770017658265201632];

% Output 1
y1_step1.ymin = -1;
y1_step1.gain = [1;1;1;1;1;1;1;1;1];
y1_step1.xoffset = [-1;-1;-1;-1;-1;-1;-1;-1;-1];

% ===== SIMULATION ========

% Format Input Arguments
isCellX = iscell(X);
if ~isCellX
  X = {X};
end

% Dimensions
TS = size(X,2); % timesteps
if ~isempty(X)
  Q = size(X{1},2); % samples/series
else
  Q = 0;
end

% Allocate Outputs
Y = cell(1,TS);

% Time loop
for ts=1:TS

    % Input 1
    Xp1 = mapminmax_apply(X{1,ts},x1_step1);
    
    % Layer 1
    a1 = tansig_apply(repmat(b1,1,Q) + IW1_1*Xp1);
    
    % Layer 2
    a2 = repmat(b2,1,Q) + LW2_1*a1;
    
    % Output 1
    Y{1,ts} = mapminmax_reverse(a2,y1_step1);
end

% Final Delay States
Xf = cell(1,0);
Af = cell(2,0);

% Format Output Arguments
if ~isCellX
  Y = cell2mat(Y);
end
end

% ===== MODULE FUNCTIONS ========

% Map Minimum and Maximum Input Processing Function
function y = mapminmax_apply(x,settings)
  y = bsxfun(@minus,x,settings.xoffset);
  y = bsxfun(@times,y,settings.gain);
  y = bsxfun(@plus,y,settings.ymin);
end

% Sigmoid Symmetric Transfer Function
function a = tansig_apply(n,~)
  a = 2 ./ (1 + exp(-2*n)) - 1;
end

% Map Minimum and Maximum Output Reverse-Processing Function
function x = mapminmax_reverse(y,settings)
  x = bsxfun(@minus,y,settings.ymin);
  x = bsxfun(@rdivide,x,settings.gain);
  x = bsxfun(@plus,x,settings.xoffset);
end
