function [Y,Xf,Af] = nnet_2019_10_10_19_27(X,~,~)
%NNET_2019_10_10_19_27 neural network simulation function.
%
% Auto-generated by MATLAB, 10-Oct-2019 19:27:00.
% 
% [Y] = nnet_2019_10_10_19_27(X,~,~) takes these arguments:
% 
%   X = 1xTS cell, 1 inputs over TS timesteps
%   Each X{1,ts} = 23xQ matrix, input #1 at timestep ts.
% 
% and returns:
%   Y = 1xTS cell of 1 outputs over TS timesteps.
%   Each Y{1,ts} = 3xQ matrix, output #1 at timestep ts.
% 
% where Q is number of samples (or series) and TS is the number of timesteps.

%#ok<*RPMT0>

% ===== NEURAL NETWORK CONSTANTS =====

% Input 1
x1_step1.xoffset = [-2.5420993113047;-2.75753368080586;-1.95671714450654;-1.6082996260781;-1.75025149670606;-1.53199871173354;-1.15338647046057;-1.15494893002948;-1.09765446421731;-0.80219104782136;-1.65890671525923;-0.997386052974673;-0.567904561171191;-0.474785522173528;-0.498338062702698;-1;-1;-1;-1;-1;-1;-1;-1];
x1_step1.gain = [0.358695135085664;0.369615114023194;0.521169059653196;0.66909148822695;0.620555566584522;0.68470369946515;0.855609063582765;0.846233435761458;0.927430182865448;1.08131688861044;0.687126298741898;1.03293779438154;1.58316752455083;2.17118323622864;2.04803065469618;1;1;1;1;1;1;1;1];
x1_step1.ymin = -1;

% Layer 1
b1 = [-2.2938403842049788217;-1.5394933561457226912;1.4053755896649200441;-0.16338526388588422988;-0.79099108430352782495;0.85170253392633032963;-0.18217641736439782463;-0.47007330237874783707;1.0955009412279863579;-0.70266761880220585113;0.1166379891080362996;0.083736753482235443125;1.2609631911344660882;0.4068194585238869565;0.56635225483279616476;-1.2163224496791587015;-0.75546004884676887237;0.31945814799783511795;-0.7588156345523744406;-0.56448716832069167904;-0.9917577263374316443;1.1100978495230160448;0.4136550537528851379;1.2349328631835547743;-6.7617892733860713861;-0.95027731486739497324;-0.80636274537991425859;-0.86318266483417671608;2.9825193481002294504;-1.8450252812415934844];
IW1_1 = [-0.13315552281175394023 -0.80341674703542764746 -0.066884643111978836494 -1.0219004314092927643 0.43205089955625008979 0.4127696160801216374 -0.32225743846117610447 -0.17685380040657713852 -0.22252852369250822329 -0.47154265599348754723 0.59427653985138417791 -0.12594585426971308117 -0.24965406531531336709 -0.12293279208037238837 -0.15407775408932591898 -0.58371198860957840271 0.80552837616516137498 -0.7858756337888186394 -0.2550547361594451834 -0.6591366273148774324 -0.87293861723810872721 0.19973943268873703416 0.28963925305509641284;-0.83396327991639596089 -0.11173455889224329085 0.57798881381908528976 -0.072413524929781730721 -0.3314862354501380004 -0.17434613631835182979 0.079853698498853570298 0.14276784376600204496 0.21201717831580504936 -0.23251615904017802761 -0.07907797743042570271 -0.11088942926061433336 -0.35981318318562477421 0.011157509170492716649 0.010925487207795653299 0.16045624640334010813 0.084717242097991043992 -0.99075151557600837915 -1.0207427904374710703 -0.011920401382208640345 -0.70112582313499849374 -0.019122390013235814749 0.26438438360787192005;0.84405294601482006023 -0.011048246043731415472 -0.10877669525578345655 0.073509831455532470557 0.044662773243154006708 0.94419987067456412344 -0.16810885415991991265 0.63998498199353104354 -0.32065762124677171796 0.94984917625760245663 0.72546117855145919595 0.2357993508218809986 0.64571887479696465917 0.14765227609332015613 0.01108619837228055037 -1.2494967461799924013 -1.4168962688418509366 1.5223289401212913852 2.1495998927594839323 1.5144523957804176817 1.1607726084358542806 0.70022218447571193956 0.19703185909787976349;-1.8138569178205534715 2.1897540299599458358 1.2826832305950555124 0.23327940091317594939 0.55333971551183513959 2.3104168357319627702 -0.82277495394151789476 1.2274693574981971889 -0.60621674474827524914 0.49553351209846602243 0.74385132019213762167 0.11762730349115377293 -0.11391568006407101765 0.61021549997897750472 0.25746952332566303001 -2.7535229474383622339 1.7343325304393240049 3.7486344160775497691 -2.1134183674849307266 3.040130381795047132 -2.0320114416859902384 1.7092105209244596864 -1.2772743407512330283;-0.29122312908175007617 -0.26211477531606036662 -0.24790008760325371595 0.1827138496719609706 0.24396302707983291702 -0.45565584188705610114 -0.041227894004884274581 0.07060577852488530981 0.086634407602327642706 -0.468499272384230947 -0.045688847499211357461 -0.13857386029486720713 -0.23205313255307299936 -0.2647132078391885579 0.19809219901229332961 0.85031292663392055164 -0.34244070343850435689 -0.90372094446181816529 0.32238127691099083272 -1.3667184182849330121 0.20090488953182408793 0.36384403500019707467 -0.10958805305996108248;0.32007382854487509416 0.14561628222055059134 -0.23677329723675133444 0.04538202670450392634 0.18433612099289267694 0.16500827463590744815 0.028998923070471666064 -0.060871378840297009349 -0.14475849545989907807 0.12668185319304800518 0.16105963491800667775 0.039439360215892123318 0.21113602741989945244 0.087796124894015309392 -0.058120680012016541494 -0.21066918453435215519 0.017017969663317793899 0.1470643243751399154 0.56196512392650543877 0.28319447261034347285 0.37705138855227093853 -0.068620577951876232659 -0.13895016220528091933;0.078012477953973452527 0.012836302719993933352 -0.13466925799753756698 -0.08644245395804618648 0.1480606496984389342 -0.024083850099903436615 -0.06700376717631495449 -0.0080027093386198684677 -0.050383732438910672213 -0.087132362944792929316 0.14697310509498065501 -0.06581317543565583239 0.022228465194777818209 -0.011238183533888747995 -0.032309377439052093528 0.0085056835074332117624 0.42525132707068996618 -0.27730000592405462667 -0.3084917574360565018 0.35577270682375011779 -0.67979049636578148252 -0.15583249710991134429 0.19670289759062326018;-0.091293970015414574459 -0.22198354708872400365 0.11371115759511622734 -0.47896891004324276819 -0.18638900641974726069 0.35600117385671997683 -0.12831008707863300611 -0.12782430498078090064 -0.20189772219154530908 0.10013153376400957262 -0.19794144995065945936 0.030504998989518569696 -0.072352386738372423403 0.15359733726859051139 -0.055780494107976079377 -0.1224484442699797504 -0.74968266637449432199 -0.06237126315784483066 -0.10678428773015886943 -0.17575752280457440646 0.16203164296242658637 0.063467553577137972298 -0.062910653493899071353;0.51411862626491022787 -0.18255156152645982126 -0.040083123989412307309 -0.014073305730355315651 -0.22557933713604214065 0.11188080237925648874 0.27885801004342702925 -0.20389142197813484025 -0.18150325660373206604 0.15723756400597832528 -0.060993836199473010218 0.11652491105954274064 0.025729576243859523382 0.098812292836179344002 0.075901442178654049409 -0.46106180515041111923 -0.32120596239682636108 0.31017159817700373781 0.67373442120565374402 0.94976039817206336924 0.042896287770637676895 -0.019670297229992281945 0.76968534214164840979;1.0253615428328812786 -0.77972210251223861288 -0.84927680707724728659 -0.52012669858541427104 -0.33171071676950664164 -0.87219663900754496044 0.81188701118025141668 -0.82955704825064047192 0.21352090492607725403 -0.41210571366201231847 -0.92100617358903535958 0.1006681809136523581 0.23584259379937297374 -0.30629357087542685711 -0.058574241317123305894 1.0935537408549182992 -0.56970033835049671556 -1.6965882652099351091 0.49166492591377136678 -0.87973028224992644297 1.1477282134238724343 -0.77788831927365775787 0.86186261063347602285;-0.018354082755162069024 -0.49660567690503754079 0.14714632618000911268 -1.3232025303384629122 -0.04180764750831523352 1.1384409939811079848 -0.21937568931683434914 -0.60019244783766767526 -0.65896189036341801248 0.17545787423318426335 0.27123438318354220478 0.22263949234992694293 0.12199303747388207109 0.17297647326670143042 -0.075667211689776900374 0.17690231163455955032 -0.37609832649561270035 -0.35921638759650931227 0.19386215240360521461 0.0022194751549280576294 -0.14574953366969606305 -0.00034403256431494327362 0.058150155559933948413;0.080312505848107271222 -0.16892862598597818691 0.0017526957479256180007 0.17920148334957758385 -0.18242245072975674103 -0.22969744042123615979 0.14866348142009080946 0.15480014263735364377 0.27576320940550408389 -0.045504697115427858445 -0.20124288023227474009 0.025181902843565178579 0.090094343688694566996 -0.082406221032852541852 -0.086860037620721974871 0.017637738772552327693 -0.71768326490837197618 -0.75218556001777336917 0.34141799750636003807 0.071352293270488850729 0.16764434820886059407 -0.034138561922929716586 -0.056108192758418218293;1.8430069526430790106 1.3280642799040125457 -1.3198100257347957776 1.2919208577452074849 0.33003671234906295506 -0.14252246564233891912 0.20670262299457498045 0.10608187141716683699 -0.26446634328456758434 1.1076487457769663703 -0.21553670193197393967 -0.02061932706004290447 1.189206895221671445 0.099297596433132337412 0.070623881329032994758 0.44786872820150475105 -0.34602831567372066557 1.2011115819307542907 3.0525706909912155851 0.47854514623178268096 1.8362545445282238976 -0.091909178794306781168 -0.66107675399226872859;-0.24880599729283128796 0.46016996662925646611 0.11277707914732382211 0.032997646535485203323 0.080822179583292186322 0.36131483199011754648 -0.1803358255798373222 0.24302693974002237409 -0.037913971469447971252 -0.076055391521961168699 0.20358073621735189862 0.081293529505239298105 -0.21550928671246516455 0.082561155984586229173 0.064603868549845247515 -0.15597762940322454361 0.74027572768682936566 0.23909772848801738587 -1.3679509542489469709 0.22497195545268167116 -0.25229444625842079031 0.1021818770072191046 -0.30169229606565101109;-0.079122261420423528611 -0.11946313853639052571 0.1461484063465411376 -0.40399107107879422829 -0.039465503680056385205 0.32160325259390060149 -0.19537404248926845685 -0.13128458250948202291 -0.13352216512175832386 0.07868135744179893809 -0.018641709813374415794 0.054472667347287805073 -0.13188706441900144295 -0.00042257867734111879965 0.089843642534806686384 -0.3233923389128181558 0.073139751132773087039 0.57671670280680720211 -0.2013485607806895783 0.4315082259679188792 0.15826952273091504653 -0.11092873392405069866 -0.043022081884205795599;-0.085036164093820976184 3.5997880934778874185 1.2353285732818350962 1.3070377871601326358 -2.5195039068417584005 0.70649828583213214461 -1.0681278420330273526 -0.23470014509368383737 -1.3951048035998359076 0.75570285906506273754 -1.1413256664523632189 0.22189758751476562626 -0.46165081543532576758 1.0102158422203793009 0.75085620155810672838 0.29706511334088292475 0.16395128635950687035 2.1247145605214647901 -1.817231880981679204 2.023365015148618884 -0.87563075525139721922 -0.66766904248219138829 0.25805816956812765994;-1.3936942899632438486 2.059171994568759434 1.066908812835267506 0.23910009810498616956 0.34668971879021553972 2.2199571203557861843 -0.64182895235375125864 1.1236688877728904234 -0.48278523850466220635 0.30023379756756679582 0.65821904695373634198 0.11578391976328047952 -0.23494713880460590949 0.5315070406881304832 0.30903102508349100663 -2.3623593256242818583 1.8739200406512142028 3.0157796294220200473 -2.7409036497070649041 2.8621192133373605238 -1.5040854181896847752 1.6981868280151737327 -0.97597485348458079546;-0.96378891161610724669 -0.41743975002925470807 0.63394133968956467573 -0.41940575299496923867 -0.19702226354302515565 -0.080005932856785394458 0.015959755693797258308 0.020684385491662689305 0.19256293859911233213 -0.48135823633101054719 0.14054022564079007851 -0.05661775399825346583 -0.4423339124146843937 0.024090659848216525174 -0.017242174323888623255 0.50967160912461462186 -0.28998765721748515078 -1.1891628686179154251 -1.4378301274943772192 -0.9529370653188449225 -0.82788434321966841711 0.29641992400455657863 0.30101952769713991032;-0.013132791010879779278 -0.44511637998336872624 -0.063751255491286989985 -0.014053630374516059773 -0.036877832966990271857 -0.52908207617670877099 -0.020769710413510104885 -0.17180633305892242801 -0.023765858153274692366 0.093887088598874013368 -0.11822478107925479818 -0.23355479970881468099 0.075432798365379624683 0.0090185546038196780921 -0.096303905548002166626 0.19272118455230299872 -0.23419084795662878373 -0.10121162444715119111 0.28554009854966055926 -0.47153660845488243325 0.40049543141563104243 -0.19592577158407709081 0.14690875883835019522;0.41843600135362113424 -0.672870927843153388 -0.27700064193068663077 -0.076989185439810606248 -0.06813549873700386339 -0.54088565967854784766 0.33356946483127414282 -0.4195720253433117275 0.059434558754287401816 -0.010421600963897624526 -0.3143326975497508502 -0.088675886376247251008 0.28688831424720911967 -0.12338579134263069625 -0.098721836864705772574 0.26521343267472879957 -0.86998312248770626187 -0.31737131940687135501 1.1968600943005738291 -0.49715171472951724674 0.92869335964426524832 -0.25429583068169259175 0.32791974215219493738;-0.53224740389808833374 1.4287814872798745292 0.59553492316516876137 0.033208985511199787255 -0.1344701567085238858 0.95327604009859745471 -0.34460824724645550132 0.80468378498449244507 -0.23499672013912883961 0.16249602724608508408 0.4512687452140873301 0.13610729714304406479 -0.36770407985395858752 0.3945513159676534154 0.40458154553762654126 -0.78322124741076692978 1.153560060534833287 1.4786565335783061759 -1.4032681124837738107 0.57238827765825617266 -1.7012288765602283647 0.091110076776175386026 -0.71524661282259915929;0.040142526808397104021 0.53355653837363525849 -0.17705241853222219994 0.30352971826832203517 -0.11666362057320935064 0.14471093028512846401 0.21158932472271427261 0.12691439284782313202 -0.068336231979820846738 0.23495059128398160242 -0.11475368877422716107 -0.11908560696235431786 0.23344233567441746713 0.31278087120480607686 -0.22918542892320967197 0.20547035511701378097 -0.77748150789008518835 -0.61048807977930152902 1.0515323159207394799 0.15897515675717585615 1.2591543125416189142 0.20269668662275475146 -0.6952674724335450307;1.459241009185263227 -1.9266424999913522864 -1.0419271867277899446 -0.19943022108338959164 -0.36263918859187888044 -2.028129212494681255 0.63260442729831467545 -1.0650098413932878039 0.4742442949460073387 -0.38274480657678389139 -0.64577907475840257145 -0.090763290161891968522 0.1498948256233375298 -0.50022927184455356908 -0.2533838907160859133 2.2903921277367982334 -1.6644367785981850627 -3.2978337842855087736 2.1666986537927073186 -2.2328553236838328822 1.7243686876829926735 -1.7230769036419220086 0.93759581687222059987;0.057431293871062494283 -3.7840955267387812455 -1.3174876131334969376 -1.3411890513033901673 2.7156822232941300044 -0.78053814251220365872 1.1382350036419297545 0.24630696948277802649 1.4970363292992763249 -0.82568713646287195118 1.2906958111129542832 -0.22555689040882603846 0.45154209865691613546 -1.0761553080067525201 -0.78568325696369123445 -0.16935961583626679694 0.031323006468380008849 -2.6153016373689430552 1.6376875970423090401 -1.7143383916002603584 0.95512918689870873745 0.56983806245506507526 -0.2781710805452639601;-1.0943388399310953751 2.1217973014144595467 1.1050702797994060855 1.4779448469266369681 -1.2278642637276380167 -0.63748771099417478325 -0.19691983331331308626 0.44427886237507224765 0.59313351874157971277 0.069074041800584476403 -1.3404125544597873532 0.30003601502957660818 -0.93688565377315635718 -0.35132149950579988351 0.015663940663037057011 1.173003331778670999 -4.419139894696593629 -0.25696632386882273247 -0.31997396237934955243 0.40721954174388586001 0.42154154952018235702 -0.15913681640402504991 -0.20468044942516672169;0.28872192665939072631 0.1537355834775575858 -0.17454164927382795347 -0.011333602291913807275 -0.10990782625317999099 0.074466223168015738265 0.16937559949914315904 0.02220802160913045234 0.011137367443228945313 -0.11814266754727707764 -0.11526753568705266906 -0.021184030179005487043 -0.0091566313500389545643 -0.048446042008407172452 0.016489297750372944318 0.10667680446936662897 0.16651003572590084012 0.091243936111470816397 -0.37578329766987067506 -0.42388465902441840871 0.03075763618927339349 0.57973734024033929391 0.026938336937295255524;-0.32944170177306325575 0.1479986155171914286 0.28915522374457203192 0.2201248929590932657 -0.40082873502963867196 -0.084700708474570923778 0.05422562316934156218 0.081588033665428300045 -0.0038359251370589375618 0.13444385445329523621 -0.32944924948883880234 -0.023809994158051961399 -0.055593088836264285824 0.1210701416186404783 -0.092081516449138575697 -0.39776278524276548199 -0.69186834028109001071 -0.46726303486983045143 -0.058877074174499409442 0.37510661369394598941 0.08533349499270539984 -0.12436872867165486845 -0.034764693755016014276;-0.059274184142898596328 0.54606229500787828446 0.16360672994739799968 0.66255469799212696191 -0.3481302271390278591 -0.21467329215500574602 0.17466292677929073918 0.15023974233563239244 0.023867260001206536124 0.36950983269075882154 -0.37697258986948795068 -0.0018305561685748451654 0.041212124214195393346 0.12502626677946171441 -0.015366434800143782824 0.35817723915008142788 0.20909041078587065066 0.071138113137332370517 0.16910822114304974173 -0.17841653484239836103 -0.20838879773663773753 0.083829109232797641149 0.086190799559692832243;0.3590524873284272056 0.68279970385516441933 -0.91107025801496921424 1.0094626429777537879 1.0669164339755639048 -0.33467936758623795246 -0.055712049705295418889 -0.089115640911548110736 -0.3392326220573808615 -0.32769806270898571565 1.0574982079583634675 0.13478206266717329687 0.33260643902109954251 -0.25123795344630728277 -0.12056993234857257824 0.31424325368273281489 1.5561782319300421218 -0.027802277231980976335 -0.46173805347264285093 -0.49012838965739363717 0.55810835004227810074 0.17625821461950699764 -0.17621985678738763537;-0.53944667704786464224 0.7080132328437994671 0.91052819083996650029 0.27532503297472138426 -1.6603116302118414715 0.21089503834956618844 -0.35393164954256489674 -0.28144559630016757756 -0.63532065690677563818 0.30894119851078144512 -1.210576359232074406 0.10702174369258270203 -0.42911953504320926589 0.067363266839698579536 0.23177798760793660859 -0.30090553015465509867 -0.71686963954193316795 1.4743250657708306672 -0.58175438920805688792 0.90960923028010542968 0.26675713909874276819 -0.31424594943844680328 -0.1279362040867589867];

% Layer 2
b2 = [2.8051955485619735065;-0.061837744940460265264;-6.0671098295437406733];
LW2_1 = [0.0024291882306718636485 0.24241444444462267871 -0.0043937287856399658004 -0.00076152974793784375916 0.0072983712741437169538 0.48762405639893752207 0.10193710983015065452 3.2152837062271624191 -0.011464570161400627554 0.0013909498914003958197 -1.0366009949705585758 0.41981820458210578062 -0.013640272918299030727 -0.052058447566679426355 0.1778269252250375132 -0.031151653822236117369 -0.0050582370405600138308 0.07382519185412064755 0.052304847173285110018 -0.038435814260217693317 -0.0019923527645895975496 -9.7321128195948172638e-05 -0.0045752633460804676552 -0.034041463383329285952 6.8330067671295058318 0.027853749818216998191 -3.432674032846468215 1.0493536113525820941 4.1993608666876269808 0.1410572591582786306;3.5816862410048910803 -7.4445996115654216041 0.0086053158704648049365 -0.053254971963427322201 -1.57818484344583565 -14.032462405120654125 -3.8217767655227885548 0.81091742517467557683 0.097009791564409156295 0.013649508374154602566 0.60094385855831744525 -5.0813320559578407654 0.70550819332092895575 0.38700889442959857112 -6.3704873820979077692 4.4115503333135448472 -0.083778748536771308064 -1.7695894497153981106 -0.1680780988800017195 0.12366067802993074842 -0.00068404878881345328439 0.40870803241562175812 -0.13602130604809339887 4.1718412793814696471 -1.8624183788287411723 -0.26461487419050633285 4.126972477627211866 -3.6540513760922039843 4.6691199104092504513 -1.6337324768017749133;-0.30272201597787196103 0.1799726953071710267 -0.52764838239675226905 -4.2642774647740102623 1.2636533349063068243 -1.2690704722840990826 6.9796598018485607184 -1.805218701444918139 2.8641290974039148587 1.1038456703879349075 0.1065686694392169731 0.85621055993364814096 -0.046625937843435133479 -9.9874204126246919344 1.8269678936791033941 0.23184280825400654935 -4.8093728012948089301 0.17809844964070106754 -4.5465496582878897058 -6.5412126708355478044 0.86459239713252955539 2.2241382303036814072 -9.0819724671391099946 0.22449835023669498235 0.16738708636113119876 -5.5864959619771514809 1.2355621138855814589 0.6635156458885002051 0.048867064033662060973 0.32135673105387296822];

% Output 1
y1_step1.ymin = -1;
y1_step1.gain = [1;1;1];
y1_step1.xoffset = [-1;-1;-1];

% ===== SIMULATION ========

% Format Input Arguments
isCellX = iscell(X);
if ~isCellX
  X = {X};
end

% Dimensions
TS = size(X,2); % timesteps
if ~isempty(X)
  Q = size(X{1},2); % samples/series
else
  Q = 0;
end

% Allocate Outputs
Y = cell(1,TS);

% Time loop
for ts=1:TS

    % Input 1
    Xp1 = mapminmax_apply(X{1,ts},x1_step1);
    
    % Layer 1
    a1 = tansig_apply(repmat(b1,1,Q) + IW1_1*Xp1);
    
    % Layer 2
    a2 = repmat(b2,1,Q) + LW2_1*a1;
    
    % Output 1
    Y{1,ts} = mapminmax_reverse(a2,y1_step1);
end

% Final Delay States
Xf = cell(1,0);
Af = cell(2,0);

% Format Output Arguments
if ~isCellX
  Y = cell2mat(Y);
end
end

% ===== MODULE FUNCTIONS ========

% Map Minimum and Maximum Input Processing Function
function y = mapminmax_apply(x,settings)
  y = bsxfun(@minus,x,settings.xoffset);
  y = bsxfun(@times,y,settings.gain);
  y = bsxfun(@plus,y,settings.ymin);
end

% Sigmoid Symmetric Transfer Function
function a = tansig_apply(n,~)
  a = 2 ./ (1 + exp(-2*n)) - 1;
end

% Map Minimum and Maximum Output Reverse-Processing Function
function x = mapminmax_reverse(y,settings)
  x = bsxfun(@minus,y,settings.ymin);
  x = bsxfun(@rdivide,x,settings.gain);
  x = bsxfun(@plus,x,settings.xoffset);
end
